tree
version=v4
num_class=1
num_tree_per_iteration=1
label_index=0
max_feature_idx=28
objective=binary sigmoid:1
feature_names=status_x contract_id document_issuer claim_type rule1_score rule2_score rule3_score rule4_score rule5_score rule6_score identification_number gender email point fraud_count insurance_id contract_days total_premium status_y is_reviewed claim_count claim_frequency email_dup_count issuer_dup_count claim_delay_days quick_claim quick_claims_flag age accident_month
feature_infos=none [0:1074] [0:1102] [0:1] [0:60] [14.28571428571429:700] [0:39] [0:15] none [0:50] [1103331923:9912051778598] [0:1] [0:175] [3:1000] [0:3] [0:3] [1:7] [10000:70000] none [0:1] [1:8] [0.14285714285714285:7] [0:11] [0:185] [-2905:8408] [0:1] [0:1] [19:41] [1:12]
tree_sizes=1642 1790 1699 1803 1695 1804 2004 1808 1918 1707 1910 1916 1802 1919 1910 1913 1707 1810 1797 2015 1820 1914 2013 2018 1917 1916 1925 2114 1805 1913 1709 1803 1716 2021 1810 1916 1903 2016 2114 2017 1910 1910 1816 1810 2123 1807 2126 1920 1906 2008 2124 1813 2020 2034 1697 2012 1899 1907 1803 1908 1911 1917 1918 2007 2109 2007 1810 1914 1701 1812 2122 1915 2027 1908 2121 1810 2131 1817 1913 1908 2022 1699 1906 1806 2011 1908 1907 1916 2129 1818 1809 2018 2020 2026 2032 1906 2110 2019 1907 1915 2031 1914 1924 1907 1813 1808 2011 1924 1923 1911 1925 2017 1926 1919 2013 1828 1914 1929 2027 2029 2119 1831 1808 2127 1820 2017 2016 1806 1710 1816 2018 1832 1921 1916 1924 2121 2031 1810 2030 2014 1920 2024 1818 2021 2011 2022 2020 1912 2031 2028 1917 1919 2020 1820 1809 1814 1905 1702

Tree=0
num_leaves=15
num_cat=0
split_feature=5 5 13 13 2 2 5 16 24 12 5 16 2 6
split_gain=98.2873 10.2817 9.78422 10.5246 5.0965 7.68199 5.62727 3.95689 3.41618 3.19964 2.95359 2.12241 1.72464 1.23934
threshold=241.66666666666666 158.3333333333334 355.50000000000006 208.50000000000003 958.50000000000011 325.50000000000006 46.428571428571438 5.5000000000000009 1121.5000000000002 94.500000000000014 30.952380952380953 5.5000000000000009 592.50000000000011 19.500000000000004
decision_type=2 2 2 2 2 2 2 2 2 2 2 2 2 2
left_child=1 2 3 7 5 6 -4 9 -5 -1 -7 12 -12 -14
right_child=-2 -3 4 8 -6 10 -8 -9 -10 -11 11 -13 13 -15
leaf_value=-1.1052882041732652 -0.93306888837469482 -1.0885545001407284 -1.0978243643803915 -1.0536491738651452 -1.1178626250134334 -1.221391576731381 -1.1695718692512516 -1.191244611240428 -1.1125067960655588 -1.1642358713816496 -1.1672746066850799 -1.1477112273286989 -1.2187840948965247 -1.1842077110671045
leaf_weight=12.166171520948412 16.221562027931213 18.986601009964943 13.272187113761904 11.06015592813492 12.719179317355154 15.484218299388884 18.249257281422615 14.562538638710974 18.617929145693779 13.825194910168646 17.696249485015869 11.42882779240608 13.82519491016865 15.668554231524466
leaf_count=66 88 103 72 60 69 84 99 79 101 75 96 62 75 85
internal_value=-1.13223 -1.14737 -1.15329 -1.12849 -1.16801 -1.17405 -1.13936 -1.15626 -1.09054 -1.13664 -1.1888 -1.18017 -1.18802 -1.20045
internal_weight=0 207.562 188.576 70.232 118.344 105.624 31.5214 40.5539 29.6781 25.9914 74.103 58.6188 47.19 29.4937
internal_count=1214 1126 1023 381 642 573 171 220 161 141 402 318 256 160
is_linear=0
shrinkage=1


Tree=1
num_leaves=16
num_cat=0
split_feature=5 5 13 13 1 2 2 5 10 5 1 10 1 10 1
split_gain=75.0325 8.60614 8.45056 8.73839 10.4013 4.43281 6.83058 4.75084 3.58293 2.76113 1.92764 3.00782 1.90014 1.24283 0.441914
threshold=241.66666666666666 158.3333333333334 355.50000000000006 208.50000000000003 728.50000000000011 958.50000000000011 325.50000000000006 46.428571428571438 9211636454578.502 30.952380952380953 259.50000000000006 9503136543320.502 700.50000000000011 9605031857556.502 537.50000000000011
decision_type=2 2 2 2 2 2 2 2 2 2 2 2 2 2 2
left_child=1 2 3 8 -5 6 7 -4 14 -8 -11 12 -12 -10 -1
right_child=-2 -3 5 4 -6 -7 9 -9 13 10 11 -13 -14 -15 -16
leaf_value=0.015189301494279744 0.16526526553252227 0.039102622193516644 0.03095330500194473 0.0018108257600015336 0.10526885401919282 0.013062232765266867 -0.085809799753076926 -0.034913185871674315 -0.068305365068602505 -0.01759374644493851 -0.061105301247662912 -0.085692927093924301 -0.018414714167360458 -0.02645570285986993 -0.009710849786987507
leaf_weight=10.020481288433077 17.829487323760986 19.409495994448662 13.505318284034731 19.907022878527645 10.400079429149626 12.812684074044226 14.77124512195587 17.898747682571411 10.011485829949381 13.666986286640165 13.839651316404344 14.03144723176956 15.633731767535208 10.00976577401161 10.009339630603789
leaf_count=55 88 103 72 106 55 69 84 99 55 76 77 78 87 55 55
internal_value=0 -0.014034 -0.0195662 0.00337382 0.0373465 -0.03346 -0.039229 -0.00658514 -0.022337 -0.053474 -0.0450999 -0.0537318 -0.0384813 -0.0474171 0.00274653
internal_weight=0 205.927 186.518 70.3582 30.3071 116.16 103.347 31.4041 40.0511 71.9431 57.1718 43.5048 29.4734 20.0213 20.0298
internal_count=1214 1126 1023 381 161 642 573 171 220 402 318 242 164 110 110
is_linear=0
shrinkage=0.0838786


Tree=2
num_leaves=15
num_cat=0
split_feature=5 16 13 13 1 24 1 2 10 26 10 1 1 1
split_gain=58.9902 7.48978 7.32129 9.1895 8.75004 5.74258 4.4601 5.48218 3.77655 3.15457 4.94831 5.02562 4.73378 4.31454
threshold=241.66666666666666 1.5000000000000002 355.50000000000006 208.50000000000003 760.50000000000011 4020.5000000000005 971.50000000000011 218.50000000000003 9211636454578.502 1.0000000180025095e-35 8801571694279.002 683.50000000000011 263.50000000000006 529.50000000000011
decision_type=2 2 2 2 2 2 2 2 2 2 2 2 2 2
left_child=1 5 3 8 -5 -1 7 -4 -3 10 -9 12 -12 -11
right_child=-2 2 6 4 -6 -7 -8 9 -10 13 11 -13 -14 -15
leaf_value=0.070806014546889895 0.14125690599559149 0.0014637122889111941 0.013092752902859156 0.0034280500435369433 0.095974207268730141 -0.012566393858649312 -0.084624938315495682 -0.090539096041341971 -0.051590440417301354 0.028236982875545161 -0.014258884596866729 0.00640389372962502 -0.080248054776982436 -0.046618742805650162
leaf_weight=12.380184054374697 19.05150032043457 18.757395729422569 19.630564317107201 20.33060206472874 11.106252133846281 10.93785923719406 10.296323299407957 13.639859035611151 18.985199123620987 10.942305684089662 13.276889875531198 15.244134441018103 18.054249748587608 10.701979920268057
leaf_count=66 88 103 107 108 56 58 58 77 107 61 75 86 104 60
internal_value=0 -0.0130162 -0.0187819 0.00266402 0.0361527 0.031713 -0.0320527 -0.0267078 -0.0252319 -0.0362533 -0.0461237 -0.0330923 -0.0523044 -0.00878012
internal_weight=0 204.284 180.966 69.1794 31.4369 23.318 111.786 101.49 37.7426 81.8594 60.2151 46.5753 31.3311 21.6443
internal_count=1214 1126 1002 374 164 124 628 570 210 463 342 265 179 121
is_linear=0
shrinkage=0.0838786


Tree=3
num_leaves=16
num_cat=0
split_feature=5 13 13 1 1 16 16 1 2 5 27 3 13 28 1
split_gain=47.2983 6.46787 6.8257 7.33682 4.69955 4.58692 4.16016 4.0646 4.74459 2.83662 3.46267 5.24988 2.89339 1.78515 1.52482
threshold=241.66666666666666 355.50000000000006 208.50000000000003 760.50000000000011 371.50000000000006 1.5000000000000002 5.5000000000000009 971.50000000000011 218.50000000000003 22.500000000000004 29.500000000000004 1.0000000180025095e-35 762.50000000000011 6.5000000000000009 568.50000000000011
decision_type=2 2 2 2 2 2 2 2 2 2 2 2 2 2 2
left_child=1 2 6 4 -4 -3 14 8 -7 -10 12 -12 13 -11 -1
right_child=-2 5 3 -5 -6 7 -8 -9 9 10 11 -13 -14 -15 -16
leaf_value=-0.014463696202336363 0.12315995097802139 0.016233424395281113 0.042987005010805358 0.085148058099102628 -0.034342142688076782 0.011911594844772961 -0.053447749803485281 -0.081406083497110496 -0.071692207942102695 -0.091185258825309368 0.024846497311045816 -0.041781090160687782 -0.017507172377954506 -0.041302234845280131 0.025920798090091561
leaf_weight=14.945746302604677 19.974704265594482 17.52761672437191 11.337874367833139 12.77607089281082 10.766079917550085 19.762587547302246 13.775601401925085 9.8266673386096937 11.926136940717695 10.147437512874605 16.881641894578934 16.379659622907639 14.783495292067526 10.120149150490759 11.726074889302252
leaf_count=83 88 92 60 62 57 107 79 58 71 59 95 94 85 59 65
internal_value=0 -0.0120794 0.00740243 0.0345854 0.00532334 -0.0236022 -0.0160421 -0.0299612 -0.0248949 -0.0339611 -0.0273601 -0.00796739 -0.0457511 -0.0663248 0.00329421
internal_weight=0 202.683 75.3274 34.88 22.104 127.355 40.4474 109.828 100.001 80.2385 68.3124 33.2613 35.0511 20.2676 26.6718
internal_count=1214 1126 406 179 117 720 227 628 570 463 392 189 203 118 148
is_linear=0
shrinkage=0.0838786


Tree=4
num_leaves=15
num_cat=0
split_feature=5 5 2 24 24 12 1 2 10 10 5 12 24 5
split_gain=38.4439 5.62325 4.88422 3.43871 5.07939 5.76467 6.34884 9.56626 4.59913 4.82132 3.1597 3.09527 4.05686 2.16965
threshold=241.66666666666666 158.3333333333334 954.50000000000011 7664.5000000000009 5469.5000000000009 77.500000000000014 259.50000000000006 361.00000000000006 9010216416774.002 9504171349341.502 77.500000000000014 156.50000000000003 1112.5000000000002 53.571428571428577
decision_type=2 2 2 2 2 2 2 2 2 2 2 2 2 2
left_child=1 2 3 4 5 6 -1 -8 -6 -10 11 12 -7 -9
right_child=-2 -3 -4 -5 8 10 7 13 9 -11 -12 -13 -14 -15
leaf_value=0.053081889513353193 0.10890305700081197 0.030771508280441152 0.024053959787125267 -0.05878170489003913 -0.034262539395567573 -0.012001477764139762 0.033099149160652763 -0.078129200377387367 0.077838566602389345 -0.00087965866962166114 -0.070241882174880838 0.010130517167215882 -0.070228501652280048 -0.02841449945208905
leaf_weight=10.795804053544996 20.663123488426208 20.185631945729256 19.234429895877838 15.071043282747267 10.078853800892828 16.398123309016228 15.186036691069601 11.465223833918573 9.82418340444565 12.338321492075918 19.234311997890472 10.548810392618178 17.304914236068726 13.431679949164389
leaf_count=60 88 103 105 86 57 94 84 68 55 70 109 60 99 76
internal_value=0 -0.0112045 -0.0158903 -0.0206442 -0.0167183 -0.0250074 -0.00396858 -0.0193484 0.0126819 0.0340404 -0.0418632 -0.0295091 -0.041916 -0.0513409
internal_weight=0 201.097 180.912 161.677 146.606 114.365 50.8787 40.0829 32.2414 22.1625 63.4862 44.2518 33.703 24.8969
internal_count=1214 1126 1023 918 832 650 288 228 182 125 362 253 193 144
is_linear=0
shrinkage=0.0838786


Tree=5
num_leaves=16
num_cat=0
split_feature=5 13 12 13 12 12 5 19 28 12 16 13 10 2 10
split_gain=31.5597 5.58253 6.53708 7.41117 4.11512 3.55084 4.13974 3.21326 5.40346 5.10376 3.30659 2.89125 2.20313 1.88954 0.347367
threshold=241.66666666666666 355.50000000000006 76.500000000000014 254.50000000000003 41.500000000000007 158.50000000000003 158.3333333333334 1.0000000180025095e-35 3.5000000000000004 65.500000000000014 3.5000000000000004 99.000000000000014 9408586240361.502 510.50000000000006 9001191668108.002
decision_type=2 2 2 2 2 2 2 2 2 2 2 2 2 2 2
left_child=1 2 4 11 -1 6 7 10 -9 -10 -3 -4 14 -11 -12
right_child=-2 5 3 -5 -6 -7 -8 8 9 13 12 -13 -14 -15 -16
leaf_value=0.012602479085397902 0.097294297750007933 -0.017129316943777787 -0.00770045656313194 0.040997970811183969 0.07918506086158271 0.018797590161818083 0.016311741805812699 0.026882085289440309 -0.0012505427885895969 -0.035165430524581237 -0.06058657255731488 -0.05633087850848631 -0.097711665931376646 -0.084734096305286319 -0.037510149680536467
leaf_weight=15.329855322837831 21.165822982788086 14.782452583312987 17.526874512434006 13.879439666867254 11.373991221189497 13.834205374121664 14.03252276778221 13.646769672632216 18.046305760741234 10.208304658532144 9.1207201778888756 16.889576822519302 10.022059753537176 11.585725024342535 9.4905883818864805
leaf_count=81 88 86 101 70 61 80 71 79 105 58 55 93 61 70 55
internal_value=0 -0.010386 0.00769819 -0.0107155 0.04099 -0.0212563 -0.0262533 -0.0324189 -0.0186492 -0.0342501 -0.0493706 -0.0315796 -0.065998 -0.0615552 -0.0488579
internal_weight=0 199.769 74.9997 48.2959 26.7038 124.77 110.935 96.9029 53.4871 39.8403 43.4158 34.4165 28.6334 21.794 18.6113
internal_count=1214 1126 406 264 142 720 640 569 312 233 257 194 171 128 110
is_linear=0
shrinkage=0.0838786


Tree=6
num_leaves=18
num_cat=0
split_feature=5 5 24 24 12 24 20 13 6 10 23 12 2 23 6 12 2
split_gain=35.8995 5.50417 6.5658 6.7452 5.59616 6.69308 5.41053 4.16778 7.11734 4.20071 4.02948 3.20781 2.49385 2.15164 1.83187 1.86874 1.49685
threshold=158.3333333333334 30.952380952380953 7654.5000000000009 6222.0000000000009 47.500000000000007 -343.49999999999994 2.5000000000000004 696.50000000000011 19.500000000000004 9304601674441.002 1.5000000000000002 140.50000000000003 671.50000000000011 1.5000000000000002 19.500000000000004 93.500000000000014 497.00000000000006
decision_type=2 2 2 2 2 2 2 2 2 2 2 2 2 2 2 2 2
left_child=1 11 3 4 5 -3 -2 9 -9 13 -7 14 -11 -6 -1 -16 -8
right_child=6 2 -4 -5 7 10 16 8 -10 12 -12 -13 -14 -15 15 -17 -18
leaf_value=-0.089817234759721351 0.02682104458323261 0.074388697611069074 -0.068193418018496543 0.048318311192931916 0.0059045149624046165 -0.036872394487251374 0.07218981306238266 -0.041022362081905302 0.052452636458949084 -0.079384921036628489 0.032970417165068648 -0.0037961967162861228 -0.028787204946563647 -0.041920733576775754 -0.0205077558124151 -0.071934761310158704 0.1126857907571904
leaf_weight=9.6523091942071932 13.4672994017601 9.9574912637472135 12.661118566989897 14.800024777650831 16.67486479878426 13.785397708415987 13.05748598277569 11.363211318850519 11.533905699849127 16.99400216341019 10.02646844089031 9.5040909051895124 11.522558271884916 10.956027612090109 10.364133656024935 9.5720176398754102 12.908808469772337
leaf_count=58 67 55 74 82 94 78 56 67 68 98 57 54 67 61 60 58 55
internal_value=0 -0.0183747 -0.0106153 -0.00489557 -0.0118821 0.0166944 0.0700042 -0.0240917 0.00606551 -0.0363889 -0.00746027 -0.0462029 -0.0589655 -0.0130694 -0.059815 -0.0452344 0.0923732
internal_weight=0 179.368 140.275 127.614 112.814 33.7694 39.4336 79.0446 22.8971 56.1475 23.8119 39.0926 28.5166 27.6309 29.5885 19.9362 25.9663
internal_count=1209 1031 801 727 645 190 178 455 135 320 135 230 165 155 176 118 111
is_linear=0
shrinkage=0.0838786


Tree=7
num_leaves=16
num_cat=0
split_feature=9 16 1 15 1 1 24 24 1 2 12 27 20 28 13
split_gain=29.9523 8.20869 4.67521 6.65602 6.26664 5.58488 3.21891 9.73934 2.93785 4.00658 5.21854 3.11851 2.25376 1.98111 1.4386
threshold=1.0000000180025095e-35 1.5000000000000002 178.00000000000003 1.5000000000000002 356.50000000000006 412.50000000000006 5829.5000000000009 6948.5000000000009 954.50000000000011 444.50000000000006 65.500000000000014 28.500000000000004 2.5000000000000004 6.5000000000000009 519.50000000000011
decision_type=2 2 2 2 2 2 2 2 2 2 2 2 2 2 2
left_child=1 13 3 -3 12 -6 8 -8 9 10 -7 -11 -4 -1 -13
right_child=-2 2 4 -5 5 6 7 -9 -10 11 -12 14 -14 -15 -16
leaf_value=0.060198781356910112 0.085816453816583052 -0.023794712187533831 -0.079386189183139264 0.057149639296756781 0.038429824132913834 0.045454781234344918 0.051425841953849964 -0.05217332952212668 -0.06354139016315237 -0.069507594232746425 -0.030469925458596891 0.0022167827091142942 -0.029738972130838863 0.0096396818728733385 -0.043297530096989972
leaf_weight=10.995122060179712 24.110031604766846 16.536011993885044 17.752422690391544 12.566665038466452 11.477550253272055 11.011516734957697 13.525496289134027 12.066905185580252 16.157609656453133 15.755556166172026 15.067135900259016 10.300362944602968 10.127253651618956 10.819478467106817 9.276513919234274
leaf_count=56 105 93 105 71 68 59 77 71 94 96 88 57 57 56 56
internal_value=0 -0.0133031 -0.0194641 0.0111671 -0.0257198 -0.0170413 -0.0232176 0.00257545 -0.0317269 -0.0233432 0.00159476 -0.041744 -0.0613771 0.0351466 -0.0193642
internal_weight=0 193.436 171.621 29.1027 142.518 114.639 103.161 25.5924 77.5687 61.4111 26.0787 35.3324 27.8797 21.8146 19.5769
internal_count=1209 1104 992 164 828 666 598 148 450 356 147 209 162 112 113
is_linear=0
shrinkage=0.0838786


Tree=8
num_leaves=17
num_cat=0
split_feature=5 5 24 24 24 24 27 24 13 23 19 11 5 12 12 10
split_gain=25.4726 4.77784 5.73649 5.34281 4.78366 6.57006 5.38865 4.65895 4.22544 3.77244 3.27195 3.27819 3.08938 3.02577 1.74479 1.20977
threshold=158.3333333333334 30.952380952380953 7654.5000000000009 6565.5000000000009 -362.99999999999994 -1435.4999999999998 31.500000000000004 2211.5000000000005 349.50000000000006 23.500000000000004 1.0000000180025095e-35 1.0000000180025095e-35 241.66666666666666 123.50000000000001 85.500000000000014 9211636454578.502
decision_type=2 2 2 2 2 2 2 2 2 2 2 2 2 2 2 2
left_child=1 13 3 4 5 -3 9 -8 -2 10 14 -12 -10 15 -6 -1
right_child=8 2 -4 -5 6 -7 7 -9 12 -11 11 -13 -14 -15 -16 -17
leaf_value=-0.038695168110771172 0.095052822616599197 -0.01535684017023895 -0.064076873924429942 0.044416342371797209 -0.091234928146382357 0.068404810917269396 -0.030740123981736388 0.038161595421971735 0.011453276897744762 0.013160515424553995 -0.055117168964816339 0.0074088090347532703 0.068993950040105959 -0.0093550113094374478 -0.044937090525271201 -0.076067663269248798
leaf_weight=10.990978062152864 14.015160441398619 15.083485201001169 12.032381772994993 14.48156416416168 10.8857828527689 11.677849128842352 11.607019603252413 16.998607739806175 14.215753465890886 9.6765775233507139 11.258559808135033 12.369225353002548 12.196951821446417 12.811942949891089 12.192538470029829 13.835782453417776
leaf_count=67 60 86 74 78 66 65 65 96 69 57 67 73 49 77 74 86
internal_value=0 -0.0159882 -0.0087732 -0.00349485 -0.00970872 0.0212098 -0.0194467 0.0102016 0.0578371 -0.034488 -0.0443615 -0.0223984 0.0380484 -0.0424781 -0.0668189 -0.0595551
internal_weight=0 175.902 138.264 126.231 111.75 26.7613 84.9883 28.6056 40.4279 56.3827 46.7061 23.6278 26.4127 37.6387 23.0783 24.8268
internal_count=1209 1031 801 727 649 151 498 161 178 337 280 140 118 230 140 153
is_linear=0
shrinkage=0.0838786


Tree=9
num_leaves=15
num_cat=0
split_feature=9 16 1 1 15 1 23 23 23 1 6 3 20 2
split_gain=21.5938 6.22855 4.03598 5.6683 5.58104 4.80722 3.41174 2.93719 3.74433 3.33958 3.28153 3.48777 2.03222 1.89878
threshold=1.0000000180025095e-35 1.5000000000000002 178.00000000000003 356.50000000000006 1.5000000000000002 412.50000000000006 1.5000000000000002 1.5000000000000002 8.5000000000000018 674.50000000000011 22.500000000000004 1.0000000180025095e-35 2.5000000000000004 541.50000000000011
decision_type=2 2 2 2 2 2 2 2 2 2 2 2 2 2
left_child=1 6 4 12 -3 -5 -1 10 -9 -10 11 -7 -4 -13
right_child=-2 2 3 5 -6 7 -8 8 9 -11 -12 13 -14 -15
leaf_value=-0.0029525353084587486 0.072040983266337011 -0.021371452786473111 -0.07563607666410796 0.036298987561493121 0.052638809795127466 0.0069183980905853423 0.06263210971044654 0.029219570544971207 -0.054540279633087059 0.002317141587370761 -0.063774347288282907 -0.066283002852136938 -0.027677557109954787 -0.014865050588750721
leaf_weight=11.093670889735224 24.493623644113541 16.226658239960674 16.751887865364555 11.595205441117285 12.819579437375067 18.132502757012844 11.210874408483503 15.147951014339922 12.690338693559172 16.980310447514057 17.370239078998566 11.433049820363523 9.921147868037222 9.0676562860608083
leaf_count=56 105 93 105 68 71 107 56 89 77 98 105 67 57 55
internal_value=0 -0.0116058 -0.0171313 -0.0230697 0.0113016 -0.0148174 0.0300294 -0.0207006 -0.00469377 -0.0220144 -0.0335057 -0.0198773 -0.0578228 -0.0435676
internal_weight=0 190.441 168.137 139.09 29.0462 112.417 22.3045 100.822 44.8186 29.6706 56.0034 38.6332 26.673 20.5007
internal_count=1209 1104 992 828 164 666 112 598 264 175 334 229 162 122
is_linear=0
shrinkage=0.0838786


Tree=10
num_leaves=17
num_cat=0
split_feature=5 9 5 24 19 1 24 12 2 1 27 5 23 12 28 23
split_gain=18.342 6.17556 4.07269 5.10944 4.44766 5.83324 5.38336 5.08707 5.08536 4.87758 3.69637 3.34147 3.2388 3.0432 1.40555 1.1769
threshold=158.3333333333334 1.0000000180025095e-35 30.952380952380953 7654.5000000000009 1.0000000180025095e-35 204.50000000000003 5844.5000000000009 134.50000000000003 758.00000000000011 408.50000000000006 29.500000000000004 73.214285714285737 1.5000000000000002 142.50000000000003 4.5000000000000009 1.5000000000000002
decision_type=2 2 2 2 2 2 2 2 2 2 2 2 2 2 2 2
left_child=2 -2 13 4 8 -6 7 10 9 -4 11 -7 -11 14 -1 -16
right_child=1 -3 3 -5 5 6 -8 -9 -10 12 -12 -13 -14 -15 15 -17
leaf_value=-0.078854175925429357 0.014213066574787651 0.079460847064784637 -0.070998224501103116 -0.060710562574234753 0.06123892433021591 0.013406969790376377 0.053385845407986424 -0.065019083448658879 0.020945712960211787 -0.038734276244942342 0.03370458739825806 -0.055926559788700689 0.022993958195253402 0.0034076819910804908 -0.059398744243334141 -0.016168844067336801
leaf_weight=9.5098321363329905 19.41993360221386 21.516276448965073 16.284021563827991 11.509901359677313 13.544419333338736 9.6758132278919238 10.658352151513098 10.168054834008215 15.511484585702418 13.616923950612547 15.022945910692213 9.8642327114939672 10.64165113866329 9.0023942738771421 9.3167048767209071 8.4689025059342367
leaf_count=61 91 87 98 74 73 58 58 62 91 84 83 60 60 53 61 55
internal_value=0 0.0485239 -0.0139107 -0.00726806 -0.00234011 0.0119268 -0.000143411 -0.0129116 -0.0198844 -0.0355085 0.00243713 -0.0216076 -0.0116567 -0.0388771 -0.0528188 -0.0388449
internal_weight=0 40.9362 172.796 136.498 124.988 68.9338 55.3894 44.731 56.0541 40.5426 34.563 19.54 24.2586 36.2978 27.2954 17.7856
internal_count=1209 178 1031 801 727 394 321 263 333 242 201 118 144 230 177 116
is_linear=0
shrinkage=0.0838786


Tree=11
num_leaves=17
num_cat=0
split_feature=5 9 10 13 13 12 13 12 24 24 16 6 10 23 16 10
split_gain=15.4364 5.21069 3.97459 3.4217 6.79599 5.78126 3.99709 3.8145 4.0967 3.72491 3.14335 3.04216 2.56501 2.50849 1.54632 0.91807
threshold=158.3333333333334 1.0000000180025095e-35 103163649837.50002 355.50000000000006 466.00000000000006 76.500000000000014 255.50000000000003 89.500000000000014 4015.5000000000005 -343.49999999999994 5.5000000000000009 19.500000000000004 9007591786484.502 1.0000000180025095e-35 3.5000000000000004 9401131485744.502
decision_type=2 2 2 2 2 2 2 2 2 2 2 2 2 2 2 2
left_child=2 -2 -1 5 15 14 13 9 12 -6 11 -11 -9 -7 -4 -5
right_child=1 -3 3 4 7 6 -8 8 -10 10 -12 -13 -14 -15 -16 -17
leaf_value=-0.064522058632533977 0.012952329334940704 0.07280800067340612 0.014844502798321278 -0.085720118156157682 0.017919758718038484 -0.054010924322829064 0.033394336526679572 0.023504991688408295 0.047642878632899906 -0.089727341099370708 -0.0030698907858473633 -0.027848899349764526 -0.034387893096014852 -0.0060903157830122581 0.05860752638262947 -0.04743790928213628
leaf_weight=9.8825748115777952 19.519511446356773 21.513572752475739 10.314269334077837 8.8218546360731143 10.512328974902628 14.357083044946195 9.6642423719167692 9.0507958531379717 13.490218594670294 10.694686695933344 11.257136620581148 11.737300865352152 13.249654300510882 16.532482460141182 12.670519068837164 8.9614842832088453
leaf_count=60 91 87 54 57 60 88 51 56 82 67 69 73 87 99 68 60
internal_value=0 0.0443495 -0.0129233 -0.0097567 -0.0196035 0.00539645 -0.0136505 -0.00917129 0.0111812 -0.0256501 -0.0392483 -0.0573892 -0.0108903 -0.0283787 0.0389916 -0.0664832
internal_weight=0 41.0331 171.197 161.314 97.7755 63.5386 40.5538 79.9921 35.7907 44.2015 33.6891 22.432 22.3005 30.8896 22.9848 17.7833
internal_count=1209 178 1031 971 611 360 238 494 225 269 209 140 143 187 122 117
is_linear=0
shrinkage=0.0838786


Tree=12
num_leaves=16
num_cat=0
split_feature=16 10 2 12 13 13 13 12 13 5 12 24 12 27 12
split_gain=9.9301 6.63779 6.25973 4.78589 4.1226 4.61975 5.83513 4.41426 5.48435 3.78433 4.85237 3.41151 3.4073 2.38148 1.71604
threshold=1.5000000000000002 8908646419083.002 72.500000000000014 96.500000000000014 859.50000000000011 133.50000000000003 355.50000000000006 139.50000000000003 661.50000000000011 77.500000000000014 76.500000000000014 4020.5000000000005 83.500000000000014 29.500000000000004 89.500000000000014
decision_type=2 2 2 2 2 2 2 2 2 2 2 2 2 2 2
left_child=1 -1 -2 -3 5 13 9 8 12 10 -7 -10 -8 -4 -6
right_child=2 3 4 -5 14 6 7 -9 11 -11 -12 -13 -14 -15 -16
leaf_value=-0.01637863865226374 -0.068508660413631614 0.090151432511656027 -0.0088731647648396892 0.024092919462246318 -0.062058754485132449 0.094570595169752136 -0.013168615377613033 0.040548561263566769 -0.01225746613306428 -0.006584083108499463 0.022467454737521996 0.050729838171571423 -0.067398821282549981 -0.061436472657777644 -0.016136539371877111
leaf_weight=12.487515911459921 11.854460887610911 14.946956545114519 13.478161588311197 15.967272266745566 10.982987761497499 10.725205987691881 17.16069058328867 11.505601808428763 14.980389870703222 11.611894205212591 16.936868317425251 10.128767013549803 15.53012892603874 11.021558329463003 11.975444272160528
leaf_count=58 68 69 84 71 68 55 109 73 92 59 95 63 104 66 73
internal_value=0 0.0352184 -0.00978472 0.0560595 -0.00531739 0.000346706 0.00777131 -0.00686634 -0.0163128 0.0335959 0.0504584 0.0131639 -0.0389501 -0.0325425 -0.038131
internal_weight=0 43.4017 167.892 30.9142 156.038 133.079 108.58 69.3056 57.8 39.274 27.6621 25.1092 32.6908 24.4997 22.9584
internal_count=1207 198 1009 140 941 800 650 441 368 209 150 155 213 150 141
is_linear=0
shrinkage=0.0838786


Tree=13
num_leaves=17
num_cat=0
split_feature=16 10 12 13 13 13 12 5 10 12 12 19 27 27 13 13
split_gain=8.30759 5.47663 3.8377 3.64424 3.28063 4.39124 4.59286 5.86029 5.71964 4.29807 4.45149 4.44528 5.36884 2.0378 1.70926 1.42355
threshold=1.5000000000000002 8908646419083.002 96.500000000000014 859.50000000000011 133.50000000000003 217.00000000000003 138.50000000000003 26.785714285714288 9404086442336.002 82.500000000000014 103.50000000000001 1.0000000180025095e-35 30.500000000000004 29.500000000000004 915.00000000000011 561.00000000000011
decision_type=2 2 2 2 2 2 2 2 2 2 2 2 2 2 2 2
left_child=1 -1 -3 4 13 -6 7 -7 -8 11 -11 15 -13 -2 -5 -9
right_child=3 2 -4 14 5 6 8 9 -10 10 -12 12 -14 -15 -16 -17
leaf_value=-0.015065755534018632 -0.010346737476744106 0.08078373091674719 0.021997490423697409 -0.065688810937061262 0.05010961276001992 -0.067948861741258318 -0.0089017828676135648 0.0054530531574849333 0.077199769720981151 -0.066375512391725178 -0.00077066850966339467 0.074548229782732719 -0.0064823761264159504 -0.059064720987476345 -0.020627196515138842 -0.040274092572032592
leaf_weight=12.440377309918402 13.71860906481743 15.267415523529055 16.020264819264412 9.9442498907446879 11.931232690811155 11.533113107085226 11.790339313447477 10.060391351580622 10.04023292660713 12.394496589899065 17.59789239615202 12.820543728768827 10.421268239617346 10.792226344346998 14.669905997812746 9.1221439614891988
leaf_count=58 86 69 71 63 68 78 70 58 56 77 106 71 59 67 91 59
internal_value=0 0.031996 0.0507077 -0.00907127 -0.00391213 0.00190197 -0.00354113 -0.0124547 0.0307205 -0.00360472 -0.0279016 0.0135751 0.0382321 -0.0318203 -0.0388607 -0.0163042
internal_weight=0 43.7281 31.2877 166.837 142.222 117.712 105.78 83.9498 21.8306 72.4167 29.9924 42.4243 23.2418 24.5108 24.6142 19.1825
internal_count=1207 198 140 1009 855 702 634 508 126 430 183 247 130 153 154 117
is_linear=0
shrinkage=0.0838786


Tree=14
num_leaves=17
num_cat=0
split_feature=17 2 10 13 13 13 13 2 5 12 27 1 12 27 12 2
split_gain=6.96507 5.66744 4.61502 3.08976 3.42486 4.26422 3.82304 3.06962 2.93536 3.49253 2.84772 3.12458 2.56415 1.90959 1.54388 1.22361
threshold=15000.000000000002 72.500000000000014 9501686656147.002 859.50000000000011 133.50000000000003 355.50000000000006 428.50000000000006 779.50000000000011 77.500000000000014 76.500000000000014 28.500000000000004 708.50000000000011 101.50000000000001 29.500000000000004 89.500000000000014 510.50000000000006
decision_type=2 2 2 2 2 2 2 2 2 2 2 2 2 2 2 2
left_child=2 -2 12 4 13 8 -7 10 9 -6 15 -12 -1 -3 -5 -8
right_child=1 3 -4 14 5 6 7 -9 -10 -11 11 -13 -14 -15 -16 -17
leaf_value=-0.0099824844705210022 -0.065370066737184818 -0.0073516328630381742 0.068582378454735582 -0.056900038296957528 0.079286781382647525 -0.053361654811594966 -0.033436268963546768 -0.031184417449763142 -0.0069604498162313521 0.019290523506021125 0.051771638228472805 -0.0097452610945563678 0.040024898572732823 -0.055471911133499745 -0.012334330991918422 0.010191966218505332
leaf_weight=17.677898034453396 11.430795460939406 13.331088639795782 14.134967073798178 10.32925706356764 11.310013055801393 10.109703063964842 9.2519707530736941 14.372309155762194 11.579026237130163 17.224076420068741 17.3279097750783 8.72794261574745 12.167779669165609 10.268580466508864 11.631590180099009 8.8241550177335721
leaf_count=81 68 84 63 68 55 70 59 90 59 95 106 56 54 66 73 60
internal_value=0 -0.00841878 0.0291249 -0.00419362 0.000642992 0.00693079 -0.00577018 0.00246408 0.0286511 0.0430996 0.0134294 0.03117 0.0104132 -0.0283114 -0.0333202 -0.0121454
internal_weight=0 165.718 43.9806 154.288 132.327 108.727 68.614 58.5043 40.1131 28.5341 44.132 26.0559 29.8457 23.5997 21.9608 18.0761
internal_count=1207 1009 198 941 800 650 441 371 209 150 281 162 135 150 141 119
is_linear=0
shrinkage=0.0838786


Tree=15
num_leaves=17
num_cat=0
split_feature=16 2 10 13 13 13 11 28 12 12 12 5 5 5 27 12
split_gain=5.84878 4.9763 4.09124 3.57736 2.65222 2.91286 3.62549 7.81389 4.16528 6.33921 4.1089 3.35652 7.72289 2.53425 1.70117 1.38433
threshold=1.5000000000000002 72.500000000000014 8908646419083.002 571.00000000000011 859.50000000000011 133.50000000000003 1.0000000180025095e-35 9.5000000000000018 114.50000000000001 27.500000000000004 153.50000000000003 58.571428571428577 36.666666666666671 53.571428571428577 29.500000000000004 89.500000000000014
decision_type=2 2 2 2 2 2 2 2 2 2 2 2 2 2 2 2
left_child=2 -2 -1 -4 5 14 7 11 9 -8 -10 12 -7 -11 -3 -6
right_child=1 4 3 -5 15 6 8 -9 10 13 -12 -13 -14 -15 -16 -17
leaf_value=-0.014283516440131531 -0.062202103094294331 -0.0067654409449041872 0.07397689816351459 0.017309851492252767 -0.054048453514624104 -0.023940469980243968 0.033591241531406885 0.075043605262739607 0.061766863244479997 -0.026681455229786877 -0.016823113095401014 -0.023294725587177028 0.075850861393640973 -0.080486149728671463 -0.052667394930692724 -0.011386803338422643
leaf_weight=12.393398106098173 11.023978359997271 13.274864569306375 14.113970443606378 17.634780183434486 9.9783648028969782 11.090214520692827 9.2862446159124357 14.199339300394056 9.4635311439633387 16.344495698809627 9.2370219081640226 18.709410689771175 10.716097541153429 9.8942893669009191 9.9241781830787641 11.547643877565859
leaf_count=58 68 84 62 78 68 70 52 79 56 105 55 109 61 63 66 73
internal_value=0 -0.00780223 0.0265744 0.0425239 -0.00389405 0.00055458 0.00630242 0.0215331 -0.00906675 -0.0259305 0.0229627 0.00275922 0.025115 -0.0470039 -0.0264229 -0.0311864
internal_weight=0 164.69 44.1421 31.7488 153.666 132.14 108.941 54.7151 54.2256 35.525 18.7006 40.5157 21.8063 26.2388 23.199 21.526
internal_count=1207 1009 198 140 941 800 650 319 331 220 111 240 131 168 150 141
is_linear=0
shrinkage=0.0838786


Tree=16
num_leaves=15
num_cat=0
split_feature=10 16 4 1 24 15 13 5 10 10 20 16 13 10
split_gain=5.17394 6.86254 4.65601 7.89797 6.17304 4.51211 2.98062 3.32578 3.27086 3.80716 2.98546 2.88224 3.56547 1.94826
threshold=9710251349370.002 3.5000000000000004 1.0000000180025095e-35 263.50000000000006 381.00000000000006 1.5000000000000002 355.50000000000006 30.952380952380953 9507606136257.502 8912261864037.002 1.5000000000000002 5.5000000000000009 844.50000000000011 9307261281811.002
decision_type=2 2 2 2 2 2 2 2 2 2 2 2 2 2
left_child=2 -2 3 4 -1 -6 8 -8 9 -5 -9 12 13 -12
right_child=1 -3 -4 6 5 -7 7 10 -10 -11 11 -13 -14 -15
leaf_value=0.071428907091377863 0.084065304017803655 -0.0043132257173251675 0.03466818804883369 -0.019208323704791249 -0.028652025005198221 0.037221926546176953 -0.076284491112120476 0.020129491308781524 -0.040704257051236391 0.033617683826260847 -0.075053943669218137 0.0078256161513251613 -0.0059272775335358144 -0.029046045170020216
leaf_weight=12.312119573354719 11.178956165909769 13.801802165806292 18.323672533035278 19.206310912966728 16.363699160516266 13.207378305494784 10.123569957911966 9.021136209368704 13.580121219158171 19.160372018814087 18.252113007009033 10.190927594900129 13.201828464865683 10.07737737149
leaf_count=64 57 88 108 103 96 73 75 53 78 103 109 62 76 62
internal_value=0 0.0352602 -0.00542459 -0.00988795 0.0215603 0.000772031 -0.0206142 -0.0318003 -0.00534888 0.0071749 -0.0243701 -0.0321355 -0.0419411 -0.0587116
internal_weight=0 24.9808 183.021 164.697 41.8832 29.5711 122.814 70.867 51.9468 38.3667 60.7434 51.7222 41.5313 28.3295
internal_count=1207 145 1062 954 233 169 721 437 284 206 362 309 247 171
is_linear=0
shrinkage=0.0838786


Tree=17
num_leaves=16
num_cat=0
split_feature=16 2 24 2 2 27 5 1 1 2 1 28 6 24 1
split_gain=4.52638 4.37973 3.41503 2.74137 7.36936 6.4082 4.60053 4.58357 5.73463 4.68505 2.89714 3.09069 2.48601 2.32159 2.82745
threshold=1.5000000000000002 72.500000000000014 4020.5000000000005 953.00000000000011 779.50000000000011 29.500000000000004 58.571428571428577 268.50000000000006 368.50000000000006 444.50000000000006 494.50000000000006 9.5000000000000018 22.500000000000004 1116.5000000000002 755.50000000000011
decision_type=2 2 2 2 2 2 2 2 2 2 2 2 2 2 2
left_child=2 -2 -1 4 7 -5 -6 9 -9 -3 -10 12 13 -12 -15
right_child=1 3 -4 5 6 -7 -8 8 10 -11 11 -13 -14 14 -16
leaf_value=0.044439536035471489 -0.059098370290295181 -0.0035467696979180701 -0.0023299306258637966 0.073479946212409733 -0.085689348920778327 -0.022750194104623322 -0.0093611622360728394 -0.066067762041148559 0.035240311892512428 0.066887775539810373 -0.0032860725825571684 0.024172116911608681 0.010880549355801072 -0.01990387436872024 -0.084691892722739318
leaf_weight=24.217684879899025 10.59581223875284 13.312281891703607 20.087388187646866 9.8592063337564486 12.376358591020109 9.5945952758192998 10.080531038343905 10.577195294201372 13.372986868023871 13.246420033276079 11.959754660725595 15.622021228075026 13.478895597159861 10.071641743183138 8.9591162055730802
leaf_count=106 68 78 92 57 81 57 62 71 81 77 74 92 86 64 61
internal_value=0 -0.00698876 0.0232401 -0.00336308 -0.00766389 0.0260356 -0.0514555 0.00123294 -0.00836655 0.0315988 -4.74196e-05 -0.00790741 -0.0191817 -0.0322568 -0.0504458
internal_weight=0 163.107 44.3051 152.511 133.057 19.4538 22.4569 110.6 84.0416 26.5587 73.4644 60.0914 44.4694 30.9905 19.0308
internal_count=1207 1009 198 941 827 114 143 684 529 155 458 377 285 199 125
is_linear=0
shrinkage=0.0838786


Tree=18
num_leaves=16
num_cat=0
split_feature=5 24 2 1 6 24 10 28 12 12 10 2 1 12 1
split_gain=6.33847 6.59024 9.2613 4.42957 5.57246 5.18828 3.71922 5.30334 8.31393 4.34313 3.15142 2.35799 2.3132 5.85766 1.52811
threshold=241.66666666666666 6948.5000000000009 899.50000000000011 855.50000000000011 16.500000000000004 3289.5000000000005 9704161450549.502 8.5000000000000018 75.500000000000014 117.50000000000001 9404166496798.002 568.00000000000011 549.50000000000011 80.500000000000014 967.50000000000011
decision_type=2 2 2 2 2 2 2 2 2 2 2 2 2 2 2
left_child=1 2 3 4 -1 14 7 9 -9 12 -4 -3 13 -6 -5
right_child=-2 11 10 5 6 -7 -8 8 -10 -11 -12 -13 -14 -15 -16
leaf_value=-0.075124726217651941 0.043617070830744259 -0.020245589348822205 0.023195993084062276 0.019022686533800872 0.048725867181375802 0.070565625232351201 -0.04489736654472179 0.023536807862250316 -0.071682007737669862 0.047572021100507629 0.08385945381624299 -0.071562318573370226 -0.030273509086062224 -0.036828829527440314 -0.024502887083494705
leaf_weight=9.8447961211204511 21.328182190656662 13.388537719845774 14.262106239795687 11.767037265002729 13.541130095720293 9.9866142198443395 16.774238295853138 11.003402158617975 15.561394907534121 17.70147792249918 10.440044470131395 11.914525009691713 13.69514252245426 9.6172271743416768 10.93514923751354
leaf_count=61 88 84 81 67 78 58 105 63 95 108 58 77 84 62 70
internal_value=0 -0.00458748 0.00152176 -0.00681077 -0.0150165 0.0202284 -0.00896144 -0.0015236 -0.0322487 0.0134414 0.048869 -0.0444368 -0.00296321 0.0131945 -0.00194347
internal_weight=0 190.433 165.13 140.428 107.739 32.6888 97.894 81.1198 26.5648 54.555 24.7022 25.3031 36.8535 23.1584 22.7022
internal_count=1239 1151 990 851 656 195 595 490 158 332 139 161 224 140 137
is_linear=0
shrinkage=0.0838786


Tree=19
num_leaves=18
num_cat=0
split_feature=5 24 2 1 6 24 1 3 24 12 12 2 27 2 11 2 1
split_gain=5.36872 5.68955 7.61875 3.73044 4.95687 4.16101 3.27734 4.73114 5.84918 5.07469 5.3585 2.82171 3.03756 2.15548 2.09673 1.63983 1.2896
threshold=241.66666666666666 6948.5000000000009 899.50000000000011 855.50000000000011 16.500000000000004 3289.5000000000005 747.00000000000011 1.0000000180025095e-35 20.500000000000004 77.500000000000014 125.50000000000001 740.50000000000011 27.500000000000004 568.00000000000011 1.0000000180025095e-35 341.50000000000006 967.50000000000011
decision_type=2 2 2 2 2 2 2 2 2 2 2 2 2 2 2 2 2
left_child=1 2 3 4 -1 16 7 11 -9 -10 -11 12 -6 -3 -4 -14 -5
right_child=-2 13 14 5 6 -7 -8 8 9 10 -12 -13 15 -15 -16 -17 -18
leaf_value=-0.071930643720230808 0.040221920803320314 -0.018773414418206458 0.064902630014332496 0.017267586065340283 -0.073626108908425691 0.062406139006858811 -0.046499313863655703 0.066560136710884815 0.04060262963544764 -0.076705378384819292 0.012522252733357442 0.015444511410176873 0.0074666249044916377 -0.068524499337572722 0.016140114971458824 -0.039945884868805515 -0.022775472816238002
leaf_weight=9.4379652738571149 21.195597052574158 13.235394924879076 14.276547349989414 11.872296504676344 9.8832240179181117 10.330640822649 13.585243657231329 12.138941481709479 11.992323756217958 8.8496181964874285 10.158447496592997 10.233775369822977 9.9241610914468783 11.421287111937998 10.988545507192612 10.605034776031969 10.78555505722761
leaf_count=61 88 84 77 67 64 58 85 71 69 60 60 65 58 77 62 63 70
internal_value=0 -0.00427502 0.00134015 -0.00632177 -0.0139365 0.0183275 -0.0083054 -0.00210539 0.0172389 -0.0020944 -0.029044 -0.0226358 -0.0354521 -0.0418459 0.0437164 -0.017035 -0.00179459
internal_weight=0 189.719 165.062 139.797 106.809 32.9885 97.3708 83.7855 43.1393 31.0004 19.0081 40.6462 30.4124 24.6567 25.2651 20.5292 22.6579
internal_count=1239 1151 990 851 656 195 595 510 260 189 120 250 185 161 139 121 137
is_linear=0
shrinkage=0.0838786


Tree=20
num_leaves=16
num_cat=0
split_feature=5 24 2 23 4 19 12 13 5 23 23 13 13 10 2
split_gain=4.54937 4.90723 6.28906 3.27905 4.51552 6.00605 3.61745 2.81378 2.75636 3.92279 2.72 2.60736 4.89508 2.44528 1.96788
threshold=241.66666666666666 6948.5000000000009 899.50000000000011 4.5000000000000009 1.0000000180025095e-35 1.0000000180025095e-35 137.50000000000003 598.50000000000011 41.428571428571438 29.500000000000004 1.0000000180025095e-35 361.50000000000006 671.50000000000011 9404166496798.002 568.00000000000011
decision_type=2 2 2 2 2 2 2 2 2 2 2 2 2 2 2
left_child=1 2 3 4 5 6 7 10 -5 -10 -1 -7 -13 -4 -3
right_child=-2 14 13 8 -6 11 -8 -9 9 -11 -12 12 -14 -15 -16
leaf_value=-0.071139578752885596 0.037102981756139762 -0.017395186083597611 0.016865630287322308 -0.016847404853108889 0.035016074732479668 0.023956356970199526 -0.0017916988296022575 -0.094717649547518115 -0.00018951215985710596 0.060016359320716556 -0.0063978008808877893 -0.064720200288711227 0.011585216051922736 0.069103001421477128 -0.065591058109262135
leaf_weight=9.6446313783526474 21.057380706071854 13.093455702066423 14.74802650511265 15.100359976291655 11.202981375157831 18.196519903838634 9.8841027542948705 10.698361799120901 16.922198705375195 13.826842173933985 8.6663594320416433 9.6000389009714144 15.362731531262396 11.017638966441153 10.952440433204172
leaf_count=65 88 84 81 101 65 103 59 77 97 77 51 62 94 58 77
internal_value=0 -0.00398736 0.00117644 -0.00587495 -0.0149043 -0.0217253 -0.0456244 -0.06055 0.0124886 0.0268972 -0.0405282 -0.000179793 -0.0177786 0.0392295 -0.0393743
internal_weight=0 188.917 164.871 139.105 93.2557 82.0527 38.8935 29.0094 45.8494 30.749 18.311 43.1593 24.9628 25.7657 24.0459
internal_count=1239 1151 990 851 576 511 252 193 275 174 116 259 156 139 161
is_linear=0
shrinkage=0.0838786


Tree=21
num_leaves=17
num_cat=0
split_feature=9 1 1 12 12 11 24 22 5 2 28 5 13 28 2 24
split_gain=3.88988 5.83096 4.48911 5.18299 5.6839 4.96407 5.75172 4.22512 4.1091 3.56635 5.14394 2.91338 2.77583 2.61994 1.42398 1.29538
threshold=1.0000000180025095e-35 517.50000000000011 817.50000000000011 91.500000000000014 122.50000000000001 1.0000000180025095e-35 3289.5000000000005 5.5000000000000009 36.666666666666671 256.50000000000006 5.5000000000000009 41.428571428571438 404.50000000000006 6.5000000000000009 581.50000000000011 2563.5000000000005
decision_type=2 2 2 2 2 2 2 2 2 2 2 2 2 2 2 2
left_child=2 -2 3 7 13 6 -4 9 -6 -1 15 -12 -10 -5 -7 -11
right_child=1 -3 5 4 8 14 -8 -9 12 10 11 -13 -14 -15 -16 -17
leaf_value=-0.042732452497401659 0.074536771956986422 -0.0073331357281068016 0.0091647511071302305 -0.032240771520854715 0.024886380665089691 -0.030589037553312874 0.091085301080140721 0.043639299803294576 -0.060387856567701348 -0.0050291346717095363 -0.0060930721585581394 0.054179496765469376 -0.0072413511901645812 -0.09017063579561746 0.011046522140361848 -0.04937761930776164
leaf_weight=14.379904761910437 11.615815520286562 12.914215780794619 14.086812488734724 10.227011434733869 14.656993828713892 11.60124395042658 10.534762583672999 14.803031183779238 12.0063683539629 9.1220995038747805 9.0976275801658648 14.82710165530443 16.290841266512871 11.916657939553259 11.490203343331812 9.4149621203541738
leaf_count=85 50 61 81 68 93 73 61 86 73 56 61 82 97 84 69 59
internal_value=0 0.0314543 -0.00408999 -0.0118195 -0.0289485 0.0180586 0.0442491 0.00374643 -0.0111442 -0.00665038 0.00557838 0.0312688 -0.029811 -0.0634547 -0.00987592 -0.0275757
internal_weight=0 24.53 184.456 136.743 65.0979 47.713 24.6216 71.6447 42.9542 56.8417 42.4618 23.9247 28.2972 22.1437 23.0914 18.5371
internal_count=1239 111 1128 844 415 284 142 429 263 343 258 143 170 152 142 115
is_linear=0
shrinkage=0.0838786


Tree=22
num_leaves=18
num_cat=0
split_feature=5 24 2 23 28 13 10 28 15 19 11 1 1 1 10 28 10
split_gain=3.3971 4.22689 5.04702 2.77602 4.10832 3.3952 2.91325 2.54912 5.17364 3.05141 5.97353 2.43086 6.15787 2.09451 1.89372 1.80154 1.4326
threshold=241.66666666666666 6948.5000000000009 899.50000000000011 4.5000000000000009 4.5000000000000009 363.50000000000006 9303161553556.502 9.5000000000000018 1.5000000000000002 1.0000000180025095e-35 1.0000000180025095e-35 263.50000000000006 561.50000000000011 431.50000000000006 9404166496798.002 5.5000000000000009 9402561474995.002
decision_type=2 2 2 2 2 2 2 2 2 2 2 2 2 2 2 2 2
left_child=1 2 3 4 5 -1 -7 9 -9 16 -11 -5 -13 -3 -4 -14 -6
right_child=-2 13 14 11 7 6 -8 8 -10 10 -12 12 15 -15 -16 -17 -18
leaf_value=0.045329276432666162 0.032211553708055153 -0.0082395554331088378 0.015254941974787368 0.044942713208958367 -0.078488484251659676 0.02165144538238219 -0.047218698165982148 0.034574141797252017 -0.046760796140059888 -0.062579454764782105 0.030171974414342332 -0.049036378561856303 -0.001370888098266063 -0.058804080637129115 0.060783366618712906 0.046337415451073512 -0.032724949545854191
leaf_weight=12.484172716736795 20.77039398252964 10.204467482864858 14.86299888789654 11.538911551237105 12.686783507466318 8.8161761686205882 8.4498589858412725 11.895358569920065 10.213452346622942 9.4587613493204117 10.074735395610332 11.664191626012324 9.739734351634981 13.250126555562018 11.332253709435461 12.983321137726305 7.8047149628400794
leaf_count=70 88 66 81 63 87 54 57 72 62 61 59 78 58 95 58 76 54
internal_value=0 -0.00352943 0.00123465 -0.0051813 -0.0135973 0.0120301 -0.0120623 -0.0258684 -0.00300404 -0.0384918 -0.0147525 0.0116548 0.000470123 -0.0368242 0.0349741 0.0258988 -0.0610942
internal_weight=0 187.46 164.005 137.81 91.884 29.7502 17.266 62.1338 22.1088 40.025 19.5335 45.9262 34.3872 23.4546 26.1953 22.7231 20.4915
internal_count=1239 1151 990 851 576 181 111 395 134 261 120 275 212 161 139 134 141
is_linear=0
shrinkage=0.0838786


Tree=23
num_leaves=18
num_cat=0
split_feature=22 20 24 2 22 2 3 23 1 1 13 15 5 28 2 2 5
split_gain=3.43599 3.17779 3.12332 4.0078 3.71711 4.00704 6.22758 5.3599 4.1757 4.16039 6.10323 3.47939 2.19522 3.90874 1.66535 1.19162 0.556603
threshold=8.0000000000000018 3.5000000000000004 6948.5000000000009 568.00000000000011 3.5000000000000004 568.00000000000011 1.0000000180025095e-35 1.5000000000000002 193.50000000000003 817.50000000000011 657.50000000000011 1.5000000000000002 241.66666666666666 4.5000000000000009 357.50000000000006 206.50000000000003 91.666666666666671
decision_type=2 2 2 2 2 2 2 2 2 2 2 2 2 2 2 2 2
left_child=1 2 4 -4 -1 6 14 -8 -7 10 11 -10 13 -3 15 -6 -15
right_child=-2 12 3 -5 5 8 7 -9 9 -11 -12 -13 -14 16 -16 -17 -18
leaf_value=-0.047440395437609521 0.049587401274003198 0.049535488079116015 -0.0059763310528452001 -0.080567177336217419 -0.050235207781438244 0.057696373575691087 -0.020378718542938552 0.051036186610069749 -0.0064250340468041444 0.039982074774331869 0.036105375279758746 -0.069895268184272205 0.048010971797392027 -0.0025481103936680007 -0.073790273117654168 -0.0074823040196301347 -0.031137426087097644
leaf_weight=12.147766418755053 9.3694445788860303 9.546391539275648 11.741877406835558 8.9070780724287015 9.4974078014493042 13.022475488483904 16.662782698869709 13.270180635154246 13.399853408336641 16.39858590066433 12.854990735650061 11.111493259668348 12.318589761853216 10.123052805662157 8.9313375502824766 8.8736843392252904 9.091408006846903
leaf_count=76 57 53 77 67 60 69 104 77 81 92 78 66 52 62 58 55 55
internal_value=0 -0.00235874 -0.00779909 -0.0381861 -0.0031875 0.00115162 -0.0151326 0.0112897 0.0151075 0.00477908 -0.0106785 -0.0352222 0.0184044 0.00570527 -0.0440927 -0.0296077 -0.0160898
internal_weight=0 197.899 156.82 20.649 136.171 124.023 57.2354 29.933 66.7874 53.7649 37.3663 24.5113 41.0794 28.7609 27.3024 18.3711 19.2145
internal_count=1239 1182 960 144 816 740 354 181 386 317 225 147 222 170 173 115 117
is_linear=0
shrinkage=0.0838786


Tree=24
num_leaves=17
num_cat=0
split_feature=5 1 28 15 4 10 24 5 10 24 13 13 3 27 24 24
split_gain=6.70862 4.43012 4.00884 4.57352 2.94063 3.11796 5.40088 4.98928 4.65525 3.75845 5.00575 3.49048 5.24584 2.49806 2.19205 0.116032
threshold=30.952380952380953 81.500000000000014 6.5000000000000009 1.5000000000000002 1.0000000180025095e-35 9006251404950.502 5121.0000000000009 241.66666666666666 8808041335026.502 5116.5000000000009 713.00000000000011 508.50000000000006 1.0000000180025095e-35 28.500000000000004 381.00000000000006 3289.5000000000005
decision_type=2 2 2 2 2 2 2 2 2 2 2 2 2 2 2 2
left_child=2 -2 3 -1 5 6 8 9 14 10 11 12 -7 -11 -3 -4
right_child=1 4 15 -5 -6 7 -8 -9 -10 13 -12 -13 -14 -15 -16 -17
leaf_value=-0.048491494836491421 -0.040334501080896118 0.054859716794421386 -0.073622498367361261 0.037928268172623791 0.045923973253911413 0.032988971361994954 -0.051605644538859879 0.071031797917319214 -0.040175259423211318 0.0038304713688928241 0.036052846082825385 -0.058496516504017423 -0.038395135190000859 0.057857689072711292 0.0056790070427276598 -0.058468515952842963
leaf_weight=9.0798444598913211 13.282167129218577 11.007527694106104 8.0315005481243116 8.1737187057733518 14.598918318748472 14.122703813016415 15.415846601128576 10.184486895799635 10.283575810492037 10.146426610648634 16.289315201342106 11.318702004849909 14.838491350412369 14.807598769664763 15.140665479004381 7.3426916301250449
leaf_count=65 72 60 57 58 78 79 92 44 60 62 97 71 84 89 95 53
internal_value=0 0.00616744 -0.0353207 -0.00755159 0.0100762 0.00642631 -0.0100121 0.0157203 0.00760018 0.00879898 -0.00316386 -0.019031 -0.00358504 0.0359057 0.026402 -0.066447
internal_weight=0 171.436 32.6278 17.2536 158.154 143.555 51.8476 91.7077 36.4318 81.5232 56.5692 40.2799 28.9612 24.954 26.1482 15.3742
internal_count=1216 983 233 123 911 833 307 526 215 482 331 234 163 151 155 110
is_linear=0
shrinkage=0.0838786


Tree=25
num_leaves=17
num_cat=0
split_feature=5 1 28 15 4 10 24 5 10 24 13 13 3 27 24 24
split_gain=5.75635 3.76298 3.60946 3.88929 2.41732 2.61541 4.63418 4.31542 3.926 3.08763 4.20959 3.80012 4.42598 1.98991 1.78485 0.110268
threshold=30.952380952380953 81.500000000000014 6.5000000000000009 1.5000000000000002 1.0000000180025095e-35 9006251404950.502 5121.0000000000009 241.66666666666666 8808041335026.502 5116.5000000000009 696.50000000000011 508.50000000000006 1.0000000180025095e-35 28.500000000000004 381.00000000000006 3289.5000000000005
decision_type=2 2 2 2 2 2 2 2 2 2 2 2 2 2 2 2
left_child=2 -2 3 -1 5 6 8 9 14 10 11 12 -7 -11 -3 -4
right_child=1 4 15 -5 -6 7 -8 -9 -10 13 -12 -13 -14 -15 -16 -17
leaf_value=-0.045872381502015738 -0.037640945469761655 0.049300293862630469 -0.070734691586126802 0.033935620956139133 0.041440540321500068 0.029791376881546906 -0.048291606211453661 0.066322456774256508 -0.037522409956794428 0.0035023512872671548 0.030663976049221244 -0.064072174072916308 -0.035831614096275041 0.051411118067992957 0.0051864711158219239 -0.055675748317019137
leaf_weight=8.8061323165893608 13.050224363803862 11.213334530591966 7.67441153898835 8.3619614765048009 14.81288271397352 14.319163836538792 15.10676760971546 10.001795738935469 10.096460856497286 10.166595436632635 17.895283073186874 9.6525820568203908 14.579057201743126 15.24754750728607 15.187129661440848 7.0766671970486641
leaf_count=65 72 60 57 58 78 79 92 44 60 62 104 64 84 89 95 53
internal_value=0 0.00562609 -0.0331633 -0.00700302 0.00919672 0.00586358 -0.00924479 0.0143512 0.00692896 0.00799059 -0.00294099 -0.0185467 -0.00331546 0.0322596 0.0239408 -0.0635723
internal_weight=0 171.329 31.9192 17.1681 158.279 143.466 51.6037 91.862 36.4969 81.8602 56.4461 38.5508 28.8982 25.4141 26.4005 14.7511
internal_count=1216 983 233 123 911 833 307 526 215 482 331 227 163 151 155 110
is_linear=0
shrinkage=0.0838786


Tree=26
num_leaves=17
num_cat=0
split_feature=21 28 15 1 4 23 12 12 13 20 3 19 13 12 24 24
split_gain=4.93782 3.24432 3.31083 3.196 1.99222 2.37742 6.88094 4.91686 4.7343 7.08442 2.93269 5.49383 4.90585 2.38539 1.3432 0.104929
threshold=0.30952380952380959 6.5000000000000009 1.5000000000000002 81.500000000000014 1.0000000180025095e-35 1.0000000180025095e-35 65.500000000000014 39.500000000000007 713.00000000000011 3.5000000000000004 1.0000000180025095e-35 1.0000000180025095e-35 642.00000000000011 123.50000000000001 1842.5000000000002 3289.5000000000005
decision_type=2 2 2 2 2 2 2 2 2 2 2 2 2 2 2 2
left_child=1 2 -1 -2 5 10 7 -7 9 13 11 -5 14 -8 -12 -3
right_child=3 15 -4 4 -6 6 8 -9 -10 -11 12 -13 -14 -15 -16 -17
leaf_value=-0.043346822107529777 -0.035101550190131635 -0.067935077182819589 0.030450321440814415 -0.029594126637144964 0.037470877615853188 0.020091628979082499 -0.071658664151338605 0.088476074884436512 0.036799613250365362 0.033650654037630977 -0.019783816605439302 0.040775953744180353 -0.066508188053667774 -0.018536970661156497 0.02565071129315414 -0.052966112147706863
leaf_weight=8.5497487634420448 12.831353358924387 7.3358298204839212 8.5310991033911687 13.566572934389116 15.000782288610933 20.178460061550144 12.814259298145773 11.676709800958632 13.758763052523134 11.252901986241339 9.527960799634462 18.34223198890686 12.264844611287115 11.115269146859644 8.785547234117983 6.8265196457505226
leaf_count=65 72 57 58 85 78 107 77 63 82 61 59 102 76 65 56 53
internal_value=0 -0.0311184 -0.00649201 0.00513686 0.00840182 0.0053549 0.0148557 0.0451873 -0.00489341 -0.0212073 -0.0069298 0.0108561 -0.025487 -0.0470103 0.00201378 -0.0607816
internal_weight=0 31.2432 17.0808 171.116 158.284 143.284 80.7964 31.8552 48.9412 35.1824 62.4872 31.9088 30.5784 23.9295 18.3135 14.1623
internal_count=1216 233 123 983 911 833 455 170 285 203 378 187 191 142 115 110
is_linear=0
shrinkage=0.0838786


Tree=27
num_leaves=19
num_cat=0
split_feature=5 2 1 13 13 2 4 2 10 13 16 2 12 2 10 1 10 12
split_gain=4.22968 3.38036 2.71041 2.52881 1.71446 2.00555 3.97199 3.59923 12.3849 3.54628 2.87025 4.3758 5.88718 2.80721 2.6413 2.71514 2.19399 1.91501
threshold=30.952380952380953 774.50000000000011 81.500000000000014 363.50000000000006 53.500000000000007 745.50000000000011 1.0000000180025095e-35 797.50000000000011 9303046479450.502 762.50000000000011 5.5000000000000009 273.50000000000006 117.50000000000001 131.50000000000003 9407101641423.502 610.50000000000011 9304156576207.502 56.500000000000007
decision_type=2 2 2 2 2 2 2 2 2 2 2 2 2 2 2 2 2 2
left_child=1 3 -2 -1 -4 6 9 8 -7 10 11 13 17 -6 15 -9 -11 -13
right_child=2 -3 4 -5 5 7 -8 14 -10 16 -12 12 -14 -15 -16 -17 -18 -19
leaf_value=0.025511627304801041 -0.032708377841119678 -0.065568107783822882 0.040815449837575846 -0.035444242058367201 -0.029070725890366488 0.10790207452966864 0.046340896255888046 -0.044893507742320787 -0.019596162311325029 -0.0060092571346918901 0.019882917669593308 -0.044715810088058527 0.0087497941458879475 0.035436234563858596 0.030335837965704333 0.014200775276341598 0.046982747817908732 -0.096470695572826434
leaf_weight=8.7433530017733627 12.625446014106272 11.306114345788954 10.244790710508822 10.551585949957369 9.4425942152738589 10.823767445981504 10.427767902612684 11.450270019471647 10.597743801772593 11.140813462436201 10.719919025897978 9.2042523548007065 8.8391632437705976 9.5150669515132886 13.603949829936026 10.451217606663702 10.829293943941591 11.20218665897846
leaf_count=56 72 87 60 90 57 56 54 64 64 72 63 51 52 54 71 58 61 74
internal_value=0 -0.029179 0.00467224 -0.0078225 0.00765279 0.0053572 -0.00234553 0.0177118 0.0448527 -0.00862893 -0.0193521 -0.0280815 -0.0484209 0.0033067 0.00132476 -0.0167018 0.020123 -0.0731752
internal_weight=0 30.6011 171.118 19.2949 158.493 148.248 91.3211 56.9269 21.4215 80.8933 58.9232 48.2033 29.2456 18.9577 35.5054 21.9015 21.9701 20.4064
internal_count=1216 233 983 146 911 851 538 313 120 484 351 288 177 111 193 122 133 125
is_linear=0
shrinkage=0.0838786


Tree=28
num_leaves=16
num_cat=0
split_feature=5 2 5 1 1 1 13 11 1 13 2 13 2 10 2
split_gain=3.61946 3.04007 2.35442 3.85251 3.52147 4.51109 4.59083 3.26867 2.44982 3.2316 2.988 2.15398 2.06422 2.94467 1.82985
threshold=30.952380952380953 774.50000000000011 241.66666666666666 147.50000000000003 214.50000000000003 328.50000000000006 879.50000000000011 1.0000000180025095e-35 501.50000000000006 349.50000000000006 423.50000000000006 363.50000000000006 334.50000000000006 9003191310795.502 480.50000000000006
decision_type=2 2 2 2 2 2 2 2 2 2 2 2 2 2 2
left_child=1 11 3 7 -5 -6 8 -2 10 14 -7 -1 -11 -14 -10
right_child=2 -3 -4 4 5 6 -8 -9 9 12 -12 -13 13 -15 -16
leaf_value=0.023031245343036404 -0.003578695719566114 -0.062826799452544005 0.030568572863240193 0.056675665550641505 -0.043594338247522881 0.058827718659560768 0.052422343716814784 -0.067483930171867421 -0.011387485114564382 0.0083208336713139919 -0.0011021519200892836 -0.033330342894572138 -0.071927262848544893 -0.014589333700095184 0.031844820838931059
leaf_weight=8.8683273717761093 13.110977716743946 10.831172816455362 20.960701897740364 9.0458768308162671 13.291844598948954 10.135765232145788 14.283160991966723 9.8602301105856895 11.572922371327879 10.647817395627497 13.823504969477652 10.292100582271813 9.8247970342636126 17.560295358300209 16.977956213057041
leaf_count=56 71 87 92 48 89 60 85 60 63 67 83 90 65 107 93
internal_value=0 -0.0273384 0.0042448 0.000566952 0.00627873 0.00241261 0.0082516 -0.0310354 0.00127627 -0.00700028 0.024269 -0.00724424 -0.0230075 -0.0351876 0.0143228
internal_weight=0 29.9916 171.096 150.135 127.164 118.118 104.826 22.9712 90.5431 66.5838 23.9593 19.1604 38.0329 27.3851 28.5509
internal_count=1216 233 983 891 760 712 623 131 538 395 143 146 239 172 156
is_linear=0
shrinkage=0.0838786


Tree=29
num_leaves=17
num_cat=0
split_feature=5 28 15 1 1 12 1 22 1 13 20 27 12 13 23 16
split_gain=3.09658 3.06052 2.84974 2.331 5.86531 4.53696 3.64115 3.24499 2.98952 3.90858 2.63639 4.12214 4.41471 2.37692 2.08722 0.585249
threshold=30.952380952380953 6.5000000000000009 1.5000000000000002 704.50000000000011 773.50000000000011 120.50000000000001 855.50000000000011 4.5000000000000009 501.50000000000006 349.50000000000006 1.5000000000000002 33.500000000000007 56.500000000000007 598.50000000000011 1.5000000000000002 6.5000000000000009
decision_type=2 2 2 2 2 2 2 2 2 2 2 2 2 2 2 2
left_child=1 2 -1 8 -5 6 -6 -8 10 -10 -2 12 -12 14 -14 -3
right_child=3 15 -4 4 5 -7 7 -9 9 -11 11 -13 13 -15 -16 -17
leaf_value=-0.037366543300179286 -0.031469853860143712 -0.073393590818533194 0.032683670757183265 0.075250790411401119 -0.051309700929750852 0.045986984390586093 -0.028295921190925031 0.032724434293759416 0.0076387970565983138 -0.052338425012263552 0.032591789924035566 0.051300962101845288 0.022575010732570306 -0.046112375665572275 -0.030088675030352643 -0.037753888402956612
leaf_weight=7.935115944594151 11.738412342965601 6.6003811024129373 8.3931507095694524 10.152364954352377 10.730003029108046 13.899245351552961 10.578015368431808 14.546050436794756 13.833280198276045 17.062053456902504 19.587809056043625 14.44565176963806 12.150975532829763 12.682920671999453 9.3612492680549604 6.4878243319690228
leaf_count=65 71 58 58 58 64 74 65 78 75 106 105 81 73 76 57 52
internal_value=0 -0.025593 -0.0013599 0.00386599 0.0171955 0.00533049 -0.0104415 0.00703028 -0.00333771 -0.0254916 0.00522405 0.0115427 0.000852767 -0.0173331 -0.000345346 -0.0557888
internal_weight=0 29.4165 16.3283 170.768 59.9057 49.7533 35.8541 25.1241 110.862 30.8953 79.967 68.2286 53.783 34.1951 21.5122 13.0882
internal_count=1216 233 123 983 339 281 207 143 644 181 463 392 311 206 130 110
is_linear=0
shrinkage=0.0838786


Tree=30
num_leaves=15
num_cat=0
split_feature=27 24 27 10 1 16 10 24 20 2 2 2 24 24
split_gain=3.64139 2.83683 2.87205 4.29996 6.01738 4.97476 3.5544 5.89345 3.20582 6.81541 3.49096 3.31495 2.08726 1.28731
threshold=21.500000000000004 7670.0000000000009 23.500000000000004 9006251404950.502 412.50000000000006 2.5000000000000004 9303106838721.002 4379.5000000000009 1.5000000000000002 508.00000000000006 910.00000000000011 715.50000000000011 3657.5000000000005 -343.49999999999994
decision_type=2 2 2 2 2 2 2 2 2 2 2 2 2 2
left_child=-1 2 -2 4 -4 -6 7 -5 9 -8 11 12 13 -10
right_child=1 -3 3 6 5 -7 8 -9 10 -11 -12 -13 -14 -15
leaf_value=-0.053255801913617749 0.042268532269547091 -0.042163298840389357 0.016086144512271069 0.0021762138981410223 -0.0022703814886438399 -0.079087418985209282 -0.026665907665292497 0.080676869342779789 -0.013935660062135924 0.069911391900747064 0.034676160983452518 -0.051237351614931446 -0.029858767397489643 0.022506913492841434
leaf_weight=10.124626390635965 11.118842195719479 11.372632443904875 15.354436397552488 17.690962553024296 9.4628006294369715 15.887627042829989 9.2270205244421977 10.846125200390814 11.571582011878485 11.577606134116648 10.335194796323774 15.668610215187071 16.76041379570961 16.565788656473167
leaf_count=69 65 84 93 104 46 107 62 59 67 75 54 96 101 102
internal_value=0 -0.00161664 0.00106631 -0.00178333 -0.0253425 -0.0504316 0.00619372 0.0320382 -0.00185189 0.027088 -0.0103478 -0.0180376 -0.00643834 0.00751922
internal_weight=0 183.44 172.067 160.948 40.7049 25.3504 120.243 28.5371 91.7062 20.8046 70.9016 60.5664 44.8978 28.1374
internal_count=1184 1115 1031 966 246 153 720 163 557 137 420 366 270 169
is_linear=0
shrinkage=0.0838786


Tree=31
num_leaves=16
num_cat=0
split_feature=12 10 24 24 24 1 23 2 1 1 2 2 2 2 15
split_gain=3.26093 5.61815 4.33208 3.93592 4.12829 3.88226 4.96005 3.01488 8.89857 6.2185 2.73095 2.67595 2.24567 1.83086 1.53444
threshold=38.500000000000007 9110236216003.502 2922.0000000000005 561.50000000000011 1112.5000000000002 674.50000000000011 1.5000000000000002 329.50000000000006 356.50000000000006 474.50000000000006 707.50000000000011 285.50000000000006 623.50000000000011 803.50000000000011 1.5000000000000002
decision_type=2 2 2 2 2 2 2 2 2 2 2 2 2 2 2
left_child=1 -1 -3 11 -5 7 12 8 -6 10 -9 -2 -7 14 -13
right_child=3 2 -4 4 5 6 -8 9 -10 -11 -12 13 -14 -15 -16
leaf_value=-0.064352248106881393 -0.052297557967059656 0.034163111695891056 -0.032741365080032128 0.064102594909831764 -0.029309569771898948 -0.027649558797194728 0.065014961277198843 -0.025451170232130383 0.081555746335228441 -0.069833033775131073 0.025397135518523416 -0.019511039691727839 0.030824717151487428 -0.036016938221748444 0.025374462895054122
leaf_weight=15.688276298344134 12.315914042294024 12.800100460648538 14.515611246228216 9.2654199823737127 11.568313740193846 9.8310461640357989 14.711426369845865 14.233074560761453 9.0792356356978399 12.285831037908791 15.519306652247904 9.0204887911677361 8.6937792822718603 10.050787091255186 13.155954610556364
leaf_count=95 71 67 87 58 74 67 85 95 59 83 97 57 51 59 79
internal_value=0 -0.0243719 -0.00138745 0.00182997 0.0106796 0.00551038 0.0286789 -0.00677683 0.0194615 -0.019667 0.00107053 -0.0190644 -0.000203103 -0.00634579 0.00711465
internal_weight=0 43.004 27.3157 149.731 105.187 95.922 33.2363 62.6858 20.6475 42.0382 29.7524 44.5431 18.5248 32.2272 22.1764
internal_count=1184 249 154 935 669 611 203 408 133 275 192 266 118 195 136
is_linear=0
shrinkage=0.0838786


Tree=32
num_leaves=15
num_cat=0
split_feature=27 12 12 11 27 1 23 1 12 12 6 16 19 3
split_gain=3.05305 3.04491 4.08867 2.24925 7.36765 4.86731 6.72521 5.51392 4.37645 5.6076 3.63078 3.48195 2.40039 1.08841
threshold=21.500000000000004 38.500000000000007 11.500000000000002 1.0000000180025095e-35 26.500000000000004 817.50000000000011 23.500000000000004 549.50000000000011 145.50000000000003 112.50000000000001 22.500000000000004 3.5000000000000004 1.0000000180025095e-35 1.0000000180025095e-35
decision_type=2 2 2 2 2 2 2 2 2 2 2 2 2 2
left_child=-1 2 -2 5 -5 6 7 10 9 12 11 -3 -6 -4
right_child=1 3 13 4 8 -7 -8 -9 -10 -11 -12 -13 -14 -15
leaf_value=-0.049376629491376951 0.023656403962588304 -0.0079693615424173882 -0.022035196529803291 0.042090158160639143 -0.056008688330701425 0.051825336927603979 0.062271584883816962 -0.056706061920768026 -0.062121859049494105 0.044597131922838457 -0.034464626177071321 0.062319894277985483 -0.0065064122957338823 -0.054040486344856108
leaf_weight=9.7709468416869623 10.422801807522772 9.6041468009352737 15.734543137252331 16.839463897049427 11.604041907936336 18.606214545667171 10.474965348839758 13.628399588167666 13.826436892151831 10.667083889245985 9.6175647526979429 10.228896901011465 16.956012565642595 14.29425186663866
leaf_count=69 59 53 92 104 87 104 61 88 85 65 60 65 106 86
internal_value=0 -0.00128368 -0.0215826 0.00449806 -0.00622556 0.0148844 0.00203919 -0.0126216 -0.0215689 -0.00725718 0.007795 0.0282993 -0.0266381 -0.0372895
internal_weight=0 182.505 40.4516 142.053 69.893 72.1602 53.554 43.079 53.0536 39.2271 29.4506 19.833 28.5601 30.0288
internal_count=1184 1115 237 878 447 431 327 266 343 258 178 118 193 178
is_linear=0
shrinkage=0.0838786


Tree=33
num_leaves=18
num_cat=0
split_feature=5 12 10 15 22 12 28 10 24 28 23 22 1 2 19 10 27
split_gain=2.96276 3.50262 3.68393 3.67832 4.3801 3.75357 3.66573 3.06565 2.66024 2.60242 2.54986 2.4624 2.32654 2.73044 1.42939 1.12332 0.458491
threshold=187.50000000000003 68.500000000000014 9710251349370.002 1.5000000000000002 5.5000000000000009 139.50000000000003 6.5000000000000009 9006251404950.502 735.50000000000011 5.5000000000000009 5.5000000000000009 5.5000000000000009 320.50000000000006 431.50000000000006 1.0000000180025095e-35 9307261281811.002 29.500000000000004
decision_type=2 2 2 2 2 2 2 2 2 2 2 2 2 2 2 2 2
left_child=1 6 3 4 5 -3 8 14 -1 -6 15 -9 -8 -14 -5 -2 -10
right_child=10 2 -4 7 9 -7 12 11 16 -11 -12 -13 13 -15 -16 -17 -18
leaf_value=-0.014830730173603151 0.019797218960881782 -0.023950493846697271 0.053417237533597117 -0.041389449586009021 -0.021510772641860004 0.044479066233304443 0.032940984384282376 0.0081075779510411186 -0.082124982529246521 -0.083186338913709287 0.048549786495758293 0.058282165326977511 0.013699353608434982 -0.044988411868525473 0.0088916618007629008 -0.016282330883067072 -0.054270952011821569
leaf_weight=11.351144291460516 12.304064005613329 14.330476477742197 8.688441649079321 7.9155547991394979 10.124863475561144 9.2795519530773145 8.4380450025200862 15.824346281588079 7.9118369519710567 9.1876505799591524 12.567702874541281 12.172904230654238 10.1058008633554 12.417365469038485 7.9719237051904202 11.957789689302443 9.1266003698110563
leaf_count=65 54 106 59 56 62 58 49 102 60 70 57 75 65 75 54 56 61
internal_value=0 -0.00855694 0.00138858 -0.00382636 -0.0212819 0.00295384 -0.0245564 0.0132471 -0.0463181 -0.0508928 0.0179075 0.0299424 -0.00458921 -0.0186626 -0.0161722 0.00201451 -0.0672639
internal_weight=0 154.847 95.4957 86.8073 42.9225 23.61 59.3508 43.8847 28.3896 19.3125 36.8296 27.9973 30.9612 22.5232 15.8875 24.2619 17.0384
internal_count=1184 1017 642 583 296 164 375 287 186 132 167 177 189 140 110 110 121
is_linear=0
shrinkage=0.0838786


Tree=34
num_leaves=16
num_cat=0
split_feature=5 10 1 1 15 23 12 24 2 12 2 24 1 24 10
split_gain=2.50352 3.0859 3.85302 10.4327 4.7281 4.42579 3.31271 3.21012 3.82747 2.72852 2.37977 2.24644 2.09637 1.43784 0.92159
threshold=187.50000000000003 9006251404950.502 935.50000000000011 855.50000000000011 1.5000000000000002 1.0000000180025095e-35 128.50000000000003 5836.5000000000009 327.50000000000006 67.500000000000014 740.50000000000011 3657.5000000000005 556.50000000000011 2211.5000000000005 9503136543320.502
decision_type=2 2 2 2 2 2 2 2 2 2 2 2 2 2 2
left_child=1 6 3 4 5 14 7 8 -1 -6 -7 -2 -11 -10 -3
right_child=11 2 -4 -5 9 10 -8 -9 13 12 -12 -13 -14 -15 -16
leaf_value=0.013496647234101548 0.033287014296240806 -0.035423822796872867 -0.03654958910534864 0.09239509682512155 -0.011307645638197162 -0.024578584339675559 0.010233347043891514 -0.087923274097472554 -0.070476244113656342 0.016303333524280695 0.030460453035416099 -0.0090030346083533937 0.066575032647945134 -0.022698429282490898 -0.076200773188302443
leaf_weight=10.889086827635767 22.126027256250381 7.2203441783785811 16.754299838095903 9.0777991861104947 14.667832255363463 12.169469885528089 13.570587359368799 7.3179680854082099 10.081338718533518 16.545519582927231 10.102322511374949 14.698353663086889 9.0156347677111608 7.9372870698571196 8.5885740593075734
leaf_count=71 98 52 104 46 91 84 86 61 76 104 67 69 59 53 63
internal_value=0 -0.00793304 0.000279523 0.00734565 -0.00252786 -0.0237075 -0.0251043 -0.0383419 -0.0257527 0.0175213 0.000388806 0.0164092 0.0340627 -0.0494657 -0.0576269
internal_weight=0 153.938 104.142 87.3875 78.3097 38.0807 49.7963 36.2257 28.9077 40.229 22.2718 36.8244 25.5612 18.0186 15.8089
internal_count=1184 1017 670 566 520 266 347 261 200 254 151 167 163 129 115
is_linear=0
shrinkage=0.0838786


Tree=35
num_leaves=17
num_cat=0
split_feature=27 27 10 1 17 2 2 1 1 10 10 21 7 24 2 3
split_gain=2.48316 2.41889 2.94322 4.48461 3.12446 3.05668 2.26288 2.63518 7.5866 3.87244 3.11846 2.50559 2.96618 2.69815 2.30583 1.19164
threshold=21.500000000000004 23.500000000000004 9006251404950.502 412.50000000000006 25000.000000000004 910.00000000000011 797.50000000000011 925.50000000000011 855.50000000000011 9610251260239.002 9806256596638.002 0.77500000000000013 1.0000000180025095e-35 3657.5000000000005 387.50000000000006 1.0000000180025095e-35
decision_type=2 2 2 2 2 2 2 2 2 2 2 2 2 2 2 2
left_child=-1 -2 3 -3 -5 6 7 8 9 11 -11 12 13 -4 -13 -6
right_child=1 2 5 4 15 -7 -8 -9 -10 10 -12 14 -14 -15 -16 -17
leaf_value=-0.045364828790282932 0.03631880000004982 0.012055165247308474 0.0055885753022702671 -0.008545592815431189 -0.091360047703708258 0.03330991815753756 -0.040363516878039303 -0.030228539355044708 0.081250989815692815 -0.073056153342888411 -0.0037361891213024494 0.001502993779133854 0.023286928866392866 -0.058932339044867006 0.055222093314157554 -0.044140406918907554
leaf_weight=9.2529929392039758 11.520609401166437 15.830513566732405 8.8308018520474452 10.028844688087704 7.9317376464605314 19.652660220861435 10.124215934425591 15.690326780080794 8.7046803459525091 8.2463650517165679 10.214454539120196 10.23871920257807 14.304407831281422 9.4081205949187261 12.458386316895483 7.2393867969512939
leaf_count=69 69 99 62 52 59 108 68 95 41 60 65 56 90 69 66 56
internal_value=0 -0.000844191 -0.00338201 -0.0229249 -0.044895 0.0028903 -0.00263718 0.00126135 0.00726163 -0.0014905 -0.0347348 0.00962489 -0.00529361 -0.0277111 0.0310066 -0.0688915
internal_weight=0 180.424 168.904 41.0305 25.2 127.873 108.22 98.0963 82.4059 73.7013 18.4608 55.2404 32.5433 18.2389 22.6971 15.1711
internal_count=1184 1115 1046 266 167 780 672 604 509 468 125 343 221 131 122 115
is_linear=0
shrinkage=0.0838786


Tree=36
num_leaves=17
num_cat=0
split_feature=28 16 27 12 19 10 10 1 13 10 13 27 13 6 10 15
split_gain=3.21035 2.51272 4.1984 2.30401 2.76308 3.1593 1.82497 2.39853 2.60638 3.07563 2.9752 3.12134 2.15514 3.40249 3.31998 1.37512
threshold=3.5000000000000004 1.5000000000000002 22.500000000000004 142.50000000000003 1.0000000180025095e-35 9006251404950.502 9710271353846.502 97.500000000000014 319.50000000000006 9211636454578.502 420.00000000000006 28.500000000000004 582.50000000000011 22.500000000000004 9305251584664.002 1.5000000000000002
decision_type=2 2 2 2 2 2 2 2 2 2 2 2 2 2 2 2
left_child=3 15 -3 4 -1 -6 7 -4 9 -9 -10 -12 -13 14 -14 -2
right_child=1 2 6 -5 5 -7 -8 8 10 -11 11 12 13 -15 -16 -17
leaf_value=-0.030913554661050068 0.014161302966536908 0.061979800524656792 0.038373686206405251 -0.050231171740782919 -0.023143839417769606 0.03927155673173964 0.029324512593149707 0.0394395931402374 -0.058592817982217216 -0.013796791316754143 -0.051006334951737703 0.040929202317128204 -0.06550611498542365 0.03650209384333037 0.0084778309635332103 0.050494275085906114
leaf_weight=16.478173524141312 14.041462786495686 8.6103081963956338 8.8435449749231321 9.6335571706294996 9.6204760521650332 13.980674549937246 14.018192835152147 14.799262754619123 10.546872813254593 15.744297154247759 9.5734899938106519 8.0921239554882032 8.856899440288549 7.9358741715550414 8.2163757532834989 15.357981562614441
leaf_count=108 68 65 54 59 62 79 90 86 70 98 74 62 67 53 52 72
internal_value=0 0.011275 0.00568866 -0.0134306 -0.0045698 0.0138294 0.00113519 -0.0031353 -0.0075237 0.0120031 -0.0187308 -0.0088623 0.00334208 -0.0088348 -0.0299225 0.0331574
internal_weight=0 144.637 115.237 49.7129 40.0793 23.6012 106.627 92.6087 83.7652 30.5436 53.2216 42.6748 33.1013 25.0091 17.0733 29.3994
internal_count=1219 911 771 308 249 141 706 616 562 184 378 308 234 172 119 140
is_linear=0
shrinkage=0.0838786


Tree=37
num_leaves=18
num_cat=0
split_feature=2 2 28 24 28 23 5 16 13 12 13 13 28 1 24 13 2
split_gain=2.71089 2.59599 1.98356 3.52662 3.31541 3.00932 2.61288 1.97994 2.19772 3.94413 3.38046 2.23839 2.73243 3.49628 2.15897 1.93363 0.445341
threshold=72.500000000000014 120.50000000000001 3.5000000000000004 748.50000000000011 4.5000000000000009 1.5000000000000002 216.66666666666666 5.5000000000000009 252.50000000000003 82.500000000000014 409.50000000000006 575.00000000000011 6.5000000000000009 471.50000000000006 757.50000000000011 519.50000000000011 652.50000000000011
decision_type=2 2 2 2 2 2 2 2 2 2 2 2 2 2 2 2 2
left_child=-1 -2 3 -3 -4 15 7 8 9 -6 -10 -12 -13 -14 -9 -5 -16
right_child=1 2 4 5 6 -7 -8 14 10 -11 11 12 13 -15 16 -17 -18
leaf_value=-0.034354977125601038 0.047903904928114457 0.024647946872192465 0.050015239231211636 0.0239049685275518 0.054522969658565588 -0.055675633371345984 0.042171063542258552 -0.0082611186319083672 -0.049163918562633607 -0.021354885986832536 0.035311302267570614 -0.052088000166325074 -0.034561952532919653 0.030357484695876596 0.025841089721726839 -0.032858905578744366 0.053663606494729545
leaf_weight=11.842711448669432 10.302916564047335 13.709166638553141 12.998752947896717 8.9517253339290672 10.100506708025934 13.724782992154358 12.106474727392195 11.073166195303203 14.575166858732699 9.1952278688549978 8.7942505814135057 8.8491638042032701 10.217346951365473 13.57375957071781 8.1841835565865058 7.9659490473568431 8.105852607637642
leaf_count=79 60 80 77 60 53 87 55 78 83 65 61 64 66 88 58 50 55
internal_value=0 0.00703507 0.00458489 -0.0106958 0.00988981 -0.0265133 0.0053396 0.000991025 -0.00603046 0.0183732 -0.0144407 -0.00221309 -0.0123351 0.00247189 0.0203089 -0.00282645 0.0397217
internal_weight=0 182.428 172.125 44.3516 127.774 30.6425 114.775 102.669 75.3054 19.2957 56.0097 41.4345 32.6403 23.7911 27.3632 16.9177 16.29
internal_count=1219 1140 1080 277 803 197 726 671 480 118 362 279 218 154 191 110 113
is_linear=0
shrinkage=0.0838786


Tree=38
num_leaves=19
num_cat=0
split_feature=28 24 10 20 20 2 28 24 27 10 1 24 24 15 19 24 1 13
split_gain=2.33846 2.26065 4.474 2.22484 3.79064 2.207 2.05912 1.92705 2.98181 2.37585 2.16905 2.70947 2.66464 3.5997 2.93235 1.90725 1.55559 0.594824
threshold=3.5000000000000004 5111.5000000000009 9206066058699.002 1.5000000000000002 3.5000000000000004 628.50000000000011 8.5000000000000018 2933.5000000000005 23.500000000000004 9406081120727.502 767.50000000000011 -355.49999999999994 1835.5000000000002 1.5000000000000002 1.0000000180025095e-35 5469.5000000000009 374.50000000000006 623.00000000000011
decision_type=2 2 2 2 2 2 2 2 2 2 2 2 2 2 2 2 2 2
left_child=3 7 5 -1 15 -3 -4 8 -2 -9 12 -12 13 14 -10 17 -15 -5
right_child=1 2 6 4 -6 -7 -8 9 10 -11 11 -13 -14 16 -16 -17 -18 -19
leaf_value=0.020656044156233858 0.050624867276093034 0.027760414131036023 0.02380299820981014 -0.035582244411900998 0.023216244253471033 0.086086603989887281 -0.02791421740129104 -0.04054782481691635 -0.055181201894854461 0.014030771460247322 0.012606086179901343 -0.046335316114353757 0.052405759741225792 0.052391261536163677 0.011553592590369286 -0.066914086595762243 0.0063212373434543426 -0.0050034412267067974
leaf_weight=11.446058731526135 10.550317432731388 9.1380662918090838 12.162514515221121 9.394397854804998 9.8242006823420507 9.1489300951361638 9.7421011477708799 13.768884208053352 9.8319838866591454 9.4543047770857793 10.229496076703073 11.808381244540213 9.5527269542217237 9.334262032061817 8.7397538907825947 9.8893611989915353 11.513870082795618 8.5514459758996946
leaf_count=77 66 64 79 60 52 55 61 87 64 58 58 79 63 54 53 68 70 51
internal_value=0 0.00946611 0.0263747 -0.0117098 -0.0215519 0.0569863 0.000797152 0.00297758 0.0090477 -0.0183322 0.00286118 -0.018984 0.0126949 0.00305558 -0.0237896 -0.0373572 0.0269709 -0.0210281
internal_weight=0 144.976 40.1916 49.1055 37.6594 18.287 21.9046 104.784 81.5608 23.2232 71.0105 22.0379 48.9726 39.4199 18.5717 27.8352 20.8481 17.9458
internal_count=1219 911 259 308 231 119 140 652 507 145 441 137 304 241 117 179 124 111
is_linear=0
shrinkage=0.0838786


Tree=39
num_leaves=18
num_cat=0
split_feature=2 2 1 1 24 24 24 10 1 1 1 6 26 16 23 13 16
split_gain=2.30002 2.13219 1.77485 4.2063 2.67688 3.3351 3.48573 4.5246 2.73378 8.59293 3.02752 5.48149 3.4892 3.1048 3.05244 1.77282 1.60807
threshold=72.500000000000014 120.50000000000001 922.50000000000011 873.50000000000011 -1792.9999999999998 -724.49999999999989 1112.5000000000002 8911221662465.502 674.50000000000011 784.50000000000011 501.50000000000006 19.500000000000004 1.0000000180025095e-35 2.5000000000000004 1.0000000180025095e-35 352.50000000000006 2.5000000000000004
decision_type=2 2 2 2 2 2 2 2 2 2 2 2 2 2 2 2 2
left_child=-1 -2 3 4 -3 -6 7 -7 10 -10 11 13 14 -8 -13 -4 -12
right_child=1 2 15 -5 5 6 8 -9 9 -11 16 12 -14 -15 -16 -17 -18
leaf_value=-0.03237758819244986 0.042707275646914754 0.04016097656063003 0.012862839325533325 0.060404349096893982 -0.045648837452975856 0.078733007489951851 0.067193087250349628 0.0046009785661821389 0.083718113079835399 -0.028608055916161886 -0.014914955918160373 -0.078570296346094207 0.014129335901641817 0.0024804852035994504 -0.014185145912144589 -0.034637204099961932 -0.065703080869766589
leaf_weight=11.649062905460594 10.502463743090628 12.687076695263384 8.6650866493582743 9.7592624947428686 10.423165734857319 9.0884837582707423 9.5355724245309847 15.937583662569521 9.0330832302570361 10.175158895552157 8.3723744973540324 9.5090564414858836 11.408351421356199 11.499963693320749 11.3808521553874 15.223383370786904 9.2271650359034521
leaf_count=79 60 75 50 53 66 53 49 94 58 65 45 69 70 82 79 99 73
internal_value=0 0.00604308 0.00379987 0.0072238 0.00346449 -0.000246397 0.00386752 0.0315531 -0.00382224 0.0242367 -0.0114241 -0.00146567 -0.023164 0.031842 -0.0435278 -0.0174087 -0.0415753
internal_weight=0 182.428 171.926 148.037 138.278 125.591 115.168 25.0261 90.1416 19.2082 70.9333 53.3338 32.2983 21.0355 20.8899 23.8885 17.5995
internal_count=1219 1140 1080 931 878 803 737 147 590 123 467 349 218 131 148 149 118
is_linear=0
shrinkage=0.0838786


Tree=40
num_leaves=17
num_cat=0
split_feature=20 1 24 28 20 13 13 13 2 2 28 10 10 24 1 3
split_gain=2.09445 7.34687 3.47615 2.46004 3.19723 2.36669 2.84191 3.05719 2.57952 2.68609 3.21175 2.56053 2.50837 1.84465 1.73494 1.29377
threshold=1.5000000000000002 482.50000000000006 4399.5000000000009 3.5000000000000004 3.5000000000000004 270.50000000000006 441.50000000000006 347.50000000000006 712.50000000000011 390.50000000000006 7.5000000000000009 9308116363939.002 9209736296208.002 4383.5000000000009 301.50000000000006 1.0000000180025095e-35
decision_type=2 2 2 2 2 2 2 2 2 2 2 2 2 2 2 2
left_child=1 13 -3 4 14 12 7 -7 9 10 -8 -10 -5 -1 -2 -16
right_child=3 2 -4 5 -6 6 8 -9 11 -11 -12 -13 -14 -15 15 -17
leaf_value=-0.038914367668547049 -0.0042307275175365953 0.024915809972006112 0.089602100656726399 0.047743880124969613 0.020732361918281851 0.0017976936007684501 0.03702704477357785 -0.060160550064052458 0.009626444873068473 0.051952462816463534 -0.027129884647613671 -0.049325041597000165 0.0021464563042082182 0.013720028839373209 -0.071238951866138073 -0.02670879871653525
leaf_weight=12.187857598066332 8.7751721292734164 15.175652064383032 9.5106360875070077 15.781391955912111 9.8862117454409582 11.475504800677301 10.440819654613735 10.931839685887097 11.813240468502046 12.557220138609408 11.545618481934069 9.2167926579713804 18.354118295013905 7.5935401841998091 9.4340015910565853 8.986066035926342
leaf_count=85 55 100 63 91 52 58 64 74 72 84 75 59 107 56 63 61
internal_value=0 0.0193669 0.0498749 -0.00137028 -0.0200944 0.00482402 -0.00323922 -0.0284472 0.00692873 0.021026 0.00333946 -0.0162243 0.0232388 -0.0187125 -0.0349402 -0.0495539
internal_weight=0 44.4677 24.6863 149.198 37.0815 112.117 77.981 22.4073 55.5737 34.5437 21.9864 21.03 34.1355 19.7814 27.1952 18.4201
internal_count=1219 304 163 915 231 684 486 132 354 223 139 131 198 141 179 124
is_linear=0
shrinkage=0.0838786


Tree=41
num_leaves=17
num_cat=0
split_feature=2 28 24 23 28 21 27 12 27 16 28 2 24 10 15 10
split_gain=1.93755 1.54034 2.40311 2.38933 2.22942 2.51215 2.47224 2.74824 2.84792 3.42302 2.67415 3.6106 5.39747 4.86968 1.23523 1.19653
threshold=52.500000000000007 3.5000000000000004 748.50000000000011 1.5000000000000002 4.5000000000000009 2.1666666666666674 23.500000000000004 93.500000000000014 33.500000000000007 4.5000000000000009 10.500000000000002 643.50000000000011 2211.5000000000005 9304601674441.002 1.5000000000000002 9504046260407.502
decision_type=2 2 2 2 2 2 2 2 2 2 2 2 2 2 2 2
left_child=-1 2 -2 14 -3 6 -6 10 9 15 11 13 -13 -8 -4 -9
right_child=1 4 3 -5 5 -7 7 8 -10 -11 -12 12 -14 -15 -16 -17
leaf_value=-0.033536412383113758 0.019804633203855053 0.040623384490274764 -0.024308889702735759 -0.047503018843664306 0.03413072802558198 0.041333582763563574 -0.021055056186775327 -0.07491303929648703 0.023380143365408463 0.0010522999908533219 0.039406949035836636 -0.069330641781704852 0.01657889637093499 0.059602182301393178 0.019587029734733849 -0.031638461803095333
leaf_weight=9.6496807597577554 14.728368051350115 14.43854049220681 8.5192415341734939 13.741021133959292 14.418159101158379 12.554180815815924 9.8031578697264212 9.876795902848249 8.3778423517942411 13.092722188681362 14.789585426449774 10.452955540269615 10.110428031533955 11.350921168923376 9.5525036677718145 8.3098462745547277
leaf_count=66 86 84 59 91 93 59 70 63 57 90 84 63 69 68 60 57
internal_value=0 0.00499473 -0.00819379 -0.0211602 0.00945696 0.00579803 0.00175873 -0.00309885 -0.0200216 -0.0316526 0.0087792 -0.00208777 -0.0271074 0.0222336 -0.00110715 -0.0551814
internal_weight=0 184.116 46.5411 31.8128 137.575 123.137 110.582 96.1643 39.6572 31.2794 56.507 41.7175 20.5634 21.1541 18.0717 18.1866
internal_count=1219 1153 296 210 857 773 714 621 267 210 354 270 132 138 119 120
is_linear=0
shrinkage=0.0838786


Tree=42
num_leaves=16
num_cat=0
split_feature=12 12 15 20 5 23 10 23 11 10 10 28 13 5 11
split_gain=3.14344 2.37 2.53404 3.301 2.74332 2.64406 4.07645 3.0819 3.38422 2.51348 2.46616 2.40195 1.95413 2.80919 1.75595
threshold=163.50000000000003 9.5000000000000018 2.5000000000000004 2.5000000000000004 91.666666666666671 6.5000000000000009 8905106476805.002 1.0000000180025095e-35 1.0000000180025095e-35 9406081120727.502 9209736296208.002 5.5000000000000009 586.50000000000011 141.66666666666666 1.0000000180025095e-35
decision_type=2 2 2 2 2 2 2 2 2 2 2 2 2 2 2
left_child=1 -1 4 9 5 6 11 8 -8 -4 -7 -3 14 -14 -6
right_child=-2 2 3 -5 12 10 7 -9 -10 -11 -12 -13 13 -15 -16
leaf_value=0.043014526101994868 -0.034310996336589301 0.0098423316316148413 -0.014593921624144846 0.0090290629005099401 0.051162809568520366 -0.057584046952456974 0.00094777257102465686 0.022797448030331562 -0.067031642981884507 -0.071522974639772335 -0.0020852642315997202 0.070085994259110246 0.034691811271918942 -0.025584932555634616 0.011853399294750573
leaf_weight=10.167311854660509 16.707858689129353 9.8107465282082575 13.015785165131094 18.988717436790466 18.75071869790554 10.261932395398619 11.218508966267109 12.232274208217857 9.5125214010477066 9.3948146775364858 12.473204884678124 8.8602619692683202 10.022725209593775 11.862822756171225 13.953042618930338
leaf_count=58 108 67 83 104 97 73 78 84 78 59 82 57 61 64 75
internal_value=0 0.00370313 0.00135341 -0.0166982 0.00714991 -0.00333135 0.00716335 -0.0105736 -0.0302677 -0.0384906 -0.0271572 0.0384636 0.0214267 0.0020226 0.0344047
internal_weight=0 180.525 170.358 41.3993 128.959 74.3695 51.6343 32.9633 20.731 22.4106 22.7351 18.671 54.5893 21.8855 32.7038
internal_count=1228 1120 1062 246 816 519 364 240 156 142 155 124 297 125 172
is_linear=0
shrinkage=0.0838786


Tree=43
num_leaves=16
num_cat=0
split_feature=12 13 19 13 2 5 23 1 13 4 23 13 2 2 10
split_gain=2.68044 1.9568 2.10279 3.82244 4.27728 5.00294 4.59762 5.3937 3.43344 2.99412 2.47352 5.45247 3.73134 2.90568 2.47721
threshold=163.50000000000003 924.50000000000011 1.0000000180025095e-35 845.50000000000011 181.50000000000003 30.952380952380953 1.5000000000000002 638.50000000000011 347.50000000000006 1.0000000180025095e-35 2.5000000000000004 498.00000000000006 863.50000000000011 267.50000000000006 9308066498594.002
decision_type=2 2 2 2 2 2 2 2 2 2 2 2 2 2 2
left_child=1 2 9 4 -4 -6 7 -7 -8 10 12 -12 13 -1 -15
right_child=-2 -3 3 -5 5 6 8 -9 -10 -11 11 -13 -14 14 -16
leaf_value=0.0020686925578760483 -0.032024003615567911 -0.025322706084653448 -0.032488300860960079 0.066455562987666084 -0.033420395065807094 0.08024671464837263 0.036126086648164905 0.0076104025250606378 -0.029881266552391671 0.039147417000407837 -0.025250302332136709 0.049986866513453479 0.019249649633401436 -0.082430264313491222 -0.025713478316549791
leaf_weight=9.0407956354320067 16.413754008710384 15.293050691485403 14.239582762122152 9.0969459712505323 10.838957548141478 17.685181312263015 10.222329862415792 12.123328395187853 12.081472881138323 9.9289715550839883 14.635217305272819 12.597084403038023 10.879617236554621 11.008265871554615 10.696358084678648
leaf_count=65 108 96 82 55 89 95 53 69 75 59 84 78 66 79 75
internal_value=0 0.00336682 0.00602684 0.0150719 0.00900497 0.0183964 0.0291806 0.0507236 0.000373694 -0.00388 -0.0100916 0.00955952 -0.0229475 -0.0378824 -0.0545156
internal_weight=0 180.367 165.074 86.2878 77.1909 62.9513 52.1123 29.8085 22.3038 78.7863 68.8573 27.2323 41.625 30.7454 21.7046
internal_count=1228 1120 1024 518 463 381 292 164 128 506 447 162 285 219 154
is_linear=0
shrinkage=0.0838786


Tree=44
num_leaves=19
num_cat=0
split_feature=12 24 1 28 24 12 26 23 11 20 12 24 1 10 24 1 13 12
split_gain=2.29693 2.23576 2.6477 3.65621 4.38423 3.18914 4.25212 3.13922 3.13551 3.02404 2.66699 2.56758 2.37075 6.85524 3.69441 1.83505 1.10188 0.5446
threshold=8.5000000000000018 6948.5000000000009 674.50000000000011 2.5000000000000004 28.500000000000004 140.50000000000003 1.0000000180025095e-35 13.500000000000002 1.0000000180025095e-35 3.5000000000000004 82.500000000000014 8031.5000000000009 344.50000000000006 9407201980614.002 733.50000000000011 296.50000000000006 377.00000000000006 119.50000000000001
decision_type=2 2 2 2 2 2 2 2 2 2 2 2 2 2 2 2 2 2
left_child=-1 2 5 -4 16 6 7 12 10 -8 -6 17 13 -2 -14 -7 -5 -3
right_child=1 11 3 4 8 15 9 -9 -10 -11 -12 -13 14 -15 -16 -17 -18 -19
leaf_value=0.041548036286935951 -0.06367288751169238 -0.062332547089329927 0.061108963758144612 -0.0062343889362646253 0.013294882324509316 -0.0065575883231600556 0.059488233586509294 -0.043972598310446941 -0.0054478251714789958 -0.00216890845562045 0.072923609776597675 0.014176717075889599 -0.016374333571815964 0.036256134598836615 0.05657122290643745 -0.054635977742531365 -0.047528458479103974 -0.030340992848047039
leaf_weight=9.0659134164452535 10.919958934187891 7.4940649755299109 10.145849972963331 8.908074304461481 10.24243523925543 9.6763907000422495 12.478460781276228 15.040936809033154 15.666694164276121 10.135174475610254 10.892397560179232 7.3372919037938109 9.3385517224669474 8.638943884521721 10.215943910181521 13.215648353099821 9.2855045795440656 7.5821971222758293
leaf_count=51 81 58 57 45 56 59 73 94 100 57 60 55 56 54 70 82 66 54
internal_value=0 -0.00165017 0.00173085 0.0148797 0.00633697 -0.0068642 0.0013308 -0.0114255 0.0229868 0.0318687 0.0440556 -0.0264968 0.00110087 -0.0195395 0.0217466 -0.0343312 -0.0273319 -0.0462886
internal_weight=0 187.215 164.801 65.141 54.9951 99.66 76.768 54.1543 36.8015 22.6136 21.1348 22.4136 39.1134 19.5589 19.5545 22.892 18.1936 15.0763
internal_count=1228 1177 1010 384 327 626 485 355 216 130 116 167 261 135 126 141 111 112
is_linear=0
shrinkage=0.0838786


Tree=45
num_leaves=16
num_cat=0
split_feature=15 10 23 10 1 1 16 10 12 19 11 13 24 12 10
split_gain=2.33966 2.23499 2.20544 3.84611 2.14079 2.52141 3.04757 5.17177 5.9997 2.91981 4.65788 2.41008 2.5982 1.83727 1.56343
threshold=2.5000000000000004 9506266275480.002 4.5000000000000009 9006251404950.502 967.50000000000011 817.50000000000011 2.5000000000000004 8912261864037.002 96.500000000000014 1.0000000180025095e-35 1.0000000180025095e-35 307.00000000000006 2933.5000000000005 99.500000000000014 9304601674441.002
decision_type=2 2 2 2 2 2 2 2 2 2 2 2 2 2 2
left_child=4 2 3 -2 5 6 7 -1 -9 10 -8 -11 -13 -7 -12
right_child=1 -3 -4 -5 -6 13 9 8 -10 11 14 12 -14 -15 -16
leaf_value=-0.02406941218184748 -0.056989342169120313 -0.043082015158647811 0.028476645233556197 0.013010246675128404 -0.026818735864324587 0.01356758357606472 0.0066980162948090793 0.079044684602223331 -0.0026543502956297535 -0.020026443352824871 -0.034687865458809836 0.048030373208609416 -0.0044976832848882247 0.058331239443902047 -0.088253464392087602
leaf_weight=11.626096680760382 10.029944743961098 14.715424410998819 10.250530783087013 12.257058240473269 13.168774370104073 16.024151705205444 14.771112777292728 14.451137989759447 11.233851000666617 14.613157533109186 8.458541449159382 13.555474016815426 12.939301691949366 10.799870625138281 7.0491597540676603
leaf_count=68 63 92 58 69 83 92 105 74 66 94 64 88 92 60 60
internal_value=0 -0.015973 -0.00369838 -0.0185068 0.00545013 0.00858841 0.00290295 0.0223256 0.0433289 -0.0072505 -0.0270103 0.00730745 0.0223872 0.0316126 -0.0590965
internal_weight=0 47.253 32.5375 22.287 148.691 135.522 108.698 37.3111 25.685 71.3867 30.2788 41.1079 26.4948 26.824 15.5077
internal_count=1228 282 190 132 946 863 711 208 140 503 229 274 180 152 124
is_linear=0
shrinkage=0.0838786


Tree=46
num_leaves=19
num_cat=0
split_feature=12 12 12 10 2 27 20 23 10 1 20 24 24 19 1 10 2 13
split_gain=1.97118 1.58111 1.50086 1.9051 2.56503 2.24134 3.37453 2.93034 1.68803 2.87871 3.20904 2.93317 3.2767 4.958 2.77444 1.51101 0.950159 0.899617
threshold=163.50000000000003 8.5000000000000018 156.50000000000003 9502196421034.002 296.50000000000006 27.500000000000004 2.5000000000000004 1.0000000180025095e-35 9401131485744.502 328.50000000000006 2.5000000000000004 381.00000000000006 6928.5000000000009 1.0000000180025095e-35 789.00000000000011 8906616588665.002 684.50000000000011 571.00000000000011
decision_type=2 2 2 2 2 2 2 2 2 2 2 2 2 2 2 2 2 2
left_child=1 -1 3 8 -5 7 -7 -6 9 10 17 14 13 15 -11 -13 -15 -3
right_child=-2 2 -4 4 5 6 -8 -9 -10 11 -12 12 -14 16 -16 -17 -18 -19
leaf_value=0.036738999988934318 -0.028165852236668561 -0.066890128319275099 0.033883830773415335 -0.048957022987957538 -0.019615418772280638 -0.055746844405917435 0.013188039752462386 0.044999902947348777 0.031619775302619176 -0.046208972296172102 0.011715475552145457 -0.025143937242123264 -0.020451701526139947 0.07915266105300002 0.014126439112049813 0.024947860586656968 0.042867198381640326 -0.025692435152263791
leaf_weight=9.1153321191668493 15.792171627283095 8.0365227721631545 9.174966447055338 11.602570865303276 9.0086773559451121 10.812875006347896 9.2678977996110898 10.896225467324255 14.793869599699972 10.55384970828891 11.078537479043005 8.5431422740221041 10.157098919153212 10.209348320961 10.873742509633301 8.3774644583463651 10.242206573486326 7.0051047317683688
leaf_count=51 108 59 52 76 59 79 52 66 86 62 64 56 73 57 62 55 58 53
internal_value=0 0.00272996 0.000910124 -0.000966215 -0.0142609 -0.00417875 -0.0239428 0.0157612 0.00527685 0.00117353 -0.0225333 0.0101566 0.0217704 0.0332499 -0.0156003 -0.000341332 0.0610242 -0.0477477
internal_weight=0 179.749 170.634 161.459 51.5882 39.9857 20.0808 19.9049 109.871 95.077 26.1202 68.9569 47.5293 37.3722 21.4276 16.9206 20.4516 15.0416
internal_count=1228 1120 1069 1017 332 256 131 125 685 599 176 423 299 226 124 111 115 112
is_linear=0
shrinkage=0.0838786


Tree=47
num_leaves=17
num_cat=0
split_feature=15 2 6 20 2 24 10 19 5 2 6 23 19 10 28 10
split_gain=1.86679 2.40378 3.57589 2.37641 1.89118 3.80801 2.52463 4.80553 3.37566 2.972 2.78612 2.38516 3.9048 1.9011 1.80581 0.0873171
threshold=2.5000000000000004 873.50000000000011 22.500000000000004 2.5000000000000004 218.50000000000003 1835.5000000000002 9605591181029.002 1.0000000180025095e-35 187.50000000000003 970.00000000000011 25.500000000000004 6.5000000000000009 1.0000000180025095e-35 9106181400888.502 6.5000000000000009 9201131459744.002
decision_type=2 2 2 2 2 2 2 2 2 2 2 2 2 2 2 2
left_child=4 2 3 -2 5 -1 8 -8 9 10 11 12 13 -6 -14 -13
right_child=1 -3 -4 -5 6 -7 7 -9 -10 -11 -12 15 14 -15 -16 -17
leaf_value=-0.0094106942077737451 -0.045207156221995219 -0.053614922224631094 0.037145494801694823 0.003850125589380506 -0.0034629672068818567 0.051045614627000281 -0.017847926541996306 0.052925812745057817 0.026979302374353035 0.025822539641956289 -0.067633928037348884 -0.048031935756787367 -0.00070557710957890778 -0.05677534652975718 0.049508680520075808 -0.035339426748696327
leaf_weight=13.348950341343881 13.96068522706628 8.8940770998597127 10.235224656760691 13.809233531355856 9.0999976992607134 16.231542762368917 11.875762406736612 15.606167405843735 17.056953817605972 10.996850602328776 7.9959816895425311 8.3434152565896493 11.171672802418472 9.7392821684479696 9.1619947627186757 7.5971020460128775
leaf_count=81 94 50 61 77 71 100 78 95 81 62 57 62 77 73 60 49
internal_value=0 -0.0143968 -0.0052016 -0.0208216 0.00480119 0.0237706 6.92327e-05 0.0223478 -0.00664889 -0.0143931 -0.0214054 -0.0146824 -0.00354556 -0.0310471 0.0219372 -0.0420212
internal_weight=0 46.8992 38.0051 27.7699 148.226 29.5805 118.645 27.4819 91.1633 74.1063 63.1094 55.1135 39.1729 18.8393 20.3337 15.9405
internal_count=1228 282 232 171 946 181 765 173 592 511 449 392 281 144 137 111
is_linear=0
shrinkage=0.0838786


Tree=48
num_leaves=17
num_cat=0
split_feature=12 1 28 24 1 24 12 2 2 10 13 2 10 6 12 23
split_gain=3.71034 4.36749 3.27437 3.68864 3.43447 5.057 2.95079 3.69467 2.1898 2.96575 2.41304 3.75151 3.32151 2.51689 2.06548 2.0396
threshold=158.50000000000003 631.50000000000011 9.5000000000000018 -708.99999999999989 311.50000000000006 1838.5000000000002 28.500000000000004 674.50000000000011 261.00000000000006 9208151594633.002 355.50000000000006 774.50000000000011 9206066058699.002 22.500000000000004 94.500000000000014 1.0000000180025095e-35
decision_type=2 2 2 2 2 2 2 2 2 2 2 2 2 2 2 2
left_child=2 -2 6 -4 -5 -6 7 -1 9 -8 11 -10 13 15 -14 -12
right_child=1 -3 3 4 5 -7 8 -9 10 -11 12 -13 14 -15 -16 -17
leaf_value=0.037617008733221671 -0.0041864757097638799 0.070477948824494735 0.053720649985165632 -0.041689625114340663 -0.032879256744050851 0.043813972088023713 -0.071175033506609656 -0.027451191970450279 0.029177715633713165 -0.014240356399692925 -0.053847872550777241 -0.030925288162820481 -0.02802971063632153 0.035196677542869287 -0.080354274935995437 0.007108177618849877
leaf_weight=14.848167963325979 12.598871976137163 9.7818920537829381 10.921725906431673 10.715594936162232 9.7161839976906794 15.976888768374918 12.724981416016819 10.447687737643717 17.659755237400535 13.032951649278401 7.7729979045689124 12.4420860260725 12.837983258068563 7.6418848149478427 9.068095996975897 7.6547091826796532
leaf_count=93 86 57 59 69 62 95 83 62 102 82 61 73 88 52 66 58
internal_value=0 0.0284693 -0.0078092 0.011001 -0.00182885 0.0148081 -0.0148683 0.010741 -0.0212937 -0.042392 -0.0140482 0.00433129 -0.0263476 -0.0041276 -0.0497287 -0.0236226
internal_weight=0 22.3808 173.462 47.3304 36.4087 25.6931 126.131 25.2959 100.835 25.7579 75.0775 30.1018 44.9757 23.0696 21.9061 15.4277
internal_count=1248 143 1105 285 226 157 820 155 665 165 500 175 325 171 154 119
is_linear=0
shrinkage=0.0838786


Tree=49
num_leaves=18
num_cat=0
split_feature=12 20 12 28 20 1 22 1 22 23 5 1 2 24 5 12 2
split_gain=3.09916 4.27031 2.96788 3.13355 2.92485 3.19739 1.68821 2.96095 2.12421 1.78772 2.0124 2.30733 2.4712 1.80077 4.07726 1.59598 0.836845
threshold=158.50000000000003 2.5000000000000004 9.5000000000000018 9.5000000000000018 2.5000000000000004 376.50000000000006 5.5000000000000009 751.50000000000011 6.5000000000000009 8.5000000000000018 53.571428571428577 751.50000000000011 476.50000000000006 2926.5000000000005 117.14285714285717 62.500000000000007 602.50000000000011
decision_type=2 2 2 2 2 2 2 2 2 2 2 2 2 2 2 2 2
left_child=2 -2 -1 6 5 -5 9 8 -8 10 11 12 -4 14 -12 -11 -6
right_child=1 -3 3 4 16 -7 7 -9 -10 15 13 -13 -14 -15 -16 -17 -18
leaf_value=0.034095077831249487 0.058998721759696469 -0.014192015555704034 0.051682933110862604 -0.052161756013141186 0.014642220709304873 0.013216057556581482 0.0016915779552959865 0.033043269618710465 -0.046056801677748643 -0.020910783150245034 -0.049537566239810774 -0.038504100333307166 -0.011773694393929035 -0.052075997817721383 0.02723938049354158 -0.067024815066794849 0.048299281049521747
leaf_weight=11.405790664255617 12.346070796251299 10.258305519819258 8.1926398314535671 8.5428897254169005 10.22799000144005 13.660316094756125 15.984700269997122 11.401995982974766 11.095472577959297 10.115141212940218 10.233078841120006 7.0773696713149539 9.101359158754347 14.56228009238839 9.2545948848128301 11.080995056778191 10.597516566514967
leaf_count=64 78 65 56 60 56 90 104 67 70 62 75 53 69 95 50 78 56
internal_value=0 0.0257938 -0.00722708 -0.0101551 0.00922117 -0.0119544 -0.0172152 -0.00278783 -0.0178848 -0.0241863 -0.0166077 0.0017926 0.0183032 -0.029774 -0.0130817 -0.0450484 0.0317919
internal_weight=0 22.6044 172.534 161.128 43.0287 22.2032 118.1 38.4822 27.0802 79.6175 58.4213 24.3714 17.294 34.05 19.4877 21.1961 20.8255
internal_count=1248 143 1105 1041 262 150 779 241 174 538 398 178 125 220 125 140 112
is_linear=0
shrinkage=0.0838786


Tree=50
num_leaves=19
num_cat=0
split_feature=12 1 13 24 24 9 1 2 28 2 28 27 16 1 1 23 2 13
split_gain=2.58134 3.53674 2.92965 4.32213 3.56239 3.49036 3.26048 2.69304 2.34314 1.56844 2.14004 3.84582 1.84299 2.00346 2.03479 3.74759 1.48261 1.23925
threshold=158.50000000000003 631.50000000000011 854.00000000000011 6574.5000000000009 5849.5000000000009 1.0000000180025095e-35 708.50000000000011 329.50000000000006 5.5000000000000009 181.50000000000003 4.5000000000000009 29.500000000000004 2.5000000000000004 836.50000000000011 494.50000000000006 1.5000000000000002 444.50000000000006 428.50000000000006
decision_type=2 2 2 2 2 2 2 2 2 2 2 2 2 2 2 2 2 2
left_child=2 -2 3 4 5 9 16 -5 -9 17 11 -11 -12 14 15 -14 -4 -1
right_child=1 -3 6 7 -6 -7 -8 8 -10 10 12 -13 13 -15 -16 -17 -18 -19
leaf_value=-0.050082992939663354 -0.0060399853605677609 0.060295443435517813 -0.028268984341097265 0.068232709663899202 -0.059738994416446568 0.042285099376497458 0.0063402222995064539 -0.0237655793235232 0.040308821151353438 -0.018269686911141361 0.010487040104927441 0.046516642187184397 0.012856089173906543 0.010052539137769521 -0.063741564175227389 -0.060850985279191826 -0.078423931703329591 -0.0074902927246455059
leaf_weight=10.52291487529874 12.78825217485428 10.118944823741911 7.8585684522986474 8.4858443588018435 8.8481029570102674 10.186283767223356 9.6702855378389341 7.64350547641516 8.4291264563798887 12.225738417357208 16.300376199185848 13.60847622156143 11.618354439735418 9.7731843329966051 10.358795613050459 8.3156087771058065 8.8290062509477121 8.8507125601172429
leaf_count=65 86 57 52 55 53 49 63 59 56 80 89 82 83 62 84 57 60 56
internal_value=0 0.0232805 -0.00668959 -0.00201704 -0.00854887 -0.00448885 -0.0324079 0.0300466 0.00984153 -0.00918505 -0.00412223 0.0158628 -0.0132841 -0.0229562 -0.0336064 -0.0179111 -0.0548503 -0.0306459
internal_weight=0 22.9072 171.525 145.167 120.609 111.76 26.3579 24.5585 16.0726 101.574 82.2005 25.8342 56.3663 40.0659 30.2928 19.934 16.6876 19.3736
internal_count=1248 143 1105 930 760 707 175 170 115 658 537 162 375 286 224 140 112 121
is_linear=0
shrinkage=0.0838786


Tree=51
num_leaves=16
num_cat=0
split_feature=1 13 24 11 24 24 24 24 24 19 12 28 12 5 2
split_gain=2.17811 4.64283 3.34605 4.16932 2.79423 2.35934 5.05669 2.6188 1.87437 1.8232 1.63613 2.09741 2.53306 1.47812 1.1662
threshold=704.50000000000011 893.50000000000011 2550.5000000000005 1.0000000180025095e-35 743.50000000000011 6574.5000000000009 2914.5000000000005 7673.0000000000009 -1441.4999999999998 1.0000000180025095e-35 133.50000000000003 9.5000000000000018 86.500000000000014 53.571428571428577 541.50000000000011
decision_type=2 2 2 2 2 2 2 2 2 2 2 2 2 2 2
left_child=1 5 4 -4 8 6 10 -7 -2 -8 11 12 14 -11 -1
right_child=2 -3 3 -5 -6 7 9 -9 -10 13 -12 -13 -14 -15 -16
leaf_value=0.025062774235786744 -0.023521971015995784 -0.05286335203109483 0.052886899734525247 -0.006968886220555086 -0.04905457128551001 0.045980470093292522 -0.012366727875284365 -0.01374459080313494 0.021337643217187788 -0.030302390556953801 0.031159188603414 0.02772228197491608 -0.052421961625146 -0.077661453531562993 -0.01518521565153828
leaf_weight=8.6279548220336491 10.468913473188875 15.317912459373472 19.621862806379795 14.03662386536598 9.0581895895302278 12.560783993452789 13.157257642596962 8.7560490258038026 17.466253951191906 9.6455654613673705 13.460008442401884 11.574775364249943 8.6785113178193551 8.9738932847976667 12.223267067223786
leaf_count=53 63 103 109 86 62 78 100 69 105 66 82 75 63 55 79
internal_value=0 -0.00967822 0.00880024 0.0279318 -0.00860981 -0.00352732 -0.00969772 0.0214536 0.00452169 -0.0362896 0.00579339 -0.00251992 -0.0143826 -0.0531708 0.00147305
internal_weight=0 122.976 70.6518 33.6585 36.9934 107.658 86.3412 21.3168 27.9352 31.7767 54.5645 41.1045 29.5297 18.6195 20.8512
internal_count=1248 823 425 195 230 720 573 147 168 221 352 270 195 121 132
is_linear=0
shrinkage=0.0838786


Tree=52
num_leaves=18
num_cat=0
split_feature=12 12 20 28 24 1 5 2 2 1 5 6 7 5 5 2 2
