tree
version=v4
num_class=1
num_tree_per_iteration=1
label_index=0
max_feature_idx=28
objective=binary sigmoid:1
feature_names=accident_month age claim_count claim_delay_days claim_frequency claim_type contract_days contract_id document_issuer email email_dup_count fraud_count gender identification_number insurance_id is_reviewed issuer_dup_count point quick_claim quick_claims_flag rule1_score rule2_score rule3_score rule4_score rule5_score rule6_score status_x status_y total_premium
feature_infos=[1:12] [19:41] [1:8] [-2905:8408] [0.14285714285714285:7] [0:1] [1:7] [0:1074] [0:1102] [0:175] [0:11] [0:3] [0:1] [1103331923:9912051778598] [0:3] [0:1] [0:185] [3:1000] [0:1] [0:1] [0:60] [14.28571428571429:700] [0:39] [0:15] none [0:50] none none [10000:70000]
tree_sizes=2454 2214 1892 2117 2223 2015 1906 2125 1919 1913 1803 1505 1487 2333 1399 1400 1795 1609 2118 1612 1187 2216 2538 2022 1807 1916 1924 2218 1908 1709 1895 1928 1504 2014 1601 2228 2117 1590 1389 1825 2352 2016 1082 2353 1298 1821 1600 981 1492 1804 2230 2115 1816 1494 2222 1079 1081 2011 1913 2332 1606 1295 1826 1496 2435 2243 2333 1514 1703 1700 1811 1809 1707 1397 1827 1815 1294 1295 2336 1607 2132 1296 1091 1716 1286 1408 1705 1411 1503 1399 1498 2023 1814 1091 1614 1287 1512 1708 1813 1191 1401 1708 1196 1707 1504 2650 1915 1816 1823 1711 2028 1913 2128 1612 1505 2122 2036 2023 1824 2552 1826 2251 1930 1717 2343 2042 2446 1202 1923 1923 2672 2333 1816 2350 2030 1704 1404 1613 1395 1811 1502 1403 1618 1307 2455 1420 1822 2351 1814 1710 1709 2765 1709 1931 1720 2542 1304 1944 1925 1292 2134 1090 1299 1619 1407 2864 1402 1808 1712 1612 1935 1601

Tree=0
num_leaves=23
num_cat=0
split_feature=6 2 17 17 7 17 17 7 15 2 7 8 14 8 7 17 1 8 1 2 1 5
split_gain=88.1522 35.931 10.7994 13.1158 5.481 5.09816 4.98473 4.11107 6.19756 7.5347 6.5623 4.2191 3.38599 3.37223 3.19989 6.51118 2.87126 2.6387 1.81349 1.73849 1.42764 0.982366
threshold=1.5000000000000002 2.5000000000000004 355.50000000000006 287.50000000000006 456.50000000000006 546.50000000000011 133.50000000000003 946.00000000000011 1.0000000180025095e-35 2.5000000000000004 704.50000000000011 350.00000000000006 1.5000000000000002 301.50000000000006 839.50000000000011 213.50000000000003 27.500000000000004 541.50000000000011 32.500000000000007 2.5000000000000004 28.500000000000004 1.0000000180025095e-35
decision_type=2 2 2 2 2 2 2 2 2 2 2 2 2 2 2 2 2 2 2 2 2 2
left_child=1 4 3 6 -1 13 16 8 10 11 12 -10 -7 -4 15 -8 -2 -11 21 -18 -5 -15
right_child=2 -3 5 20 -6 7 14 -9 9 17 -12 -13 -14 18 -16 -17 19 -19 -20 -21 -22 -23
leaf_value=-1.125627297099931 -1.1349286731880981 -0.92000926539326988 -1.1495158646269774 -1.0894517522246367 -1.0483745820842507 -1.2226717014632025 -1.0939353308352631 -1.2034530254317184 -1.1121906980277367 -1.0557805308041732 -1.1176920162867179 -1.1810105745241233 -1.1673440008001983 -1.2409217411610018 -1.0800886350127583 -1.1787429535382479 -1.2118914536877969 -1.1191279921796795 -1.1778800353419814 -1.163902551174288 -1.041399505580211 -1.2027082796620645
leaf_weight=12.166171520948412 11.613163724541662 17.143241688609123 9.7698044031858426 9.4011325389146823 17.143241688609123 16.958905756473541 13.087851181626322 13.640858978033064 10.322812199592592 9.5854684710502642 11.42882779240608 20.829960331320763 17.327577620744705 11.428827792406086 9.4011325389146787 15.11554643511772 11.98183558881283 10.875819995999334 9.9541403353214246 11.42882779240608 9.7698044031858426 9.5854684710502625
leaf_count=66 63 93 53 51 93 92 71 74 56 52 62 113 94 62 51 82 65 59 54 62 53 52
internal_value=-1.13223 -1.02123 -1.15355 -1.12972 -1.08044 -1.16797 -1.14682 -1.1582 -1.15185 -1.13095 -1.17546 -1.15821 -1.19471 -1.19461 -1.12456 -1.13939 -1.17071 -1.08945 -1.20883 -1.18846 -1.06496 -1.22349
internal_weight=0 46.4527 243.508 91.7993 29.3094 151.708 72.6284 110.97 97.3294 51.6141 45.7153 31.1528 34.2865 40.7382 37.6045 28.2034 35.0238 20.4613 30.9684 23.4107 19.1709 21.0143
internal_count=1573 252 1321 498 159 823 394 602 528 280 248 169 186 221 204 153 190 111 168 127 104 114
is_linear=0
shrinkage=1


Tree=1
num_leaves=20
num_cat=0
split_feature=4 6 17 17 7 22 17 7 7 22 13 13 3 13 1 17 13 3 7
split_gain=100.643 16.3199 6.36572 11.0589 8.72915 5.2217 4.2691 4.22756 4.12845 3.74648 4.96523 3.27431 3.19454 3.1715 1.49975 3.79872 1.46659 3.17924 1.34005
threshold=2.4166666666666674 1.5000000000000002 355.50000000000006 161.00000000000003 895.50000000000011 19.500000000000004 546.50000000000011 456.50000000000006 400.50000000000006 19.500000000000004 8502176171419.001 9108606506257.002 5844.5000000000009 9211636454578.502 28.500000000000004 420.00000000000006 8907626528546.002 4020.5000000000005 519.50000000000011
decision_type=2 2 2 2 2 2 2 2 2 2 2 2 2 2 2 2 2 2 2
left_child=1 7 3 13 5 -5 14 -1 -7 16 -11 -2 -12 18 -4 -16 -8 -18 -3
right_child=11 2 6 4 -6 8 9 -9 -10 10 12 -13 -14 -15 15 -17 17 -19 -20
leaf_value=0.0059992406923585701 0.14469226335575999 0.0079928869769944275 -0.082313853450972349 0.054147904506911926 0.096185869721895204 0.016877051051495257 -0.021198564733276803 0.07320151618786247 -0.047380769598903909 -0.059486418149290149 0.015369724661011556 0.2125065796022621 -0.038198968805741994 -0.067366364660271155 -0.088579625253096997 -0.019155110287462248 -0.075871110920655932 -0.019751658552105832 -0.039381738874617739
leaf_weight=12.207305431365969 10.533722996711733 9.2579992264509219 13.783756971359251 11.802548229694365 9.8609292954206449 15.789772227406504 15.758092641830443 17.872527301311493 15.209163695573805 12.622029453516005 36.235116630792618 11.584743455052374 11.320267066359518 18.290616929531097 10.030047163367273 15.613112822175024 19.951509907841682 12.865771129727362 9.2468176335096341
leaf_count=66 52 51 78 63 52 85 86 93 82 70 199 58 62 101 56 87 110 71 51
internal_value=0 -0.0151569 -0.0228891 -0.00434719 0.0215226 0.00432102 -0.034083 0.045929 -0.0146499 -0.0250869 -0.0104082 0.180211 0.00261791 -0.0413728 -0.0588972 -0.04631 -0.0432714 -0.0538701 -0.0156798
internal_weight=0 267.717 237.638 89.4578 52.6624 42.8015 148.18 30.0798 30.9989 108.753 60.1774 22.1185 47.5554 36.7954 39.4269 25.6432 48.5754 32.8173 18.5048
internal_count=1573 1463 1304 485 282 230 819 159 167 598 331 110 261 203 221 143 267 181 102
is_linear=0
shrinkage=0.0880239


Tree=2
num_leaves=17
num_cat=0
split_feature=4 28 17 17 9 3 9 13 7 17 3 17 9 13 1 13
split_gain=77.8578 13.5367 5.46621 9.36603 6.68794 6.01122 4.08966 4.89554 4.07942 2.97232 3.83633 2.45534 5.1173 2.15291 1.79648 1.7475
threshold=2.4166666666666674 15000.000000000002 355.50000000000006 133.50000000000003 158.50000000000003 -708.99999999999989 105.50000000000001 9204126427179.002 971.50000000000011 466.00000000000006 -343.49999999999994 261.00000000000006 91.500000000000014 9108606506257.002 30.500000000000004 9211636454578.502
decision_type=2 2 2 2 2 2 2 2 2 2 2 2 2 2 2 2
left_child=1 6 3 15 8 -5 7 -1 9 14 -11 12 -7 -2 -4 -3
right_child=13 2 4 5 -6 11 -8 -9 -10 10 -12 -13 -14 -15 -16 -17
leaf_value=0.020769295772718695 0.12407863510061473 -0.022050843819555126 -0.04072572613525953 0.073069933268475704 0.02168195287369918 0.03539355730194807 -0.0032767607695449734 0.10760718251920649 -0.08966713146012853 0.0078059412263918352 -0.035930068716933321 0.027046784922107017 -0.045386644963982349 0.1771421877048375 -0.093711769481661739 -0.062795953121139697
leaf_weight=10.047238379716878 11.169350743293764 17.044711455702782 11.04276464879513 11.956341445446013 16.1551643460989 9.7759655714035052 10.617144376039503 10.073901712894438 10.997832477092741 19.347315594553947 78.952657595276833 18.727037072181702 16.055146738886833 12.618386089801787 8.998470410704611 15.639986991882322
leaf_count=52 52 95 65 63 91 52 55 52 63 108 440 98 87 58 52 90
internal_value=0 -0.0140044 -0.0211984 -0.00404152 -0.0317168 0.0176499 0.0409232 0.0642461 -0.0383867 -0.0336209 -0.0273219 0.00277891 -0.0148146 0.152227 -0.0645166 -0.041548
internal_weight=0 265.432 234.693 89.1992 145.494 56.5145 30.7383 20.1211 129.339 118.341 98.3 44.5581 25.8311 23.7877 20.0412 32.6847
internal_count=1573 1463 1304 485 819 300 159 104 728 665 548 237 139 110 117 185
is_linear=0
shrinkage=0.0880239


Tree=3
num_leaves=19
num_cat=0
split_feature=4 4 15 3 4 3 3 12 7 17 13 17 13 3 1 13 13 7
split_gain=61.6583 11.3948 6.12302 9.46934 8.7496 9.27085 5.91372 3.99212 6.45956 6.7842 4.82821 4.33109 3.64197 2.41412 2.3346 1.6691 1.56296 0.657352
threshold=2.4166666666666674 1.5833333333333337 1.0000000180025095e-35 7670.0000000000009 0.30952380952380959 6565.5000000000009 2558.5000000000005 1.0000000180025095e-35 724.50000000000011 602.50000000000011 9407201980614.002 772.00000000000011 8806536410870.002 4738.5000000000009 30.500000000000004 9506266275480.002 9108606506257.002 426.50000000000006
decision_type=2 2 2 2 2 2 2 2 2 2 2 2 2 2 2 2 2 2
left_child=1 2 7 4 15 12 -3 8 9 13 11 14 -6 -1 -9 -4 -2 -12
right_child=16 6 3 -5 5 -7 -8 10 -10 -11 17 -13 -14 -15 -16 -17 -18 -19
leaf_value=0.019165436443290079 0.10814786539621947 0.083253126739918276 -0.058491082731611639 -0.079050877247661813 -0.026173605305881344 0.090467177606710261 -0.0019614088580871144 -0.021776364372153689 0.028859202741808247 -0.0836026353744585 -0.10371581570765345 0.017608059399003097 0.016225841729142602 -0.040196304294100212 -0.073583272279361386 -0.012582330119278102 0.15226001403059811 -0.07106411478830317
leaf_weight=12.411316245794298 11.661345243453981 13.422876760363581 17.294587299227718 12.387093454599379 21.719846412539482 11.087542444467543 11.907779574394224 12.282695904374124 16.484084561467171 14.750163763761519 9.0058245211839694 9.9707393795251829 56.607358008623123 9.2749825716018659 14.935368672013281 9.5108727663755399 13.349592804908751 10.178965479135512
leaf_count=69 52 69 98 70 121 61 61 69 92 85 52 56 313 51 84 54 58 58
internal_value=0 -0.0129314 -0.0189074 -0.00588917 0.00190857 0.0151326 0.0431941 -0.034226 -0.0168627 -0.0375477 -0.0505257 -0.0320231 0.00446856 -0.00622264 -0.0502046 -0.0422024 0.131693 -0.0863919
internal_weight=0 263.232 237.901 128.607 116.22 89.4147 25.3307 109.294 52.9205 36.4365 56.3736 37.1888 78.3272 21.6863 27.2181 26.8055 25.0109 19.1848
internal_count=1573 1463 1333 717 647 495 130 616 297 205 319 209 434 120 153 152 110 110
is_linear=0
shrinkage=0.0880239


Tree=4
num_leaves=20
num_cat=0
split_feature=4 25 3 15 4 3 6 3 22 3 17 6 7 7 3 7 7 13 6
split_gain=50.2735 10.9146 5.20645 6.85898 7.40571 7.93744 3.97814 3.84425 3.6441 4.21032 5.01642 7.27377 3.46487 6.28503 2.77533 2.79481 2.4253 1.95537 1.12613
threshold=1.8750000000000002 1.0000000180025095e-35 7654.5000000000009 1.0000000180025095e-35 0.30952380952380959 6565.5000000000009 3.5000000000000004 3294.0000000000005 16.500000000000004 3671.0000000000005 361.50000000000006 4.5000000000000009 967.50000000000011 846.50000000000011 1481.5000000000002 704.50000000000011 523.50000000000011 9506266275480.002 4.5000000000000009
decision_type=2 2 2 2 2 2 2 2 2 2 2 2 2 2 2 2 2 2 2
left_child=2 7 3 8 17 12 -4 -2 -1 14 -11 -12 13 -6 15 -10 -3 -5 -16
right_child=1 16 6 4 5 -7 -8 -9 9 10 11 -13 -14 -15 18 -17 -18 -19 -20
leaf_value=-0.083428356185665256 0.067065280939099747 0.14520190418361714 -0.10329298144645936 -0.058836525085755195 0.00064212866488141105 0.08387677941253309 -0.027374888978027943 -0.0048655561412728962 -0.044304619881852303 0.042218719392768077 0.026328167821625895 -0.083184741909994156 -0.039036908974892391 0.078047584702129427 -0.087083456511696258 0.0035801947543530133 0.091385599854090102 -0.0078935457464510694 -0.043849575830660063
leaf_weight=9.0017524361610395 13.698201194405558 13.579288363456728 8.9202013015747088 16.246700271964077 57.584253802895546 10.862651348114012 13.355259105563162 9.929770499467848 24.169931992888451 13.321257144212721 9.4050547480583209 9.3919264078140241 12.426639243960379 9.4633723348379117 9.903140068054201 15.500337392091749 12.427248060703276 9.1127163469791395 8.8321984112262708
leaf_count=53 66 59 52 95 320 57 78 51 140 73 54 57 68 51 57 86 53 52 51
internal_value=0 0.0801413 -0.0172655 -0.0130726 0.00150186 0.0133013 -0.0577765 0.0368358 -0.0300152 -0.0247037 0.00089542 -0.0283897 0.00365492 0.0115675 -0.0387812 -0.0255945 0.119486 -0.0405308 -0.0667025
internal_weight=0 49.6345 237.497 215.222 115.696 90.3369 22.2755 23.628 99.5256 90.5238 32.1182 18.797 79.4743 67.0476 58.4056 39.6703 26.0065 25.3594 18.7353
internal_count=1573 229 1344 1214 643 496 130 117 571 518 184 111 439 371 334 226 112 147 108
is_linear=0
shrinkage=0.0880239


Tree=5
num_leaves=18
num_cat=0
split_feature=4 4 8 1 5 3 17 3 3 17 8 16 17 17 3 4 13
split_gain=41.1445 7.24671 6.45234 5.59551 4.40061 3.91814 5.08046 5.84939 4.75087 4.25077 4.18051 5.65342 3.73923 3.19536 3.09579 1.91783 1.25081
threshold=1.8750000000000002 2.4166666666666674 953.00000000000011 29.500000000000004 1.0000000180025095e-35 7654.5000000000009 355.50000000000006 5831.5000000000009 -699.99999999999989 255.50000000000003 218.50000000000003 1.5000000000000002 575.00000000000011 498.00000000000006 4373.5000000000009 0.63333333333333341 9108606506257.002
decision_type=2 2 2 2 2 2 2 2 2 2 2 2 2 2 2 2 2
left_child=2 4 5 -4 -2 6 7 8 -1 -10 11 -8 15 -7 -14 -12 -3
right_child=1 16 3 -5 -6 13 10 -9 9 -11 12 -13 14 -15 -16 -17 -18
leaf_value=0.029669572557837101 0.06960322280217611 0.082830840372136116 0.07269087001725888 -0.013398591248742094 -0.0061327756933712424 -0.093964125111472424 -0.040590335018418147 0.048543863664858557 -0.042873302036174545 0.023055753823088627 -0.081439591845891987 0.038304286596066363 -0.038031769726244322 -0.020777543718352054 0.0047990106164826699 -0.033073450431929642 0.12116228644260395
leaf_weight=15.545385256409643 13.651727303862572 12.375384330749513 11.230925127863886 12.208919361233709 10.528931751847267 9.8056788593530673 13.251999750733377 15.815129175782202 32.063143610954285 9.9220321625471097 17.985682055354122 15.006917878985403 45.291126221418381 8.7446993738412839 18.382333591580391 9.8215238451957685 14.127781271934508
leaf_count=84 67 52 63 70 52 59 77 84 183 52 111 86 261 53 104 57 58
internal_value=0 0.0714716 -0.01597 0.0278499 0.0366254 -0.0208233 -0.0171109 0.00113252 -0.0119007 -0.0272927 -0.0282859 0.00130651 -0.0374272 -0.0594641 -0.0256666 -0.0643568 0.103264
internal_weight=0 50.6838 235.075 23.4398 24.1807 211.636 193.085 73.3457 57.5306 41.9852 119.74 28.2589 91.4807 18.5504 63.6735 27.8072 26.5032
internal_count=1573 229 1344 133 119 1211 1099 403 319 235 696 163 533 112 365 168 110
is_linear=0
shrinkage=0.0880239


Tree=6
num_leaves=17
num_cat=0
split_feature=4 4 8 1 5 9 8 9 8 4 0 9 16 16 9 0
split_gain=33.8517 5.9245 5.39695 3.89511 3.50373 3.03659 2.73442 5.3772 6.29812 3.81742 5.59192 3.32885 3.31462 3.15525 2.21641 2.04559
threshold=1.8750000000000002 2.4166666666666674 954.50000000000011 29.500000000000004 1.0000000180025095e-35 9.5000000000000018 325.50000000000006 136.50000000000003 256.50000000000006 0.41428571428571431 10.500000000000002 76.500000000000014 29.500000000000004 107.50000000000001 142.50000000000003 7.5000000000000009
decision_type=2 2 2 2 2 2 2 2 2 2 2 2 2 2 2 2
left_child=2 4 5 -4 -2 -1 7 8 11 12 13 -7 14 -11 -8 -3
right_child=1 15 3 -5 -6 6 9 -9 -10 10 -12 -13 -14 -15 -16 -17
leaf_value=0.028687863098342731 0.061606685391840318 0.070072813417156529 0.062731956431952951 -0.0096586941124431388 -0.0056085021899859762 -0.0085155119213705041 -0.048122193359203938 0.043375838621267725 0.048411304319395769 -0.033226972348700416 0.036683600075260087 -0.05896667445075076 -0.093496811455958145 0.022256079761979495 0.0010047293671546791 0.11873147693590264
leaf_weight=9.7810662537813169 14.046306908130646 14.430369615554811 11.24951319396496 11.799864917993544 10.501068368554115 19.86055451631546 30.402900323271751 13.302067562937735 8.6665188223123533 66.178422778844833 12.651296108961104 20.690480843186378 9.9261062294244748 9.0246146917343122 9.2895288467407209 12.488283500075338
leaf_count=55 67 59 61 68 52 113 185 75 50 380 70 119 61 52 55 51
internal_value=0 0.0641275 -0.0147581 0.0256721 0.0328526 -0.0192005 -0.0215426 -0.00627995 -0.0197006 -0.0284837 -0.0174601 -0.0342575 -0.0480018 -0.0265687 -0.0366245 0.0926471
internal_weight=0 51.466 232.823 23.0494 24.5474 209.774 199.992 62.5196 49.2176 137.473 87.8543 40.551 49.6185 75.203 39.6924 26.9187
internal_count=1573 229 1344 129 119 1215 1160 357 282 803 502 232 301 432 240 110
is_linear=0
shrinkage=0.0880239


Tree=7
num_leaves=19
num_cat=0
split_feature=25 6 7 17 17 7 17 8 16 7 15 6 7 0 7 7 19 0
split_gain=27.6182 7.59052 7.16102 4.00432 6.97361 6.67889 5.68518 3.4089 4.83641 3.06311 2.7932 4.37921 3.6576 2.67219 5.39843 4.27265 1.40497 3.13339
threshold=1.0000000180025095e-35 1.5000000000000002 449.50000000000006 355.50000000000006 161.00000000000003 895.50000000000011 428.50000000000006 140.50000000000003 2.5000000000000004 456.50000000000006 1.0000000180025095e-35 4.5000000000000009 387.50000000000006 9.5000000000000018 704.50000000000011 922.50000000000011 1.0000000180025095e-35 6.5000000000000009
decision_type=2 2 2 2 2 2 2 2 2 2 2 2 2 2 2 2 2 2
left_child=1 9 -2 4 16 10 -5 8 -8 -1 11 -6 -12 15 -15 -9 17 -3
right_child=2 3 -4 6 5 -7 7 13 -10 -11 12 -13 -14 14 -16 -17 -18 -19
leaf_value=-0.0036645737730919806 0.12841860769095706 -0.014147692515005188 0.043054608718254686 -0.081499814974874754 -0.060255166647033925 0.080208211364805576 -0.029037098436133568 -0.025621275313636695 0.061001649088644951 0.052169710004623962 0.065244114437802356 0.020270049359187126 -0.0069878717271114818 -0.033902729168078641 0.053258875537527242 -0.082612569808405784 -0.0082310280563597498 -0.079470403182652263
leaf_weight=12.80824074149132 12.316414445638655 11.780722439289095 19.944821402430534 13.028987556695936 10.659089133143427 10.638579696416853 9.568270072340967 65.762281596660614 8.9423150569200498 18.768877118825912 9.5395033061504382 10.278816044330595 12.613879755139349 14.352071538567545 8.9324675649404508 12.062178343534468 11.757185652852057 11.004867836832998
leaf_count=66 52 72 89 86 57 52 58 391 50 90 50 56 68 86 51 73 69 67
internal_value=0 -0.010846 0.0756443 -0.016616 -0.00208864 0.0177488 -0.0262834 -0.0202691 0.0144596 0.0295222 0.0023284 -0.0207235 0.0241158 -0.0266272 -0.000465357 -0.0344545 -0.0329451 -0.0456972
internal_weight=0 252.498 32.2612 220.921 88.2726 53.7299 132.649 119.62 18.5106 31.5771 43.0913 20.9379 22.1534 101.109 23.2845 77.8245 34.5428 22.7856
internal_count=1583 1442 141 1286 491 283 795 709 108 156 231 113 118 601 137 464 208 139
is_linear=0
shrinkage=0.0880239


Tree=8
num_leaves=17
num_cat=0
split_feature=21 6 3 17 17 17 10 19 3 14 0 0 14 21 0 14
split_gain=26.254 6.27373 3.15584 3.73302 5.27663 4.06163 3.4371 3.6219 3.36843 4.64932 2.38728 2.09408 1.95304 1.4852 2.06494 1.43854
threshold=241.66666666666666 1.5000000000000002 6948.5000000000009 355.50000000000006 315.50000000000006 546.50000000000011 4.5000000000000009 1.0000000180025095e-35 -699.99999999999989 1.5000000000000002 8.5000000000000018 7.5000000000000009 1.5000000000000002 30.952380952380953 7.5000000000000009 1.0000000180025095e-35
decision_type=2 2 2 2 2 2 2 2 2 2 2 2 2 2 2 2
left_child=1 10 3 4 8 13 15 -8 -3 -10 -1 -2 -4 -5 -15 -7
right_child=11 2 12 5 -6 6 7 -9 9 -11 -12 -13 -14 14 -16 -17
leaf_value=0.045002833075361577 0.056808866529427647 0.03039648416399018 -0.06670916061697886 -0.082837550233838167 0.058814683540668787 -0.00062392381109249901 -0.011549779773319595 0.040855019218910812 -0.041778410462579428 0.012300197984174114 -0.0048621909988024676 0.10497805131677553 -0.020764054339501428 -0.058519124319361494 -0.0026628607475230963 -0.03992139483063558
leaf_weight=20.145921483635906 14.614738896489145 15.299279183149336 13.505861811339857 7.568113841116431 11.571924090385435 9.4583638906478864 33.875231757760048 14.632732152938841 26.723731532692909 22.850534796714783 11.7936435341835 13.410036921501158 15.278495728969572 13.694209754467012 8.1986513286828977 30.469980373978615
leaf_count=98 59 82 82 54 57 57 200 83 154 131 58 54 92 87 52 183
internal_value=0 -0.00989773 -0.0151208 -0.011092 0.00405832 -0.0209156 -0.0114856 0.00425834 -0.00570885 -0.0168516 0.0265901 0.0798583 -0.0423221 -0.0492224 -0.0376018 -0.0306126
internal_weight=0 255.067 223.127 194.343 76.4455 117.897 88.4363 48.508 64.8735 49.5743 31.9396 28.0248 28.7844 29.461 21.8929 39.9283
internal_count=1583 1470 1314 1140 424 716 523 283 367 285 156 113 174 193 139 240
is_linear=0
shrinkage=0.0880239


Tree=9
num_leaves=17
num_cat=0
split_feature=21 6 9 8 15 7 9 9 7 16 7 7 18 16 1 2
split_gain=21.8305 5.2308 3.45638 3.07333 2.66726 5.4547 5.88507 4.85393 4.54129 4.02608 3.13659 7.04317 1.86231 1.73979 1.65012 1.41648
threshold=241.66666666666666 1.5000000000000002 107.50000000000001 1020.0000000000001 1.0000000180025095e-35 198.50000000000003 85.500000000000014 112.50000000000001 677.50000000000011 9.5000000000000018 361.50000000000006 431.50000000000006 1.0000000180025095e-35 2.5000000000000004 30.500000000000004 3.5000000000000004
decision_type=2 2 2 2 2 2 2 2 2 2 2 2 2 2 2 2
left_child=1 2 13 4 7 6 -6 9 14 12 -7 -12 -3 -1 -9 -2
right_child=15 3 -4 -5 5 10 -8 8 -10 -11 11 -13 -14 -15 -16 -17
leaf_value=0.019407836594570408 0.050871573427632912 -0.024544156834269259 -0.016922659660598374 0.032029412145348962 0.077814409465218976 -0.055725689478206164 -0.01176116346780218 -0.044508873629117034 0.042016171215532909 -0.0038161976105798474 0.058896082501689179 -0.020180984815725334 -0.066248137554363332 0.069400461916329745 0.0019076036736687732 0.090600894282287112
leaf_weight=10.851176440715792 12.672471687197687 11.030615180730818 10.70398201048374 10.711806178092955 10.956268794834616 13.649075537919996 11.807153850793837 13.354420751333238 12.223332062363623 15.49556005746126 10.021357163786886 67.57042234390974 33.478382863104343 10.725125864148138 10.680083051323889 15.409336820244787
leaf_count=52 51 67 53 61 63 81 67 85 70 95 56 397 209 51 63 62
internal_value=0 -0.0091276 0.0239709 -0.0139626 -0.0163057 -0.00719564 0.0313522 -0.0270947 -0.00166662 -0.0424595 -0.0168129 -0.00996772 -0.0559128 0.0442584 -0.0238828 0.0726725
internal_weight=0 253.259 32.2803 220.978 210.267 114.004 22.7634 96.2624 36.2578 60.0046 91.2409 77.5918 44.509 21.5763 24.0345 28.0818
internal_count=1583 1470 156 1314 1253 664 130 589 218 371 534 453 276 103 148 113
is_linear=0
shrinkage=0.0880239


Tree=10
num_leaves=16
num_cat=0
split_feature=4 6 3 17 17 7 4 0 4 6 17 3 3 7 0
split_gain=18.1932 4.36168 2.79284 3.98704 5.23546 3.85405 3.92124 4.41827 3.81082 3.48313 3.3027 2.75311 4.28739 2.34081 1.78473
threshold=2.4166666666666674 1.5000000000000002 7654.5000000000009 355.50000000000006 133.50000000000003 967.50000000000011 0.30952380952380959 6.5000000000000009 0.36666666666666675 5.5000000000000009 508.50000000000006 5831.5000000000009 -708.99999999999989 456.50000000000006 7.5000000000000009
decision_type=2 2 2 2 2 2 2 2 2 2 2 2 2 2 2
left_child=1 13 3 4 9 6 7 -5 -8 -3 -4 12 -6 -1 -2
right_child=14 2 10 5 11 -7 8 -9 -10 -11 -12 -13 -14 -15 -16
leaf_value=-0.0072325998281883566 0.045084110940142579 0.00042374138659567951 -0.081315995241745154 -0.0084414538614047043 0.052806403357801908 -0.069488299692911135 0.042345972242063552 -0.085578599709057776 -0.01339709500362277 -0.063763204834422216 -0.0060607731241463817 0.059035096334391725 -0.0084825474889410474 0.040930238340370718 0.089517754648179584
leaf_weight=13.042505308985708 14.678886055946352 15.811530888080599 9.618696868419649 11.421383969485762 12.882230311632155 11.064472720026968 10.85671631246805 11.593959577381609 76.179207034409046 11.18369287252426 8.5220795571804029 11.759154006838797 28.208632290363312 19.521620213985443 13.397347718477247
leaf_count=66 59 98 64 76 63 72 67 78 457 69 55 61 154 90 54
internal_value=0 -0.00841851 -0.012886 -0.00990008 0.00537011 -0.019967 -0.0149881 -0.0472995 -0.00644373 -0.0261677 -0.0459633 0.0214794 0.0107318 0.02164 0.066287
internal_weight=0 251.666 219.102 200.961 79.8452 121.116 110.051 23.0153 87.0359 26.9952 18.1408 52.85 41.0909 32.5641 28.0762
internal_count=1583 1470 1314 1195 445 750 678 154 524 167 119 278 217 156 113
is_linear=0
shrinkage=0.0880239


Tree=11
num_leaves=13
num_cat=0
split_feature=4 6 8 8 9 8 4 15 8 15 16 16
split_gain=15.2103 3.6434 3.07306 3.17094 2.78017 2.68987 2.23304 4.0497 2.61322 1.40003 1.32019 0.803523
threshold=2.4166666666666674 1.5000000000000002 72.500000000000014 140.50000000000003 107.50000000000001 1020.0000000000001 0.30952380952380959 1.0000000180025095e-35 753.50000000000011 1.0000000180025095e-35 2.5000000000000004 1.0000000180025095e-35
decision_type=2 2 2 2 2 2 2 2 2 2 2 2
left_child=1 4 -3 9 10 6 8 -8 -5 -4 -1 -2
right_child=11 2 3 5 -6 -7 7 -9 -10 -11 -12 -13
leaf_value=0.015812105698798783 0.04452095000578269 -0.050243678467947382 -0.00074622945757878221 -0.013842049335630087 -0.017234271201989445 0.03002633410105663 -0.026756172270076914 0.0038410751502560019 -0.060931281839855155 0.047352195914050661 0.058848888188388397 0.074448169020085289
leaf_weight=11.0010371953249 12.88703326880932 15.069018125534056 8.6573143377900124 20.950306184589863 10.706790909171103 10.805293232202528 61.198470652103424 74.096784755587578 16.186756029725075 10.228782817721367 11.091390877962111 15.095576852560042
leaf_count=52 52 89 53 136 53 61 381 430 106 58 51 61
internal_value=0 -0.00776722 -0.0118968 -0.00903784 0.019578 -0.0125774 -0.0152472 -0.00999902 -0.0343668 0.0253038 0.0374188 0.0606658
internal_weight=0 249.992 217.193 202.124 32.7992 183.238 172.432 135.295 37.1371 18.8861 22.0924 27.9826
internal_count=1583 1470 1314 1225 156 1114 1053 811 242 111 103 113
is_linear=0
shrinkage=0.0880239


Tree=12
num_leaves=13
num_cat=0
split_feature=4 13 6 7 7 7 4 7 14 7 0 0
split_gain=12.7207 3.10967 2.98564 2.35205 3.58952 7.37048 4.03425 3.37639 6.94145 2.29411 2.13815 1.53974
threshold=2.4166666666666674 11203431889.000002 1.5000000000000002 1018.5000000000001 855.50000000000011 928.50000000000011 0.63333333333333341 178.00000000000003 1.5000000000000002 773.50000000000011 8.5000000000000018 7.5000000000000009
decision_type=2 2 2 2 2 2 2 2 2 2 2 2
left_child=1 -1 10 4 7 -6 -7 8 -4 -9 -3 -2
right_child=11 2 3 -5 5 6 -8 9 -10 -11 -12 -13
leaf_value=-0.05412139454081432 0.035914478398551226 0.037021713106981304 -0.021661059784484127 -0.052653642302279265 0.061156998680543403 0.018072776966800822 -0.0625516813948543 -0.014870255706590178 0.058811123117757047 -0.051853713537983029 -0.010566546257871835 0.077355857270841141
leaf_weight=10.458299480378626 14.640348166227342 20.458451524376873 19.832572542130947 9.1206194162368757 16.642265044152737 10.54212945699692 8.8418184593319875 112.36115051060915 14.289388746023176 14.695624738931654 11.386957466602324 13.22039858996868
leaf_count=63 59 95 117 59 92 62 55 696 86 90 55 54
internal_value=0 -0.00714321 -0.00508034 -0.00895223 -0.00693104 0.018188 -0.0187031 -0.0125456 0.0120384 -0.0191479 0.0200054 0.0555793
internal_weight=0 248.629 238.171 206.326 197.205 36.0262 19.3839 161.179 34.122 127.057 31.8454 27.8607
internal_count=1583 1470 1407 1257 1198 209 117 989 203 786 150 113
is_linear=0
shrinkage=0.0880239


Tree=13
num_leaves=21
num_cat=0
split_feature=6 13 17 17 9 9 17 17 18 13 13 16 17 17 17 13 17 17 12 14
split_gain=8.2239 3.52111 5.14433 3.35989 6.12474 4.61017 6.74115 3.591 2.97942 4.18266 3.67024 2.92304 2.55352 2.62892 1.53136 1.30497 2.18363 1.75923 0.741192 0.649788
threshold=1.5000000000000002 8906616588665.002 650.50000000000011 355.50000000000006 158.50000000000003 76.500000000000014 258.50000000000006 428.50000000000006 1.0000000180025095e-35 9606046216861.002 9006251404950.502 8.5000000000000018 161.00000000000003 252.50000000000003 347.50000000000006 9301651667282.002 204.00000000000003 94.500000000000014 1.0000000180025095e-35 1.5000000000000002
decision_type=2 2 2 2 2 2 2 2 2 2 2 2 2 2 2 2 2 2 2 2
left_child=1 -1 14 5 7 12 15 -5 11 10 -10 19 -2 -14 -3 17 -17 -7 -11 -9
right_child=3 2 -4 4 -6 6 -8 8 9 18 -12 -13 13 -15 -16 16 -18 -19 -20 -21
leaf_value=-0.0055842955420871282 -0.0072615664160280086 0.090735483666699188 0.0040695517289946236 -0.072703018090990057 0.035515466858478922 0.01258302997539811 0.036637305645222142 0.010089553006550811 -0.040430256079113297 -0.049644522885028609 0.0033697693470342289 -0.034852078601458072 0.079766776788023477 0.019164233857904601 0.046660059867967063 -0.067773724320179127 -0.011326560851330518 -0.041506557817263263 -0.085692509611188974 0.04404698282686613
leaf_weight=16.126394748687744 9.188837870955469 12.068585291504862 15.874968990683554 10.818446189165114 14.918269924819468 10.026052996516229 16.850175365805626 8.730147942900663 27.569521464407444 10.174069754779341 32.061956748366356 8.9232551306486112 10.54692003130913 11.698109492659567 12.367858335375784 12.725762553513052 9.1126938313245756 8.7032970786094648 7.8153325244784346 8.7356956973671895
leaf_count=72 56 53 71 81 92 63 84 55 174 65 199 55 55 60 55 84 50 53 53 53
internal_value=0 0.0291771 0.0430833 -0.00851292 -0.0175437 0.00467429 -0.0101611 -0.0244371 -0.0194167 -0.0281034 -0.0168803 0.00613399 0.0317732 0.0478977 0.0684281 -0.0295993 -0.0442199 -0.0125514 -0.0653056 0.027074
internal_weight=0 56.4378 40.3114 218.599 129.747 88.8518 57.418 114.828 104.01 77.6209 59.6315 26.3891 31.4339 22.245 24.4364 40.5678 21.8385 18.7294 17.9894 17.4658
internal_count=1583 251 179 1332 827 505 334 735 654 491 373 163 171 115 108 250 134 116 118 108
is_linear=0
shrinkage=0.0880239


Tree=14
num_leaves=12
num_cat=0
split_feature=25 7 9 3 3 9 1 9 7 7 5
split_gain=9.36483 5.83426 3.29497 2.82975 3.83737 3.6623 6.31796 2.52349 5.62267 3.89251 2.1157
threshold=1.0000000180025095e-35 449.50000000000006 7.5000000000000009 6950.5000000000009 6565.5000000000009 159.50000000000003 29.500000000000004 91.500000000000014 356.50000000000006 263.50000000000006 1.0000000180025095e-35
decision_type=2 2 2 2 2 2 2 2 2 2 2
left_child=2 -2 -1 4 5 7 -7 9 -9 -4 -5
right_child=1 -3 3 10 -6 6 -8 8 -10 -11 -12
leaf_value=0.046312474324433563 0.092998272903308365 0.015222288663851584 0.029218402230269086 -0.057411874876818057 0.043243308347342205 0.067246143857040974 -0.03046603064104118 -0.063703052873847324 -0.0087312264743772319 -0.012119393562924723 -0.0097185518947167388
leaf_weight=9.0417719930410367 12.151935219764711 19.409228824079037 23.040738970041275 14.47077813744545 12.408140584826468 12.516938954591753 8.6845211833715421 20.056098960340023 51.271957315504551 75.432317487895489 14.357421226799488
leaf_count=50 52 88 133 92 69 72 54 126 306 447 89
internal_value=0 0.0451684 -0.00581964 -0.00784933 -0.00419142 -0.00727296 0.0272211 -0.0115799 -0.0241883 -0.00244711 -0.0336592
internal_weight=0 31.5612 241.281 232.239 203.411 191.003 21.2015 169.801 71.3281 98.4731 28.8282
internal_count=1578 140 1438 1388 1207 1138 126 1012 432 580 181
is_linear=0
shrinkage=0.0880239


Tree=15
num_leaves=12
num_cat=0
split_feature=25 7 10 9 15 9 17 9 7 9 9
split_gain=7.82114 4.92011 2.7553 3.21634 2.59205 2.02237 4.09736 2.19905 2.67394 10.7185 6.25094
threshold=1.0000000180025095e-35 449.50000000000006 3.5000000000000004 9.5000000000000018 1.0000000180025095e-35 157.50000000000003 404.50000000000006 148.50000000000003 344.50000000000006 48.500000000000007 46.500000000000007
decision_type=2 2 2 2 2 2 2 2 2 2 2
left_child=2 -2 4 -4 -1 7 -7 8 9 -5 -10
right_child=1 -3 3 5 -6 6 -8 -9 10 -11 -12
leaf_value=-0.070993882906788305 0.085447057419266059 0.01387415476915602 0.044727481377656295 0.042218786913004139 -0.0077893722665123835 -0.019023643017773883 0.054379230705484775 -0.045634304400858361 -0.031796423841413249 -0.044935737312979493 0.013987484627684368
leaf_weight=9.1828272640705109 12.065452352166178 19.420170977711678 10.636312425136564 14.959576189517973 11.11057536303997 11.264724403619768 12.354266330599783 11.284376747906206 31.387337014079094 40.622917376458645 87.571772031486034
leaf_count=62 52 88 57 86 62 70 70 67 187 252 525
internal_value=0 0.0413014 -0.00535462 -0.00249288 -0.0363899 -0.00489091 0.0193706 -0.00797465 -0.00553986 -0.0214787 0.00190736
internal_weight=0 31.4856 240.375 220.081 20.2934 209.445 23.619 185.826 174.542 55.5825 118.959
internal_count=1578 140 1438 1314 124 1257 140 1117 1050 338 712
is_linear=0
shrinkage=0.0880239


Tree=16
num_leaves=16
num_cat=0
split_feature=25 9 17 9 17 17 9 9 17 3 3 4 13 9 7
split_gain=6.54012 4.66709 2.29282 5.10393 5.10426 4.84571 3.34165 2.64485 2.62549 2.2977 3.37224 3.25484 1.57216 1.44939 1.3118
threshold=1.0000000180025095e-35 103.50000000000001 355.50000000000006 76.500000000000014 261.00000000000006 396.00000000000006 159.50000000000003 42.500000000000007 99.000000000000014 7303.5000000000009 6579.5000000000009 0.91666666666666685 9301651667282.002 22.500000000000004 489.50000000000006
decision_type=2 2 2 2 2 2 2 2 2 2 2 2 2 2 2
left_child=2 -2 3 7 8 -4 9 13 12 10 11 -7 -5 -1 -10
right_child=1 -3 5 4 -6 6 -8 -9 14 -11 -12 -13 -14 -15 -16
leaf_value=0.03461838502642927 0.0012574064299327628 0.069338624578285837 -0.076139566471343234 0.020120091309335654 0.032326504891841842 -0.023646543891350087 0.030698931826856339 0.060761825630335622 -0.026272739452921717 0.024367008355788231 -0.067529270310484793 0.0093073026835972447 -0.031352832007318546 -0.012282450089573299 -0.06822052008449378
leaf_weight=10.508242331445219 14.532176636159422 16.84583392739296 8.5389952361583692 10.78061565756798 15.8695912361145 65.553733050823212 15.499340891838072 14.728425681591032 12.218966692686083 11.728055484592913 9.2355086728930456 35.963033609092236 8.0166158154606801 9.9293126314878446 10.956221759319304
leaf_count=54 68 72 64 68 80 431 88 77 74 77 55 195 57 55 63
internal_value=0 0.0378082 -0.0049296 0.0058796 -0.0101984 -0.0117912 -0.00780887 0.0323252 -0.0262769 -0.0126819 -0.0166052 -0.0119724 -0.00183171 0.011832 -0.0461041
internal_weight=0 31.378 239.527 93.008 57.842 146.519 137.98 35.166 41.9724 122.48 110.752 101.517 18.7972 20.4376 23.1752
internal_count=1578 140 1438 528 342 910 846 186 262 758 681 626 125 109 137
is_linear=0
shrinkage=0.0880239


Tree=17
num_leaves=14
num_cat=0
split_feature=4 10 5 3 3 23 14 13 10 11 4 4 13
split_gain=5.4624 2.60557 2.64603 2.54535 3.44225 1.90816 4.26984 4.46783 3.75989 2.54007 3.32074 1.79001 1.21853
threshold=2.4166666666666674 3.5000000000000004 1.0000000180025095e-35 6950.5000000000009 6565.5000000000009 1.0000000180025095e-35 1.5000000000000002 9005251518410.002 5.5000000000000009 1.0000000180025095e-35 0.46428571428571436 0.58571428571428574 9108606506257.002
decision_type=2 2 2 2 2 2 2 2 2 2 2 2 2
left_child=1 2 -1 4 5 9 7 -7 -8 10 -3 -5 -2
right_child=12 3 -4 11 -6 6 8 -9 -10 -11 -12 -13 -14
leaf_value=-0.0035928985973142473 0.018196238223453197 0.010055572768391583 -0.067806637180680002 -0.002972340963691139 0.047875496853998903 -0.057411347067241943 0.013352133868109971 0.012185497297571691 0.078179086221434962 0.026194582571710711 -0.02326559407459753 -0.047772852304036391 0.056001428478999644
leaf_weight=10.279937632381916 12.637452214956285 34.579153023660183 9.6300565674901009 13.217943936586382 11.958601720631121 10.759965114295481 21.336636893451217 21.283888138830662 10.268334724009035 15.2308407202363 70.257392182946205 14.481057956814764 13.842380866408346
leaf_count=64 52 219 60 90 66 65 124 128 59 89 414 89 59
internal_value=0 -0.00413964 -0.0346521 -0.00141996 0.00211529 -0.00086334 0.0114578 -0.0111842 0.0344143 -0.00739493 -0.0122749 -0.0263943 0.0379592
internal_weight=0 243.284 19.91 223.374 195.675 183.716 63.6488 32.0439 31.605 120.067 104.837 27.699 26.4798
internal_count=1578 1467 124 1343 1164 1098 376 193 183 722 633 179 111
is_linear=0
shrinkage=0.0880239


Tree=18
num_leaves=19
num_cat=0
split_feature=21 3 3 3 3 13 13 5 21 21 0 0 3 9 21 15 9 14
split_gain=4.77809 4.75131 4.50467 2.76394 4.08219 7.73864 17.3353 2.98536 2.9237 2.32557 6.31206 4.91402 3.23488 7.02906 6.08737 2.47931 3.19692 2.64366
threshold=158.3333333333334 3657.5000000000005 22.500000000000004 7670.0000000000009 5111.5000000000009 9004591311892.502 9206066058699.002 1.0000000180025095e-35 58.571428571428577 30.952380952380953 6.5000000000000009 3.5000000000000004 -342.49999999999994 34.500000000000007 58.571428571428577 1.0000000180025095e-35 112.50000000000001 1.5000000000000002
decision_type=2 2 2 2 2 2 2 2 2 2 2 2 2 2 2 2 2 2
left_child=3 2 -2 4 9 -6 -7 -8 -5 10 11 -1 13 -11 -15 16 -14 -17
right_child=1 -3 -4 8 5 6 7 -9 -10 12 -12 -13 15 14 -16 17 -18 -19
leaf_value=-0.044149880173272447 0.011308600753241273 -0.010829690655584187 0.075312506446058511 -0.0068801436350934128 -0.034464735265567176 0.15722612158686725 -0.018330986018345253 0.036551249221196389 -0.082480712125890768 0.083581835557360665 -0.077078848809560591 0.052933227964962894 -0.050852318259684358 0.040417268791819026 -0.04174730955829685 -0.023316429024041883 0.0023264375691189744 0.02200312390637835
leaf_weight=8.0776998996734672 17.026059597730637 19.856572657823563 17.05534915626049 8.7554972395300847 15.720678508281706 7.6708442866802207 15.254236109554768 15.465201929211617 7.2421683445572844 9.0732447952032071 13.538403786718844 8.081136502325533 24.062511146068573 12.517806209623815 15.811156310141085 19.424176864326 13.772007487714289 20.497602887451649
leaf_count=54 74 90 76 62 98 43 91 90 52 49 93 53 161 75 95 116 86 120
internal_value=0 0.0233969 0.0433382 -0.00590492 -0.00307467 0.0175545 0.0388563 0.0092984 -0.041105 -0.0107807 -0.0327436 0.00440165 -0.00511689 0.0161547 -0.0054408 -0.015349 -0.0314948 -4.72311e-05
internal_weight=0 53.938 34.0814 214.964 198.967 54.111 38.3903 30.7194 15.9977 144.856 29.6972 16.1588 115.159 37.4022 28.329 77.7563 37.8345 39.9218
internal_count=1578 240 150 1338 1224 322 224 181 114 902 200 107 702 219 170 483 247 236
is_linear=0
shrinkage=0.0880239


Tree=19
num_leaves=14
num_cat=0
split_feature=25 9 10 7 9 3 5 7 7 0 3 0 3
split_gain=4.53684 3.9003 2.1661 2.37684 2.29488 2.08945 5.39782 2.48789 8.65875 3.20299 2.57441 4.02981 3.04987
threshold=1.0000000180025095e-35 129.50000000000003 3.5000000000000004 593.50000000000011 9.5000000000000018 -1435.4999999999998 1.0000000180025095e-35 857.50000000000011 925.50000000000011 7.5000000000000009 2914.5000000000005 10.500000000000002 2203.5000000000005
decision_type=2 2 2 2 2 2 2 2 2 2 2 2 2
left_child=2 -2 3 -1 -4 6 -6 10 -9 -10 12 -12 -7
right_child=1 -3 4 -5 5 7 -8 8 9 -11 11 -13 -14
leaf_value=-0.063943653709048323 0.0058218528197635788 0.069548016622140538 0.03766712269853744 -0.0024285157336472367 -0.069931442366931704 -0.00022160165416016951 0.014338003021874159 0.076612454255475054 -0.033968588193754708 0.033020021266716257 -0.0078703707943483907 -0.062588155596449757 0.055371927649084045
leaf_weight=9.4707769080996531 18.353249736130241 12.516817852854727 10.900805838406084 10.011505849659441 11.962957471609116 50.882786996662617 11.600469812750816 13.332464948296545 16.402872540056709 8.3433725461363775 73.019524611532688 12.166317053139208 8.9980820938944799
leaf_count=63 86 54 57 61 69 315 65 72 104 49 452 77 54
internal_value=0 0.0316609 -0.00421362 -0.0323327 -0.00169614 -0.00377199 -0.0284447 -0.000597579 0.0194268 -0.0113827 -0.00585385 -0.0156853 0.00813214
internal_weight=0 30.8701 237.092 19.4823 217.61 206.709 23.5634 183.145 38.0787 24.7462 145.067 85.1858 59.8809
internal_count=1578 140 1438 124 1314 1257 134 1123 225 153 898 529 369
is_linear=0
shrinkage=0.0880239


Tree=20
num_leaves=10
num_cat=0
split_feature=25 7 8 13 9 13 8 3 3
split_gain=3.78934 3.70899 2.21034 2.76085 2.47942 2.49461 2.33788 5.06356 3.20994
threshold=1.0000000180025095e-35 449.50000000000006 52.500000000000007 11203431889.000002 7.5000000000000009 209178903985.00003 568.00000000000011 7651.5000000000009 7303.5000000000009
decision_type=2 2 2 2 2 2 2 2 2
left_child=2 -2 -1 -4 -5 -6 8 -8 -7
right_child=1 -3 3 4 5 6 7 -9 -10
leaf_value=-0.040030658407558775 0.067794996901601443 0.0049306125468856019 -0.050355670062493502 0.046083561646518501 0.03464567884213042 -0.020688821704978294 0.010150940632923431 -0.058969136645407157 0.036836475229264344
leaf_weight=12.418569944798945 11.764995485544206 19.041669420897961 8.7472116723656637 8.7144087105989438 13.559166744351385 78.20324732363224 97.41631194204092 8.9679648578166944 8.3149501383304578
leaf_count=74 52 88 57 45 78 478 586 65 55
internal_value=0 0.0289386 -0.00388352 -0.00187881 9.18206e-05 -0.00184939 -0.00441467 0.00432421 -0.0151602
internal_weight=0 30.8067 236.342 223.923 215.176 206.462 192.902 106.384 86.5182
internal_count=1578 140 1438 1364 1307 1262 1184 651 533
is_linear=0
shrinkage=0.0880239


Tree=21
num_leaves=20
num_cat=0
split_feature=4 10 8 8 7 7 3 3 7 7 8 4 4 23 28 9 4 1 1
split_gain=3.32172 2.0424 9.53228 2.82351 4.7834 8.68243 6.4901 5.68882 4.00121 4.44522 5.1819 4.29573 3.24295 2.95842 2.95167 3.4378 2.87903 2.20048 0.663868
threshold=2.4166666666666674 3.5000000000000004 417.50000000000006 568.00000000000011 728.50000000000011 193.50000000000003 4745.5000000000009 1654.0000000000002 978.50000000000011 365.50000000000006 329.50000000000006 0.53571428571428581 0.91666666666666685 1.0000000180025095e-35 35000.000000000007 85.500000000000014 0.30952380952380959 26.500000000000004 29.500000000000004
decision_type=2 2 2 2 2 2 2 2 2 2 2 2 2 2 2 2 2 2 2
left_child=1 2 -1 8 5 7 13 -5 9 14 11 -11 -12 -6 -3 -16 -7 -18 -2
right_child=18 3 -4 4 6 16 -8 -9 -10 10 12 -13 -14 -15 15 -17 17 -19 -20
leaf_value=0.036729996000382174 0.044482802211991294 -0.06220815045031735 -0.087539682638602193 0.092402420162287835 -0.020266625112500079 -0.062747563454106689 0.077983235380978039 0.0015831875986005034 -0.067306444842772692 0.057589744799032568 -0.050191437365883745 -0.0017950646921437263 0.013395673198489857 0.042706324017103621 0.032572446687412167 -0.041734186819323983 0.020945920941081574 -0.024947688595614782 0.016182007502875261
leaf_weight=8.7262140437960642 11.96611772477627 14.552470870316027 10.582749575376509 9.6736411452293414 14.644579194486141 11.551234439015387 15.200561583042143 11.940387539565561 9.2083753272891027 18.89894288033247 14.766498237848284 18.85345521569252 10.730106085538862 9.5496314913034439 8.4323913156986254 11.274160906672476 10.884713709354399 31.582784004509449 13.863842278718947
leaf_count=54 51 89 71 57 85 82 90 71 58 115 98 110 58 54 52 73 64 188 60
internal_value=0 -0.00392125 -0.0313787 -0.00153029 0.00803687 -0.00491792 0.0329085 0.0422308 -0.0118426 -0.00660468 0.00722734 0.027933 -0.0234309 0.00458903 -0.0321415 -0.00993825 -0.0237832 -0.0131847 0.029293
internal_weight=0 241.053 19.309 221.744 115.028 75.6328 39.3948 21.614 106.716 97.508 63.249 37.7524 25.4966 24.1942 34.259 19.7066 54.0187 42.4675 25.83
internal_count=1580 1469 125 1344 691 462 229 128 653 595 381 225 156 139 214 125 334 252 111
is_linear=0
shrinkage=0.0880239


Tree=22
num_leaves=23
num_cat=0
split_feature=13 13 3 7 17 28 28 0 17 17 13 17 3 16 17 3 7 4 17 0 28 17
split_gain=2.95344 5.85275 7.57974 5.42923 5.03977 4.32163 3.89653 4.82346 4.74557 5.74339 3.77101 3.02549 3.01484 2.81619 5.31605 3.8107 2.62717 2.44058 2.17021 1.40635 1.30695 0.790294
threshold=9006251404950.502 9112206897937.002 4391.5000000000009 412.50000000000006 845.50000000000011 35000.000000000007 25000.000000000004 8.5000000000000018 210.00000000000003 370.00000000000006 203243795481.00003 571.00000000000011 1825.5000000000002 1.5000000000000002 625.50000000000011 735.50000000000011 719.50000000000011 1.8750000000000002 229.00000000000003 5.5000000000000009 35000.000000000007 573.50000000000011
decision_type=2 2 2 2 2 2 2 2 2 2 2 2 2 2 2 2 2 2 2 2 2 2
left_child=3 2 -2 5 10 -1 7 17 19 16 -5 -9 -7 15 -15 -11 -10 21 -12 -8 -20 -3
right_child=1 6 -4 4 -6 12 8 11 9 13 18 -13 -14 14 -16 -17 -18 -19 20 -21 -22 -23
leaf_value=-0.018070643880721826 0.0022139104320317909 -0.0026862561269501784 0.11143912003643826 -0.00093051965749495864 0.014434287036993076 0.010707726493813245 -0.023659693245897343 0.017225373216558194 0.011772370040424579 0.0086437945685268677 -0.022875217426858999 -0.050002968341798293 0.085881848607320357 -0.053931243804719226 0.031363930416317368 -0.055752536547851624 0.070298881735427046 0.066548101486353858 -0.052077910317540714 -0.073093526840223799 -0.093381639492189264 0.035493715353396717
leaf_weight=15.108141586184503 11.039735168218614 7.7663743197917965 8.8846556991338712 11.597620017826555 15.324075132608412 8.5533713921904582 8.1083967015147227 11.409808412194254 15.59024451673031 10.777648270130159 9.1505500525236112 9.5095420777797681 7.9999004676938048 8.1986605674028414 18.295997627079487 20.979622483253479 9.6035884097218496 15.21983367204666 11.539628408849241 9.9088040292263013 12.225459754467009 9.1487377732992154
leaf_count=90 66 49 48 63 88 53 53 60 88 69 51 49 51 61 113 142 47 66 64 69 86 54
internal_value=0 0.00601921 0.0509197 -0.0135073 -0.0291043 0.0159696 0.000229432 0.01956 -0.00987836 -0.00103258 -0.044093 -0.0133351 0.0470384 -0.0162197 0.00496949 -0.0338978 0.0340822 0.0409744 -0.0593008 -0.0508468 -0.073326 0.0179635
internal_weight=0 174.442 19.9244 91.4987 59.8373 31.6614 154.517 53.0543 101.463 83.4458 44.5133 20.9194 16.5533 58.2519 26.4947 31.7573 25.1938 32.1349 32.9156 18.0172 23.7651 16.9151
internal_count=1580 1034 114 546 352 194 920 278 642 520 264 109 104 385 174 211 135 169 201 122 150 103
is_linear=0
shrinkage=0.0880239


Tree=23
num_leaves=18
num_cat=0
split_feature=25 7 7 17 13 12 17 4 22 28 9 7 13 13 7 2 7
split_gain=2.84704 3.29864 2.21382 5.34535 4.30475 9.57052 5.24563 3.17168 2.67279 2.69225 2.83574 5.04534 3.44261 2.76221 2.13852 1.86673 2.53142
threshold=1.0000000180025095e-35 449.50000000000006 714.50000000000011 879.50000000000011 9007591786484.502 1.0000000180025095e-35 481.50000000000006 0.63333333333333341 16.500000000000004 65000.000000000007 82.500000000000014 501.50000000000006 9110236216003.502 9403191057315.502 925.50000000000011 3.5000000000000004 356.50000000000006
decision_type=2 2 2 2 2 2 2 2 2 2 2 2 2 2 2 2 2
left_child=2 -2 8 4 7 14 -7 -4 -1 10 11 12 -10 -11 -6 16 -12
right_child=1 -3 3 -5 5 6 -8 -9 9 13 15 -13 -14 -15 -16 -17 -18
leaf_value=-0.050594452230689542 0.061866050788149232 0.0019039598758760887 -0.064903290289978585 0.062934502817720755 0.06773568148910615 0.0075525260689505809 -0.083988920104338088 -9.9335000112325104e-05 -0.017924561783166076 0.053540617682602043 -0.037434225235604371 -0.044447390630037754 0.034957297088668404 -0.010325080578671297 0.016440723578042458 -0.061954368108399688 0.00024687644864919439
leaf_weight=11.717066831886767 11.496019288897516 18.626462839543819 11.60589410364628 11.65967473387718 16.642899252474312 11.086468107998373 8.6223855316638929 11.803240470588205 14.330424472689627 10.706255540251734 27.547646760940552 13.4929027184844 28.523763209581375 10.290266051888464 10.131389595568178 8.9111835211515409 27.707983106374741
leaf_count=81 52 87 77 67 93 66 53 66 85 71 182 79 163 66 61 56 175
internal_value=0 0.0247882 -0.00395693 0.0077594 -0.00144503 0.0140575 -0.0324955 -0.0322284 -0.0101927 -0.00684743 -0.0119153 0.00249368 0.0172735 0.0222402 0.0483259 -0.0245683 -0.0185389
internal_weight=0 30.1225 234.779 81.552 69.8923 46.4831 19.7089 23.4091 153.227 141.51 120.514 56.3471 42.8542 20.9965 26.7743 64.1668 55.2556
internal_count=1580 139 1441 483 416 273 119 143 958 877 740 327 248 137 154 413 357
is_linear=0
shrinkage=0.0880239


Tree=24
num_leaves=16
num_cat=0
split_feature=25 9 8 8 0 3 9 3 9 0 8 9 14 9 0
split_gain=2.39057 3.08747 1.91927 2.14569 1.70643 5.65495 4.81526 7.15137 3.603 3.23164 3.43058 2.98455 2.41194 2.18823 1.598
threshold=1.0000000180025095e-35 129.50000000000003 52.500000000000007 92.000000000000014 4.5000000000000009 748.50000000000011 89.500000000000014 4745.5000000000009 93.500000000000014 5.5000000000000009 261.00000000000006 103.50000000000001 1.5000000000000002 53.500000000000007 6.5000000000000009
decision_type=2 2 2 2 2 2 2 2 2 2 2 2 2 2 2
left_child=2 -2 -1 -4 5 12 13 -8 9 -6 -11 -10 -5 -7 -13
right_child=1 -3 3 4 8 6 7 -9 11 10 -12 14 -14 -15 -16
leaf_value=-0.037866078221534878 -0.00079538366757819778 0.056664941029808055 0.038921713317067785 0.013839662165744396 -0.036971258163163129 -0.014092391236314743 -0.043232441128414886 0.048602402041466805 -0.069037395001890267 -0.038270078320689287 0.019150153809830098 0.009518522388667917 0.075656725330900787 -0.070619753022779411 -0.025535993171965726
leaf_weight=12.05820047110319 17.686488114297394 12.273251369595526 9.5893178433179838 8.9680100306868571 12.948488667607306 11.734577916562559 10.260972857475283 18.265762500464916 9.9877956137061101 9.3802032843232137 57.362553246319294 13.534349754452704 10.756611563265322 9.6863383501768094 39.431108810007572
leaf_count=73 85 54 57 56 81 69 66 115 66 60 342 85 61 61 249
internal_value=0 0.0227435 -0.0036652 -0.00180673 -0.00364626 0.00764517 -0.00811385 0.0155695 -0.0091614 0.00327247 0.0110801 -0.0249013 0.0475512 -0.0396538 -0.0165784
internal_weight=0 29.9597 233.964 221.906 212.317 69.6723 49.9477 28.5267 142.644 79.6912 66.7428 62.9533 19.7246 21.4209 52.9655
internal_count=1580 139 1441 1368 1311 428 311 181 883 483 402 400 117 130 334
is_linear=0
shrinkage=0.0880239


Tree=25
num_leaves=17
num_cat=0
split_feature=6 8 16 8 17 17 9 17 17 21 9 17 9 8 0 9
split_gain=2.19929 2.98103 2.66822 2.60081 3.51232 5.05587 3.11227 2.55625 2.10754 1.59268 1.58468 1.54357 1.26766 1.21666 2.08817 0.915028
threshold=1.5000000000000002 72.500000000000014 11.500000000000002 140.50000000000003 355.50000000000006 315.50000000000006 74.500000000000014 466.00000000000006 347.50000000000006 30.952380952380953 91.500000000000014 404.50000000000006 33.500000000000007 264.50000000000006 8.5000000000000018 101.50000000000001
decision_type=2 2 2 2 2 2 2 2 2 2 2 2 2 2 2 2
left_child=2 -2 8 11 5 6 12 15 -1 -8 -10 -3 -5 -9 -15 -6
right_child=1 3 -4 4 7 -7 9 13 10 -11 -12 -13 -14 14 -16 -17
leaf_value=0.035277459330616975 -0.043497028690944718 0.0020940015523057956 0.045316308318058322 0.0063545367216858006 -0.069804262558828128 0.058383102723713554 -0.049297669206794494 -0.039279824429319363 0.008917871675309599 -0.0065664541038953942 -0.033361658155491795 0.05314912870130873 0.049862038561741401 -0.015825698954550133 0.015126420162711153 -0.0271026357316171
leaf_weight=10.938908666372297 14.332283832132815 8.536853529512884 15.995912075042723 11.676473028957846 7.7823149263858777 13.458143293857573 8.8328407853841764 9.6390569582581502 15.066390424966814 28.777696177363396 12.624109037220476 9.9204530343413335 9.3396460935473424 53.990600757300854 24.575459472835064 7.7716101706027985
leaf_count=51 90 52 72 63 64 66 61 62 69 184 61 59 53 355 158 60
internal_value=0 -0.00475594 0.0150842 -0.00189824 -0.00519769 0.00972764 -0.00144146 -0.0155669 0.0025653 -0.016602 -0.0103572 0.0295355 0.0256897 -0.00976497 -0.00614381 -0.0484685
internal_weight=0 208.633 54.6253 194.301 175.844 72.0848 58.6267 103.759 38.6294 37.6105 27.6905 18.4573 21.0161 88.2051 78.5661 15.5539
internal_count=1580 1327 253 1237 1126 427 361 699 181 245 130 111 116 575 513 124
is_linear=0
shrinkage=0.0880239


Tree=26
num_leaves=17
num_cat=0
split_feature=21 7 7 7 7 17 7 19 17 5 2 7 10 9 28 9
split_gain=2.00704 1.71901 6.56062 3.17455 5.33677 2.59581 2.48421 3.01579 3.40726 2.4927 2.8524 2.35959 1.7033 0.803414 0.585843 0.135702
threshold=350.00000000000006 855.50000000000011 925.50000000000011 773.50000000000011 724.50000000000011 352.50000000000006 549.50000000000011 1.0000000180025095e-35 845.50000000000011 1.0000000180025095e-35 2.5000000000000004 817.50000000000011 4.5000000000000009 86.500000000000014 45000.000000000007 67.500000000000014
decision_type=2 2 2 2 2 2 2 2 2 2 2 2 2 2 2 2
left_child=1 3 15 4 6 -4 7 8 -1 14 -11 -5 -9 -7 -8 -3
right_child=-2 2 5 11 -6 13 9 12 -10 10 -12 -13 -14 -15 -16 -17
leaf_value=-0.0011312704293012386 0.038131644568126441 0.044532016537038768 0.019280152811820803 -0.067531191686151057 0.052315700502516771 -0.045947753145846537 -0.066906752538586037 0.050727713780303871 -0.046032303237538513 0.021915277919467471 -0.042947386711573755 -0.0070321333179099461 0.0085591392459855708 -0.01208283542482 -0.034245323567742854 0.059139157681195362
leaf_weight=75.205348320305347 9.969342038035391 9.3881584480404872 13.427629388868807 10.652245230972769 12.894400425255297 11.475084729492666 8.8431420400738734 10.697859726846216 15.855459637939928 12.171718738973142 9.2417846247553808 9.4058964699506742 24.238211117684841 10.30137252807617 8.2034907490015012 10.384367302060125
leaf_count=479 45 51 74 64 73 76 51 62 99 77 55 56 144 66 57 51
internal_value=0 -0.00213615 0.0116297 -0.00596982 -0.00221586 -0.0111589 -0.00649149 -0.000514292 -0.00894948 -0.0260729 -0.00607833 -0.0391616 0.0214718 -0.0299282 -0.0511892 0.0522038
internal_weight=0 252.386 54.9766 197.41 177.351 35.2041 164.457 125.997 91.0608 38.4601 21.4135 20.0581 34.9361 21.7765 17.0466 19.7725
internal_count=1580 1535 318 1217 1097 216 1024 784 578 240 132 120 206 142 108 102
is_linear=0
shrinkage=0.0880239


Tree=27
num_leaves=20
num_cat=0
split_feature=3 4 0 0 0 22 16 9 7 8 7 4 4 9 3 3 7 6 3
split_gain=1.80974 2.15996 4.68362 4.3937 2.41464 2.95641 3.74832 3.62417 2.90017 4.89327 2.64855 3.49551 3.23186 2.26019 1.77781 1.58747 1.27086 1.25651 1.15431
threshold=7664.5000000000009 0.30952380952380959 6.5000000000000009 2.5000000000000004 9.5000000000000018 22.500000000000004 1.5000000000000002 159.50000000000003 855.50000000000011 568.00000000000011 784.50000000000011 0.46428571428571436 0.63333333333333341 76.500000000000014 2577.5000000000005 4399.5000000000009 549.50000000000011 3.5000000000000004 1825.5000000000002
decision_type=2 2 2 2 2 2 2 2 2 2 2 2 2 2 2 2 2 2 2
left_child=1 2 3 -1 5 7 14 10 9 13 11 -3 -12 -6 -7 -4 -8 -2 -11
right_child=17 4 15 -5 8 6 16 -9 -10 18 12 -13 -14 -15 -16 -17 -18 -19 -20
leaf_value=-0.041666630323016013 -0.046623860652532066 0.036466601024207373 -0.06996126610536342 0.042164429079846355 0.0064028198392093449 -0.029851825707217498 0.024593716435626883 0.039758889336793002 0.052672897517583035 0.063421777447315184 -0.080693009717411487 -0.014485587573754462 -0.014037691428364155 -0.053710852194664399 0.018120931654560773 -0.015428468060964805 0.070488137386679472 -0.0032774517613170157 0.018800429619742102
leaf_weight=7.7079861462116268 10.645519450306894 12.696725152432917 11.514451228082182 13.038217380642889 9.9794687181711215 11.100960709154608 8.9715808331966418 10.857031166553496 15.978706479072569 8.9247365295887011 9.0595448240637797 58.497989468276501 14.916141442954538 9.4210856333374959 12.988657303154467 6.4551526308059684 9.7628147900104505 10.095853373408316 9.0449915528297407
leaf_count=53 71 75 86 86 54 65 53 61 79 50 64 342 83 59 78 46 51 72 52
internal_value=0 0.00157184 -0.0174756 0.0110178 0.00521892 -0.000539713 0.0189799 -0.00842365 0.0212864 0.00786615 -0.0139204 -0.0053988 -0.0392246 -0.0227886 -0.00398561 -0.050372 0.0485104 -0.0255253 0.0409621
internal_weight=0 240.916 38.7158 20.7462 202.2 148.851 42.824 106.027 53.349 37.3703 95.1704 71.1947 23.9757 19.4006 24.0896 17.9696 18.7344 20.7414 17.9697
internal_count=1580 1437 271 139 1166 872 247 625 294 215 564 417 147 113 143 132 104 143 102
is_linear=0
shrinkage=0.0880239


Tree=28
num_leaves=17
num_cat=0
split_feature=8 21 16 13 25 8 22 8 9 9 9 8 1 9 16 8
split_gain=2.42747 2.18025 2.7178 3.09526 3.55529 2.48878 3.47716 5.25475 3.46869 5.14567 3.23696 2.35986 4.49212 3.56877 1.61597 1.54998
threshold=52.500000000000007 158.3333333333334 11.500000000000002 9010746313938.502 1.0000000180025095e-35 325.50000000000006 16.500000000000004 413.50000000000006 76.500000000000014 136.50000000000003 67.500000000000014 953.00000000000011 29.500000000000004 67.500000000000014 1.5000000000000002 159.50000000000003
decision_type=2 2 2 2 2 2 2 2 2 2 2 2 2 2 2 2
left_child=-1 5 3 -3 -5 8 -7 10 15 14 -8 13 -13 -9 -10 -2
right_child=1 2 -4 4 -6 6 7 11 9 -11 -12 12 -14 -15 -16 -17
leaf_value=-0.037814859168477037 0.069612160656350758 -0.032360343075007986 0.049572267707233358 -0.010277858349221623 0.057575855458581383 -0.055695763802611986 -0.0050281766362316434 -0.025526631092089878 -0.010783124551354909 0.04060716406495888 -0.081987867410762763 0.069569634299440658 -0.0098253022152245614 0.0091154802769211445 -0.065879404234685121 0.021299352235241455
leaf_weight=12.644666433334349 8.9175243005156535 11.66245500743389 14.9264770001173 12.221666350960732 11.72110341489315 11.001897174865006 7.317328833043578 36.402779035270214 8.7427609786391312 11.137847825884817 10.051955707371233 10.5950098708272 11.530902169644831 62.776250153779984 7.8091357350349417 12.164133563637732
leaf_count=78 52 52 67 59 53 80 47 228 58 67 73 57 70 415 51 76
internal_value=0 0.00172006 0.0180436 0.00482591 0.0229395 -0.00243645 -0.00806348 -0.00428447 0.0148324 -0.00565043 -0.0495666 0.0021993 0.0281928 -0.00359954 -0.0367777 0.0417359
internal_weight=0 248.979 50.5317 35.6052 23.9428 198.448 149.676 138.674 48.7714 27.6897 17.3693 121.305 22.1259 99.179 16.5519 21.0817
internal_count=1583 1505 231 164 112 1274 970 890 304 176 120 770 127 643 109 128
is_linear=0
shrinkage=0.0880239


Tree=29
num_leaves=15
num_cat=0
split_feature=8 4 3 8 13 15 13 3 3 8 13 13 8 12
split_gain=2.05434 1.82911 3.25556 2.97308 2.20807 2.80569 4.58632 4.48674 5.33479 4.03666 3.07611 2.89153 3.93065 2.14122
threshold=52.500000000000007 1.5833333333333337 3657.5000000000005 428.50000000000006 11203431889.000002 1.0000000180025095e-35 9409646715847.002 7670.0000000000009 6565.5000000000009 552.50000000000011 8806536410870.002 9402561474995.002 758.00000000000011 1.0000000180025095e-35
decision_type=2 2 2 2 2 2 2 2 2 2 2 2 2 2
left_child=-1 4 3 -3 -2 6 11 8 10 -8 -7 12 -6 -11
right_child=1 2 -4 -5 5 7 9 -9 -10 13 -12 -13 -14 -15
leaf_value=-0.035134663994162763 -0.046420116284725664 0.0010912573594252528 -0.012322511772705019 0.056253989884692615 -0.025031272187989406 -0.023562838379199771 -0.079450732845512767 -0.053063538984611185 0.065922166232826415 0.013647576883810601 0.015546697658489853 0.052419046296667611 0.029264153529571107 -0.048837288578637041
leaf_weight=12.421855844557284 8.4017659015953523 12.727307543158533 18.911718592047691 18.684317857027054 28.875836424529552 20.47842388600111 12.082035377621652 8.3094193562865239 13.400537364184855 9.8977914899587649 65.177337795495987 7.810140259563922 16.085978485643864 7.4457487910985938
leaf_count=78 58 59 89 83 199 128 88 64 73 61 394 48 104 57
internal_value=0 0.00154657 0.0165314 0.0339034 -0.0022626 -0.000305432 -0.0125445 0.00906455 0.0142763 -0.0403892 0.0061964 0.00298158 -0.00560589 -0.0131775
internal_weight=0 248.288 50.3233 31.4116 197.965 189.563 82.1975 107.366 99.0563 29.4256 85.6558 52.772 44.9618 17.3435
internal_count=1583 1505 231 142 1274 1216 557 659 595 206 522 351 303 118
is_linear=0
shrinkage=0.0880239


Tree=30
num_leaves=17
num_cat=0
split_feature=8 8 9 8 9 7 2 13 13 7 7 3 8 8 17 8
split_gain=1.73657 1.89323 4.53064 4.48855 4.33582 4.14038 8.09945 4.10637 5.80612 4.54533 3.96213 3.604 2.7867 2.529 2.34221 1.56019
threshold=52.500000000000007 329.50000000000006 76.500000000000014 376.50000000000006 134.50000000000003 204.50000000000003 2.5000000000000004 9005251518410.002 9112206897937.002 400.50000000000006 991.50000000000011 1835.5000000000002 246.50000000000003 167.50000000000003 857.50000000000011 148.50000000000003
decision_type=2 2 2 2 2 2 2 2 2 2 2 2 2 2 2 2
left_child=-1 2 12 -3 13 6 11 9 -9 -7 -10 -5 15 -4 -11 -2
right_child=1 3 4 5 -6 7 -8 8 10 14 -12 -13 -14 -15 -16 -17
leaf_value=-0.032612658606118776 0.048364307563253217 -0.06031420780818527 -0.066884739281244984 0.036931085355954955 0.02733606226720868 0.024412874149529744 0.083916079358964529 0.063192755523774 -0.01042842771208562 -0.053657509894934986 0.053090138011357015 -0.03857164810654172 0.084164147054536315 -0.0046773832398128122 -0.00081853292156443649 -0.0034656688135789311
leaf_weight=12.214324317872522 9.126679822802549 10.064100317656992 9.1787564828991908 8.5539398193359393 17.250989280641079 10.261886309832333 12.539263024926184 11.39983184635639 73.494760051369667 28.846708092838526 8.4877612479031068 11.462550565600393 8.4178072512149793 11.29516803473234 8.3910700827836973 8.8765854686498624
leaf_count=78 51 69 61 53 99 68 67 65 447 182 52 71 49 71 47 53
internal_value=0 0.00138637 0.0144037 -0.003164 -0.00517368 0.000152229 0.0284442 -0.00638559 0.00433239 -0.0274568 -0.0038522 -0.00630568 0.0423571 -0.0325661 -0.0417511 0.022809
internal_weight=0 247.648 64.146 183.502 37.7249 173.438 32.5558 140.882 93.3824 47.4997 81.9825 20.0165 26.4211 20.4739 37.2378 18.0033
internal_count=1583 1505 384 1121 231 1052 191 861 564 297 499 124 153 132 229 104
is_linear=0
shrinkage=0.0880239


Tree=31
num_leaves=17
num_cat=0
split_feature=4 3 3 8 1 3 15 13 12 13 8 14 3 3 4 14
split_gain=1.73055 2.4063 3.61808 1.99258 3.39878 1.90706 2.24221 3.36625 4.34443 3.16073 3.01317 2.64962 3.50567 2.46141 4.33885 3.63165
threshold=1.5833333333333337 3657.5000000000005 1.0000000180025095e-35 954.50000000000011 29.500000000000004 7670.0000000000009 1.0000000180025095e-35 9409646715847.002 1.0000000180025095e-35 8607611950406.001 537.50000000000011 2.5000000000000004 5490.5000000000009 4379.5000000000009 0.46428571428571436 1.0000000180025095e-35
decision_type=2 2 2 2 2 2 2 2 2 2 2 2 2 2 2 2
left_child=3 2 -2 5 -5 6 7 11 -9 10 -8 12 -1 15 -15 -11
right_child=1 -3 -4 4 -6 -7 9 8 -10 13 -12 -13 -14 14 -16 -17
leaf_value=-0.026817290941326809 -0.0029518082022282994 -0.01068337915077377 0.055199429050011878 0.054798817884607762 -0.012629380348103052 -0.040380226534718976 0.0042162471402837328 -0.0092910455702894888 -0.082471783714534966 0.045510027952898463 -0.068321685862696754 0.036224975269961462 0.037422562664699094 -0.014008035058776427 0.059574468083355057 -0.011728453642697324
leaf_weight=30.993564296513796 15.407256141304968 19.348792672157288 17.946191713213921 11.374309562146665 11.802063159644602 12.31869339942932 9.7036310732364672 14.089527726173401 11.348279494792223 10.956128023564814 8.1750098280608636 10.700361378490923 8.3567452356219274 9.6191367730498332 17.514000788331032 39.747904188930988
leaf_count=220 69 92 82 61 72 99 62 93 93 67 54 71 49 59 94 246
internal_value=0 0.0140111 0.0283369 -0.00385761 0.0204622 -0.0069289 -0.00452194 -0.0158651 -0.0419386 0.00442405 -0.0289514 -0.00261337 -0.0131747 0.0120902 0.0334881 0.000639528
internal_weight=0 52.7022 33.3534 206.699 23.1764 183.523 171.204 75.4885 25.4378 95.7158 17.8786 50.0507 39.3503 77.8372 27.1331 50.704
internal_count=1583 243 151 1340 133 1207 1108 526 186 582 116 340 269 466 153 313
is_linear=0
shrinkage=0.0880239


Tree=32
num_leaves=13
num_cat=0
split_feature=4 3 3 17 3 7 7 10 10 0 7 17
split_gain=1.58547 1.40026 1.6994 4.23661 1.47037 1.88189 2.62179 2.76064 1.67043 1.38467 1.32442 1.08197
threshold=2.4166666666666674 6948.5000000000009 7303.5000000000009 508.50000000000006 6565.5000000000009 967.50000000000011 855.50000000000011 3.5000000000000004 6.5000000000000009 7.5000000000000009 918.50000000000011 391.50000000000006
decision_type=2 2 2 2 2 2 2 2 2 2 2 2
left_child=1 4 -3 -4 5 6 7 -1 -9 -2 -8 -7
right_child=9 2 3 -5 -6 11 10 8 -10 -11 -12 -13
leaf_value=-0.048107114845169538 0.0016371071992569433 -0.057290878778413379 -0.045903711994079076 0.032164601693715059 0.028940912874397935 -0.0032185265493734571 0.041291948823935151 0.0034080306573459236 -0.026350640349801398 0.043208389113761507 -0.00042644729220605269 -0.045278943122502281
leaf_weight=10.016443576663731 13.439777299761774 7.3171240016818073 11.151922196149828 10.417231678962706 12.811006583273409 8.1171768829226512 16.993877522647384 119.62961266934872 16.649105504155159 11.538092344999312 9.0284573435783368 11.387013450264929
leaf_count=74 59 45 86 72 69 46 86 749 108 54 57 78
internal_value=0 -0.00249245 -0.0206345 -0.00819888 6.84784e-05 -0.00185977 0.00107345 -0.00350576 -0.000227531 0.0208405 0.0268175 -0.0277747
internal_weight=0 233.519 28.8863 21.5692 204.633 191.822 172.317 146.295 136.279 24.9779 26.0223 19.5042
internal_count=1583 1470 203 158 1267 1198 1074 931 857 113 143 124
is_linear=0
shrinkage=0.0880239


Tree=33
num_leaves=18
num_cat=0
split_feature=28 8 13 17 17 17 8 17 13 22 13 17 17 2 1 22 9
split_gain=1.52913 2.59201 2.54372 3.20666 2.39512 3.56951 2.91591 2.11418 2.05467 2.05318 1.94565 1.72954 3.57176 1.67577 1.79224 1.59261 0.791762
threshold=15000.000000000002 72.500000000000014 8906616588665.002 561.00000000000011 355.50000000000006 161.00000000000003 140.50000000000003 466.00000000000006 8502176171419.001 19.500000000000004 9206646760820.502 230.50000000000003 307.00000000000006 3.5000000000000004 30.500000000000004 19.500000000000004 101.50000000000001
decision_type=2 2 2 2 2 2 2 2 2 2 2 2 2 2 2 2 2
left_child=2 -2 -1 -4 5 13 -6 16 15 -7 -10 -11 -13 14 -3 -9 -8
right_child=1 4 3 -5 6 9 7 8 10 11 -12 12 -14 -15 -16 -17 -18
leaf_value=-0.01738786892514043 -0.041673796207691433 -0.0052180196603625398 0.053644842801148403 0.002187729692569858 0.0320471106650023 0.05254348417043285 -0.06590229033780709 -0.008697942460039956 0.01889926698664509 0.040706330876505874 -0.01243380775957352 -0.032355555303883843 0.037714966233766647 0.022095036062324106 -0.056914624401299928 -0.064507735087910217 -0.025056584900864359
leaf_weight=15.168889872729777 13.029899522662161 12.770991142839199 17.010597616434097 20.928186319768429 11.837983116507528 14.809769712388514 7.1734463907778245 7.6740365326404563 22.523195900022984 11.811746552586554 48.250177338719368 12.517427235841753 10.253740742802618 7.4860766232013694 8.7606100961565954 8.19039588421583 7.5454868078231812
leaf_count=72 88 95 80 99 73 75 64 51 148 65 318 72 51 47 64 61 60
internal_value=0 -0.00368445 0.0130784 0.0252597 -0.001101 0.0107236 -0.00929197 -0.0141202 -0.00888018 0.0251188 -0.00246217 0.0133744 -0.000802911 -0.0137792 -0.0262522 -0.0375114 -0.0449636
internal_weight=0 204.635 53.1077 37.9388 191.605 78.4104 113.195 101.357 86.6378 49.3927 70.7734 34.5829 22.7712 29.0177 21.5316 15.8644 14.7189
internal_count=1583 1332 251 179 1244 469 775 702 578 263 466 188 123 206 159 112 124
is_linear=0
shrinkage=0.0880239


Tree=34
num_leaves=14
num_cat=0
split_feature=13 17 17 8 8 3 8 4 3 3 3 3 7
split_gain=1.35076 1.37125 4.72799 2.67956 3.39556 3.93871 3.45426 3.91241 1.98547 7.22653 4.23583 3.07735 2.83703
threshold=9903076605871.002 355.50000000000006 404.50000000000006 181.50000000000003 327.50000000000006 -708.99999999999989 508.00000000000006 1.4166666666666667 7303.5000000000009 6928.5000000000009 5111.5000000000009 2933.5000000000005 700.50000000000011
decision_type=2 2 2 2 2 2 2 2 2 2 2 2 2
left_child=1 3 -3 -1 -5 -6 -7 -8 9 10 11 -4 -12
right_child=-2 2 8 4 5 6 7 -9 -10 -11 12 -13 -14
leaf_value=-0.025830923931407249 0.030538932522040867 -0.067135201384442664 5.826815805023065e-05 0.054785078821226851 0.044935426391733403 -0.051234648410669506 -0.0083566512433902521 0.056000721729507527 0.027426219343529307 -0.085724025610415727 0.0072592171897587687 -0.037700423777318193 0.072561580820393753
leaf_weight=16.618004620075226 10.596523638814686 9.4655574411153776 71.017198525369167 12.697032302618025 15.21797866374254 10.441284101456402 35.185118645429611 9.2412356287240964 14.984860174357889 8.318737640976904 12.209678865969183 21.875669844448566 8.9213695824146253
leaf_count=95 66 76 445 72 76 69 215 46 100 51 76 148 48
internal_value=0 -0.00155769 -0.00696355 0.00642552 0.0129008 0.00531281 -0.00567674 0.00503036 -0.00281607 -0.00652027 -0.000741825 -0.0088336 0.0348296
internal_weight=0 246.194 146.793 99.4007 82.7826 70.0856 54.8676 44.4264 137.328 122.343 114.024 92.8929 21.131
internal_count=1583 1517 944 573 478 406 330 261 868 768 717 593 124
is_linear=0
shrinkage=0.0880239


Tree=35
num_leaves=20
num_cat=0
split_feature=28 3 3 8 15 9 8 3 3 8 3 8 7 9 12 7 8 3 7
split_gain=2.13028 2.79826 5.29319 2.31081 1.93458 4.42477 3.12056 3.07222 5.81681 3.84858 3.04113 3.90687 2.19595 2.07289 2.05668 1.62144 2.6831 1.51085 1.43383
threshold=15000.000000000002 1.0000000180025095e-35 4020.5000000000005 1020.0000000000001 1.0000000180025095e-35 112.50000000000001 285.50000000000006 748.50000000000011 -1432.4999999999998 797.50000000000011 -342.49999999999994 444.50000000000006 635.50000000000011 144.50000000000003 1.0000000180025095e-35 773.50000000000011 398.50000000000006 6565.5000000000009 422.50000000000006
decision_type=2 2 2 2 2 2 2 2 2 2 2 2 2 2 2 2 2 2 2
left_child=1 -1 -3 4 5 10 -7 8 -6 15 -2 18 -10 -8 -13 16 -9 -4 -12
right_child=3 2 17 -5 7 6 13 9 12 -11 11 14 -14 -15 -16 -17 -18 -19 -20
leaf_value=-0.019817779218980758 0.0051970146772545986 0.070156048438093324 -0.017544709038699823 0.035335801970465978 -0.019979434866196365 0.052270745545132953 0.0224740308263921 0.028585591889895828 0.077669479365838665 -0.055100824223262429 -0.10664189364438274 0.0063932765379446288 0.022091588188979668 -0.031022754030397406 -0.047112326538617376 -0.025777647419294624 -0.014679401906514332 0.025334111011112683 -0.054757970270322039
leaf_weight=13.010866120457647 12.630183484405277 14.261192701756952 13.166821330785753 10.825887918472288 15.281257953494785 9.2645537257194501 9.7708157673478144 23.448009081184864 11.344250407069923 11.901057109236715 7.0354351177811649 11.205136679112911 10.708109147846697 13.185133732855318 11.06080499663949 14.520578932017086 21.100321374833584 12.328814119100569 9.9849016033112985
leaf_count=60 82 67 63 62 91 59 72 144 65 78 54 79 65 87 85 95 140 61 75
internal_value=0 0.0156154 0.0272114 -0.00423417 -0.00646024 -0.0164735 0.00914994 0.00131861 0.0217592 -0.00943406 -0.032376 -0.0444556 0.0506824 -0.0082525 -0.0201859 -0.000233139 0.008093 0.0031898 -0.0762048
internal_weight=0 52.7677 39.7568 203.266 192.441 84.137 32.2205 108.304 37.3336 70.97 51.9165 39.2863 22.0524 22.9559 22.2659 59.0689 44.5483 25.4956 17.0203
internal_count=1584 251 191 1333 1271 593 218 678 221 457 375 293 130 159 164 379 284 124 129
is_linear=0
shrinkage=0.0880239


Tree=36
num_leaves=19
num_cat=0
split_feature=6 16 14 7 8 9 9 0 17 18 14 10 14 17 7 7 7 0
split_gain=1.78143 2.14321 2.01064 2.42807 1.90413 1.4095 4.14877 3.28191 3.0785 2.16884 3.49155 2.36445 1.76472 1.74438 3.13192 3.73541 1.25245 1.11978
threshold=1.5000000000000002 11.500000000000002 2.5000000000000004 589.50000000000011 1020.0000000000001 111.50000000000001 100.50000000000001 10.500000000000002 523.00000000000011 1.0000000180025095e-35 1.5000000000000002 4.5000000000000009 2.5000000000000004 258.50000000000006 529.50000000000011 755.50000000000011 400.50000000000006 4.5000000000000009
decision_type=2 2 2 2 2 2 2 2 2 2 2 2 2 2 2 2 2 2
left_child=1 2 3 -1 5 6 7 9 -9 11 -11 -2 13 16 17 -16 -7 -15
right_child=4 -3 -4 -5 -6 12 -8 8 -10 10 -12 -13 -14 14 15 -17 -18 -19
leaf_value=0.045276844155404797 -0.027503693631862173 0.041398011800436868 -0.025518973110198274 -0.01055854712708832 0.031704906045435993 -0.003133875043827256 -0.064879376063215227 0.058668256195974128 -0.01090841969227507 -0.047101194098108264 -0.0041977258142132691 0.024902076690635665 0.030506665522241197 0.0056532517197216362 0.074426783229064652 0.0012706460017476886 -0.05347398857696066 -0.037757464853902419
leaf_weight=12.17958475649357 10.503822203725578 15.783086001873015 12.82241205126047 11.960308715701101 10.99529357254505 7.5105409324169141 10.44316492974758 10.381778847426178 9.3782955631613714 26.912857100367546 32.380765955895185 18.27950581908226 15.045851193368433 7.6264346465468433 8.394300155341627 15.202103748917578 7.8136234953999519 11.616611585021017
leaf_count=64 71 72 60 55 62 53 83 60 60 193 224 103 99 47 53 88 57 80
internal_value=0 0.0142446 0.00264983 0.0176125 -0.00391732 -0.00596277 -0.0119042 -0.00677389 0.0256463 -0.0140474 -0.0236713 0.00577759 0.00363633 -0.00331443 0.00580267 0.0272958 -0.0288021 -0.0205526
internal_weight=0 52.7454 36.9623 24.1399 202.485 191.49 118.28 107.837 19.7601 88.077 59.2936 28.7833 73.2095 58.1636 42.8395 23.5964 15.3242 19.243
internal_count=1584 251 179 119 1333 1271 794 711 120 591 417 174 477 378 268 141 110 127
is_linear=0
shrinkage=0.0880239


Tree=37
num_leaves=14
num_cat=0
split_feature=4 3 17 4 0 0 9 17 28 13 4 13 9
split_gain=1.66083 1.4057 2.37363 1.99791 5.67758 2.92467 1.88281 1.45093 1.61013 4.04572 3.76741 2.45713 2.17682
threshold=3.5000000000000004 7664.5000000000009 500.50000000000006 0.30952380952380959 6.5000000000000009 3.5000000000000004 123.50000000000001 72.000000000000014 55000.000000000007 9605096652074.502 0.46428571428571436 9807216542648.002 161.50000000000003
decision_type=2 2 2 2 2 2 2 2 2 2 2 2 2
left_child=1 3 -3 4 5 -1 -6 -5 11 10 -10 12 -9
right_child=-2 2 -4 7 6 -7 -8 8 9 -11 -12 -13 -14
leaf_value=-0.021634629505053932 0.036532235740208321 -0.061133529914824507 0.0041972460286005394 0.02910174603803441 -0.080694888645015145 0.045265059436428119 -0.020844070481588668 -0.0029114473855617767 0.079548606603693298 -0.027491350787217032 0.0081162700127662621 0.037262443513236085 -0.048984345897100948
leaf_weight=9.7874478995800036 9.2040010839700681 7.9446009844541576 9.4159011170268041 16.221775151789188 9.9414958842098731 10.489765167236326 6.8991141542792311 121.54284577816725 10.117492519319059 10.125756189227102 13.164759747684 11.077641621232031 8.5015205070376378
leaf_count=72 44 68 64 100 83 69 50 714 60 64 80 64 52
internal_value=0 -0.00155469 -0.0256994 0.00028478 -0.0184 0.0129735 -0.0561761 0.00392062 0.00158012 0.0189568 0.039158 -0.00253346 -0.00592346
internal_weight=0 245.23 17.3605 227.87 37.1178 20.2772 16.8406 190.752 174.53 33.408 23.2823 141.122 130.044
internal_count=1584 1540 132 1408 274 141 133 1134 1034 204 140 830 766
is_linear=0
shrinkage=0.0880239


Tree=38
num_leaves=12
num_cat=0
split_feature=21 3 17 21 0 13 8 3 3 3 3
split_gain=1.40232 1.19408 2.09689 1.68801 4.92955 2.65108 1.31645 1.86191 3.01765 2.78043 1.24498
threshold=350.00000000000006 7664.5000000000009 500.50000000000006 30.952380952380953 6.5000000000000009 9406156527588.502 72.500000000000014 6574.5000000000009 5856.5000000000009 5829.5000000000009 4379.5000000000009
decision_type=2 2 2 2 2 2 2 2 2 2 2
left_child=1 3 -3 4 5 -1 -5 8 9 -8 -6
right_child=-2 2 -4 6 10 -7 7 -9 -10 -11 -12
leaf_value=-0.017496370788353907 0.033773716654482776 -0.058267109073858528 0.0038189663475361258 -0.025246366149934391 -0.07221361181491652 0.046159218146083619 0.0021524134187650644 0.03222989354768243 -0.047226570104198347 0.049774952732791436 -0.021893917103318585
leaf_weight=11.044771015644075 9.0850440710782987 7.6169001720845726 9.4366468191146833 11.550839126110075 10.121829193085434 9.3698432147502881 142.28196456283331 18.041726291179657 8.9617097303271276 10.178806468844412 6.1096249669790259
leaf_count=78 44 68 64 75 84 63 852 99 52 56 49
internal_value=0 -0.00144527 -0.0239112 0.000237578 -0.0170671 0.0117198 0.00355749 0.00541142 0.00241397 0.00533189 -0.0532733
internal_weight=0 244.715 17.0535 227.661 36.6461 20.4146 191.015 179.464 161.422 152.461 16.2315
internal_count=1584 1540 132 1408 274 141 1134 1059 960 908 133
is_linear=0
shrinkage=0.0880239


Tree=39
num_leaves=16
num_cat=0
split_feature=13 28 16 14 8 8 12 13 8 16 8 12 21 21 0
split_gain=1.28469 1.11774 2.38514 3.40701 1.46114 1.47027 2.96747 1.96681 3.30313 3.34005 2.34497 5.37646 2.25394 1.70424 1.45673
threshold=9904266565169.502 15000.000000000002 11.500000000000002 2.5000000000000004 1020.0000000000001 793.00000000000011 1.0000000180025095e-35 9512106254270.002 715.50000000000011 3.5000000000000004 715.50000000000011 1.0000000180025095e-35 58.571428571428577 58.571428571428577 7.5000000000000009
decision_type=2 2 2 2 2 2 2 2 2 2 2 2 2 2 2
left_child=1 2 3 14 5 7 13 10 9 -9 12 -12 -3 -7 -1
right_child=-2 4 -4 -5 -6 6 -8 8 -10 -11 11 -13 -14 -15 -16
leaf_value=0.037286694333321574 0.031940986328955298 0.010055984804134338 0.03896861197154073 -0.042977526364921893 0.027324650301292278 -0.023349397713892266 -0.053581291350340156 -0.024358119206383307 -0.068469423011023295 0.043847712855437003 -0.016743864362958983 0.070135587356326343 -0.017837253980453754 0.028445552413094106 -0.0063020780081574938
leaf_weight=12.294044233858587 9.2907888107001764 47.809191200882196 15.524715960025786 11.02141200006008 10.600385062396525 11.384283110499384 14.165913179516791 20.338798046112064 8.4592224210500699 7.6574631780385962 10.496604427695274 11.638270627707243 42.311305813491344 8.6714176163077337 11.494790419936178
leaf_count=58 55 324 71 52 59 76 99 143 60 48 69 76 284 50 60
internal_value=0 -0.00140879 0.0102764 -0.00251966 -0.00444796 -0.00628911 -0.0227395 -0.00250349 -0.0202672 -0.00570244 0.00326531 0.0289361 -0.00303975 -0.000954706 0.0162243
internal_weight=0 243.868 50.335 34.8102 193.533 182.932 34.2216 148.711 36.4555 27.9963 112.255 22.1349 90.1205 20.0557 23.7888
internal_count=1584 1529 241 170 1288 1229 225 1004 251 191 753 145 608 126 118
is_linear=0
shrinkage=0.0880239


Tree=40
num_leaves=21
num_cat=0
split_feature=4 15 9 14 12 23 9 17 9 0 1 17 18 9 4 4 12 0 14 9
split_gain=1.1682 1.25968 3.40553 4.61587 3.01775 2.61289 2.29691 3.80731 3.29633 2.70989 2.6365 2.14171 2.7541 1.98507 1.66399 1.5418 1.46896 1.32058 0.997011 0.542057
threshold=3.5000000000000004 1.0000000180025095e-35 112.50000000000001 2.5000000000000004 1.0000000180025095e-35 1.0000000180025095e-35 76.500000000000014 859.50000000000011 87.500000000000014 10.500000000000002 27.500000000000004 863.00000000000011 1.0000000180025095e-35 68.500000000000014 0.77500000000000013 0.73214285714285732 1.0000000180025095e-35 8.5000000000000018 1.5000000000000002 160.50000000000003
decision_type=2 2 2 2 2 2 2 2 2 2 2 2 2 2 2 2 2 2 2 2
left_child=1 2 4 16 13 18 7 9 -8 10 -3 12 -10 17 -14 -12 -4 -1 -6 -18
right_child=-2 6 3 -5 5 -7 8 -9 11 -11 15 -13 14 -15 -16 -17 19 -19 -20 -21
leaf_value=-0.038720233891037147 0.031061997887382536 0.047240929006205294 0.017216750927515415 0.070357170622657159 -0.039155470197971456 -0.0064074433897275233 -0.058784586854644841 -0.03345992291775076 -0.042114293027404284 0.070378279994908907 -0.019107433914856201 0.030466075557296562 0.020450034644242984 0.021653787182517242 -0.017138924984780618 0.022719322270593569 -0.034899149696256876 0.0073978602304144271 -0.076919099179159595 -0.0034754674056769142
leaf_weight=12.102667555212976 8.939747139811514 14.746375001966952 14.702003195881845 8.3379198387265188 11.313174393028023 12.260920554399489 8.1781987771391851 9.7244077771902067 13.467870302498339 9.0318298451602441 14.158906355500223 14.398488745093344 21.280278220772743 15.352634958922861 15.97504138574004 13.189239099621771 9.4072807691991347 7.9846398830413809 10.395190294831989 7.7642849609255782
leaf_count=82 44 84 88 54 82 79 58 58 80 47 92 85 141 99 99 69 67 49 77 50
internal_value=0 -0.00133589 -0.00833576 0.0120477 -0.0201448 -0.038892 0.00438399 0.0170254 -0.00611037 0.026628 0.0172408 0.000504554 -0.00800033 -0.00217537 0.00433178 0.00106423 -0.00320547 -0.0203882 -0.0572391 -0.020691
internal_weight=0 243.771 109.621 40.2115 69.4092 33.9693 134.151 60.8508 73.2999 51.1264 42.0945 65.1217 50.7232 35.4399 37.2553 27.3481 31.8736 20.0873 21.7084 17.1716
internal_count=1584 1540 727 259 468 238 813 350 463 292 245 405 320 230 240 161 205 131 159 117
is_linear=0
shrinkage=0.0880239


Tree=41
num_leaves=18
num_cat=0
split_feature=3 9 9 3 15 21 17 17 28 17 3 17 13 3 17 9 3
split_gain=1.27442 1.62238 4.59936 2.73385 2.62936 2.4708 2.67623 3.96152 2.32796 2.32193 2.25602 2.63609 2.07117 2.0423 1.49549 1.00625 0.416448
threshold=7664.5000000000009 157.50000000000003 163.50000000000003 2574.5000000000005 1.0000000180025095e-35 26.785714285714288 361.50000000000006 582.50000000000011 45000.000000000007 932.50000000000011 -1792.9999999999998 118.00000000000001 9606651487294.002 3671.0000000000005 500.50000000000006 72.500000000000014 2215.5000000000005
decision_type=2 2 2 2 2 2 2 2 2 2 2 2 2 2 2 2 2
left_child=1 4 -3 -4 10 -6 8 16 15 -9 -1 -12 13 -13 -2 -7 -8
right_child=14 2 3 -5 5 6 7 9 -10 -11 11 12 -14 -15 -16 -17 -18
leaf_value=0.030529098894921624 -0.049307066485176951 0.066012992972845214 -0.03736148344612384 0.032041996323262809 -0.029740208419632611 0.066534383805176955 -0.052968151945510154 0.023431765319151331 0.0035799678698077392 -0.026270794760803681 0.02369965851828407 -0.030834184876144533 -0.054142411004910407 0.0022966976422875885 0.0008768704327942814 0.030979998843227521 -0.023644630697986165
leaf_weight=8.6074609383940679 8.5950355641543883 10.955273874104025 9.8813247457146662 7.9240922033786765 12.18435502797365 10.762640312314035 7.774328511208294 35.967632129788399 16.43615548312664 9.1315955892205221 10.801757320761679 31.684626720845699 13.405001059174536 26.451072786003351 9.9008496925234777 14.448463611304758 7.255889929831028
leaf_count=49 75 58 64 47 92 48 56 200 95 55 74 216 99 168 66 76 46
internal_value=0 0.00155948 0.0211369 -0.00647396 -0.00118832 0.00771935 0.0122039 0.000324623 0.0293549 0.013368 -0.0123498 -0.0168321 -0.022952 -0.0157599 -0.0224433 0.0461584 -0.0388125
internal_weight=0 233.672 28.7607 17.8054 204.911 113.961 101.777 60.1294 41.6473 45.0992 90.9499 82.3425 71.5407 58.1357 18.4959 25.2111 15.0302
internal_count=1584 1443 169 111 1274 668 576 357 219 255 606 557 483 384 141 124 102
is_linear=0
shrinkage=0.0880239


Tree=42
num_leaves=9
num_cat=0
split_feature=10 7 17 17 9 9 9 9
split_gain=1.14946 1.43101 1.43992 2.33771 1.45965 1.53262 2.53703 2.22806
threshold=8.0000000000000018 1020.5000000000001 944.50000000000011 910.00000000000011 9.5000000000000018 129.50000000000003 163.50000000000003 94.500000000000014
decision_type=2 2 2 2 2 2 2 2
left_child=1 2 3 4 -1 7 -7 -6
right_child=-2 -3 -4 -5 5 6 -8 -9
leaf_value=0.028496621302001739 0.028499659442152939 -0.034379923560667262 0.027110895240340473 -0.042278829891372632 -4.4432527817421516e-06 0.023487449177184958 -0.02064039210198676 -0.025254968151950757
leaf_weight=13.182059451937674 10.290277376770971 9.8610979430377466 14.10653033852577 10.573955826461313 105.90991600230336 36.754436731338501 13.917306736111639 36.375946965068579
leaf_count=72 67 69 84 66 661 217 96 247
internal_value=0 -0.00154201 -0.000139088 -0.0019129 0.000157652 -0.00177832 0.0113674 -0.00645988
internal_weight=0 240.681 230.82 216.714 206.14 192.958 50.6717 142.286
internal_count=1579 1512 1443 1359 1293 1221 313 908
is_linear=0
shrinkage=0.0880239


Tree=43
num_leaves=21
num_cat=0
split_feature=13 13 13 13 17 17 17 28 17 17 15 4 4 17 16 17 17 13 16 13
split_gain=0.983659 3.3775 1.19494 1.66916 2.02641 1.55143 2.78098 1.14541 2.60388 2.43461 2.43806 3.15551 2.92674 2.05921 2.18253 1.34326 1.18674 1.12258 0.563833 0.175002
threshold=9006251404950.502 9106691331456.502 8905106476805.002 8805651468883.002 185.50000000000003 523.00000000000011 690.50000000000011 25000.000000000004 133.50000000000003 884.50000000000011 1.0000000180025095e-35 0.46428571428571436 0.2678571428571429 245.00000000000003 7.5000000000000009 523.00000000000011 766.00000000000011 506183190303.00006 1.0000000180025095e-35 310128530340.00006
decision_type=2 2 2 2 2 2 2 2 2 2 2 2 2 2 2 2 2 2 2 2
left_child=2 -2 3 4 -1 19 -7 13 -9 10 11 -10 -12 -3 15 -15 -17 -8 -4 -6
right_child=1 7 18 -5 5 6 17 8 9 -11 12 -13 -14 14 -16 16 -18 -19 -20 -21
leaf_value=0.021425420029654148 0.047499610655385223 0.045682565194906211 -0.012442468335062006 0.035426438416579151 -0.029648410222855144 0.038014550633143844 -0.0037825319164917232 -0.047305935048217819 0.014673531943800118 -0.037953128384412754 -0.025779326909492483 -0.039726210313714476 0.029710279043546395 0.043297551275936506 -0.026613144559469164 -0.018368936668988076 0.024975267473629124 -0.043908792800371826 -0.044754916039727623 -0.048217926933615943
leaf_weight=14.077536195516585 12.576883964240549 10.370908036828039 8.1328697875142115 7.8232177048921576 7.6862799078226081 8.3867389038205165 12.166321769356729 10.347065698355435 16.126432105898857 11.794338092207907 9.2752247601747495 16.940844833850861 35.755283262580633 9.312372490763666 13.957429341971872 10.072956994175913 9.5199591666460019 9.7167742922902089 8.6192827373743039 8.0566068515181524
leaf_count=87 72 60 50 48 52 51 81 82 118 78 67 121 207 50 72 57 51 63 59 53
internal_value=0 0.00364568 -0.00801276 -0.00281897 -0.00779828 -0.0167394 -0.00508272 5.1874e-05 -0.00548976 -0.000676427 0.00495303 -0.0131961 0.0182806 0.0104869 0.00197095 0.0157735 0.0026912 -0.0216001 -0.0290681 -0.0391519
internal_weight=0 166.05 84.6656 67.9135 60.0903 46.0127 30.2698 153.473 100.239 89.8921 78.0978 33.0673 45.0305 53.2336 42.8627 28.9053 19.5929 21.8831 16.7522 15.7429
internal_count=1579 1035 544 435 387 300 195 963 673 591 513 239 274 290 230 158 108 144 109 105
is_linear=0
shrinkage=0.0880239


Tree=44
num_leaves=11
num_cat=0
split_feature=22 7 17 17 0 7 18 7 9 22
split_gain=0.959857 1.12864 1.28449 1.84309 1.96191 2.41636 2.16559 1.79882 2.96989 1.8729
threshold=30.000000000000004 1020.5000000000001 944.50000000000011 910.00000000000011 9.5000000000000018 891.50000000000011 1.0000000180025095e-35 501.50000000000006 28.500000000000004 19.500000000000004
decision_type=2 2 2 2 2 2 2 2 2 2
left_child=1 2 3 4 7 6 -6 8 -1 -9
right_child=-2 -3 -4 -5 5 -7 -8 9 -10 -11
leaf_value=0.040884214051733626 0.025930367620322161 -0.031011473801137533 0.025502980993881104 -0.038213811237483429 0.036896219176185643 0.048251183668519854 -0.0082786237675630918 -0.032846747570033009 -0.0039029142401458632 -0.0042076525058092271
leaf_weight=14.096673548221586 10.370675794780253 9.5886569544672948 14.15035520493984 10.297481343150137 11.330745719373224 12.526439428329466 29.968821603804827 27.961067404597998 61.610651303082705 48.180347699671984
leaf_count=82 67 69 84 66 67 61 196 191 407 289
internal_value=0 -0.00142214 -0.0001892 -0.00187256 -5.30417e-05 0.0143867 0.00411519 -0.00517154 0.00443636 -0.0147247
internal_weight=0 239.711 230.123 215.972 205.675 53.826 41.2996 151.849 75.7073 76.1414
internal_count=1579 1512 1443 1359 1293 324 263 969 489 480
is_linear=0
shrinkage=0.0880239


Tree=45
num_leaves=16
num_cat=0
split_feature=9 9 9 9 15 4 11 9 9 9 14 17 17 17 4
split_gain=0.869431 3.92081 2.24329 1.38702 2.09268 2.51528 2.22711 1.79006 3.99917 2.51214 1.77725 1.56829 3.28916 2.22451 1.21534
threshold=157.50000000000003 162.50000000000003 148.50000000000003 136.50000000000003 1.0000000180025095e-35 0.30952380952380959 1.0000000180025095e-35 94.500000000000014 112.50000000000001 82.500000000000014 1.5000000000000002 361.50000000000006 582.50000000000011 299.00000000000006 0.69047619047619058
decision_type=2 2 2 2 2 2 2 2 2 2 2 2 2 2 2
left_child=2 -2 3 4 6 10 7 9 -9 -1 -6 13 -13 -7 -3
right_child=1 14 -4 -5 5 11 -8 8 -10 -11 -12 12 -14 -15 -16
leaf_value=-0.016811227126430232 0.063681236309802908 0.011099288020082478 -0.040226244171981548 0.027276680657684904 -0.053953673340038102 0.013140984173839609 0.027835246357875095 -0.076640158862210359 -0.0053747660451382946 0.034978173437224765 0.003236501685555932 -0.034211552276962501 0.014783238879231948 0.063314987388822727 -0.031587861947157382
leaf_weight=42.412769757211208 8.6737696975469607 12.525442607700827 11.392111726105211 13.405050154775379 8.3831702396273631 26.025434583425522 9.5101640224456769 10.909319683909418 13.843581810593603 8.7551181241869909 8.4577420875430089 14.068742223083971 43.266479425132275 9.2910735756158811 8.7973316386342031
leaf_count=279 47 85 74 82 69 145 65 87 91 59 60 98 244 41 53
internal_value=0 0.0137846 -0.0021915 -0.000111607 -0.00199515 0.0060611 -0.0123205 -0.0173507 -0.0367837 -0.00794966 -0.0252316 0.0117491 0.00276095 0.0263409 -0.00651228
internal_weight=0 29.9965 219.721 208.329 194.924 109.493 85.431 75.9208 24.7529 51.1679 16.8409 92.6517 57.3352 35.3165 21.3228
internal_count=1579 185 1394 1320 1238 657 581 516 178 338 129 528 342 186 138
is_linear=0
shrinkage=0.0880239


Tree=46
num_leaves=14
num_cat=0
split_feature=8 8 8 10 20 8 3 8 3 8 8 0 3
split_gain=1.13485 1.21791 2.37403 3.80334 2.21489 4.65078 2.08704 1.94961 1.85523 1.38295 2.16738 1.31705 1.30566
threshold=72.500000000000014 329.50000000000006 376.50000000000006 3.5000000000000004 1.0000000180025095e-35 642.50000000000011 1481.5000000000002 261.00000000000006 3671.0000000000005 120.50000000000001 186.50000000000003 11.500000000000002 6570.5000000000009
decision_type=2 2 2 2 2 2 2 2 2 2 2 2 2
left_child=-1 7 -3 -4 5 6 -5 8 9 -2 -11 -7 -10
right_child=1 2 3 4 -6 11 -8 -9 12 10 -12 -13 -14
leaf_value=-0.024228040318923023 0.016509071886197806 -0.046416305184381133 -0.049581113415994221 -0.00089668083818946853 0.035466019167810524 0.0065916329976843969 -0.043714490084696196 0.03859057797672194 0.047884284088608009 -0.054733906690037103 0.0069580689348171512 0.042068562279217694 0.00043781294136072195
leaf_weight=14.429786346852778 8.6900876164436358 9.0507962666451913 11.227647013962267 14.588816426694391 15.13070000335574 93.334660373628139 22.307796705514193 15.769092641770838 9.0724385678768176 9.5879795178771037 8.174000255763529 8.879392344504593 8.9051807597279531
leaf_count=99 51 67 84 94 96 564 156 97 55 60 51 52 53
internal_value=0 0.00120479 -0.00251915 -0.000118042 0.00348247 3.66638e-06 -0.0267846 0.0120008 0.00256338 -0.012265 -0.0263432 0.00967359 0.0243821
internal_weight=0 234.719 174.52 165.469 154.241 139.111 36.8966 60.1988 44.4297 26.4521 17.762 102.214 17.9776
internal_count=1579 1480 1113 1046 962 866 250 367 270 162 111 616 108
is_linear=0
shrinkage=0.0880239


Tree=47
num_leaves=8
num_cat=0
split_feature=13 13 13 22 9 9 9
split_gain=2.18325 2.50975 1.39112 1.17988 1.61833 2.52225 1.63711
threshold=9904651448899.002 9812071223938.502 9756566509051.502 30.000000000000004 163.50000000000003 157.50000000000003 148.50000000000003
decision_type=2 2 2 2 2 2 2
left_child=1 2 3 4 5 6 -1
right_child=-2 -3 -4 -5 -6 -7 -8
leaf_value=-0.0010457797071364448 0.044394732914629989 -0.049154973427863416 0.03141413728707499 0.029766259863419874 -0.03192436225131854 0.043161435736081735 -0.036119462474191351
leaf_weight=178.65350231155753 8.2032526433467847 8.3644069507718068 10.382599260658024 8.9456719942390901 13.882188096642492 9.6067777946591359 10.942970830947159
leaf_count=1136 46 56 62 57 98 52 72
internal_value=0 -0.00178312 -7.82179e-05 -0.00155089 -0.00286566 -0.000840569 -0.00307016
internal_weight=0 240.778 232.414 222.031 213.085 199.203 189.596
internal_count=1579 1533 1477 1415 1358 1260 1208
is_linear=0
shrinkage=0.0880239


Tree=48
num_leaves=13
num_cat=0
split_feature=8 13 13 7 7 13 13 8 8 8 7 1
split_gain=0.992725 1.4084 1.07735 1.38716 4.12297 3.78115 5.48968 3.11681 5.03847 3.23082 2.21421 1.53828
threshold=52.500000000000007 11203431889.000002 256163675532.50003 259.50000000000006 308.50000000000006 9006251404950.502 9212246386851.502 285.50000000000006 769.50000000000011 444.50000000000006 501.50000000000006 29.500000000000004
decision_type=2 2 2 2 2 2 2 2 2 2 2 2
left_child=-1 -2 -3 7 -5 10 -7 -4 9 -9 -6 -10
right_child=1 2 3 4 5 6 -8 8 11 -11 -12 -13
leaf_value=-0.026022194863177171 -0.031781328492762509 0.025569694542035191 -0.027716044068080196 -0.066129279791896617 0.009904199584494424 0.046388914423733975 -0.0016276361667988293 0.011909543774524516 0.018664819238298717 0.083040041769489634 -0.035040864739230106 -0.030516793362646073
leaf_weight=11.062083337455986 9.76525144651532 14.505099929869173 11.223125651478766 7.6915751546621314 11.771714881062506 23.310953602194786 88.447679836302996 8.1623792536556738 9.4060640335083026 12.563400279730557 30.489712115377188 10.3490634560585
leaf_count=78 67 87 71 54 75 137 556 57 56 76 199 66
internal_value=0 0.000953629 0.00235618 0.000778415 -0.00323431 -9.33754e-05 0.00838775 0.0133289 0.0247085 0.0550272 -0.0225215 -0.00709953
internal_weight=0 237.686 227.921 213.416 161.712 154.02 111.759 51.704 40.4809 20.7258 42.2614 19.7551
internal_count=1579 1501 1434 1347 1021 967 693 326 255 133 274 122
is_linear=0
shrinkage=0.0880239


Tree=49
num_leaves=16
num_cat=0
split_feature=8 8 1 7 7 7 16 16 7 8 8 13 8 8 1
split_gain=0.91697 1.63665 3.65459 1.27424 1.51244 3.59888 5.56963 4.28411 3.15659 3.28339 2.86267 2.75015 4.71499 2.80952 2.435
threshold=1053.5000000000002 958.50000000000011 29.500000000000004 40.500000000000007 368.50000000000006 263.50000000000006 18.500000000000004 2.5000000000000004 549.50000000000011 617.50000000000011 779.50000000000011 9006251404950.502 382.50000000000006 541.50000000000011 30.500000000000004
decision_type=2 2 2 2 2 2 2 2 2 2 2 2 2 2 2
left_child=1 3 -3 -1 5 6 10 -7 9 14 -5 12 -10 -13 -6
right_child=-2 2 -4 4 8 7 -8 -9 11 -11 -12 13 -14 -15 -16
leaf_value=0.032810251345199742 -0.027625268929729385 0.065423783266349969 -0.010596927065522951 -0.0020452403450649985 0.021396731470537261 -0.013432263603413522 0.056379597708276746 -0.099176415792680578 0.015080679324406735 -0.0096383690621356863 -0.059776841835030396 -0.012261616710896629 -0.051501638246788738 0.022232997062280574 0.077476548519310962
leaf_weight=8.5806769989430887 8.5482289865612966 9.4663988873362559 10.156810715794562 27.49244624003768 15.06243370100856 12.437774490565063 10.6501572355628 7.0880432948470107 13.662830132991074 13.884588539600371 8.7804650925099832 36.369016226381063 20.764750029891729 36.813213419169188 9.9704317003488523
leaf_count=54 48 49 59 184 100 88 62 53 87 91 58 230 141 223 59
internal_value=0 0.00171087 0.0260758 -0.000447098 -0.00178704 -0.0128022 0.000412233 -0.0445584 0.00320819 0.0246917 -0.0160203 -0.00456132 -0.0250778 0.0050903 0.0437332
internal_weight=0 241.18 19.6232 221.557 212.976 66.4489 46.9231 19.5258 146.527 38.9175 36.2729 107.61 34.4276 73.1822 25.0329
internal_count=1586 1538 108 1430 1376 445 304 141 931 250 242 681 228 453 159
is_linear=0
shrinkage=0.0880239


Tree=50
num_leaves=20
num_cat=0
split_feature=25 7 7 7 3 0 21 7 7 3 9 7 17 12 7 7 9 0 7
split_gain=0.748283 1.47688 1.06736 3.6346 3.23016 2.67473 3.25716 2.26765 2.20982 2.10214 1.9288 1.89989 4.97657 3.44686 2.44681 3.89055 2.52383 1.33971 0.439739
threshold=1.0000000180025095e-35 568.50000000000011 356.50000000000006 263.50000000000006 748.50000000000011 9.5000000000000018 53.571428571428577 387.50000000000006 112.50000000000001 -1435.4999999999998 85.500000000000014 719.50000000000011 879.50000000000011 1.0000000180025095e-35 501.50000000000006 465.50000000000006 112.50000000000001 6.5000000000000009 112.50000000000001
decision_type=2 2 2 2 2 2 2 2 2 2 2 2 2 2 2 2 2 2 2
left_child=2 -2 3 4 8 6 18 -4 -1 17 -5 14 13 -13 15 -11 -16 -9 -6
right_child=1 -3 7 10 5 -7 -8 9 -10 11 -12 12 -14 -15 16 -17 -18 -19 -20
leaf_value=0.00021066240846309258 0.034067666803652558 -0.0067169548796203607 0.047810297139896103 -0.020092821056869634 0.040482348068779928 -0.059847265223473708 -0.034009242804010104 -0.0022193736841795114 0.063151874780055461 -0.013504541524504079 -0.081485295972731436 0.025057733464650067 0.071788781221063497 -0.019098452211617937 -0.039886829080008727 0.061244898132261798 0.0068316389265268614 -0.04959672232355896 0.011276561873359937
leaf_weight=8.4844659864902514 14.195541717112066 13.347952887415884 8.3008222505450231 9.151050206273796 7.5476378686726155 7.7340006902813903 13.205894172191618 8.785849444568159 8.8101758472621423 13.627024687826635 6.9973126873373976 29.521962191909552 10.098869025707243 25.553882900625467 21.803533848375082 8.930771738290785 15.208986125886439 9.7645384930074197 8.4865031838417035
leaf_count=52 72 69 50 65 47 52 89 52 53 91 58 178 58 173 153 53 100 62 59
internal_value=0 0.0143027 -0.00107954 -0.0100347 0.000874086 -0.0138132 -0.00163702 0.00308013 0.0322743 0.000488961 -0.0466954 0.00460031 0.0149859 0.00457021 -0.00676223 0.016089 -0.0206894 -0.0271581 0.0250247
internal_weight=0 27.5435 222.013 70.417 54.2687 36.974 29.24 151.596 17.2946 143.295 16.1484 124.745 65.1747 55.0758 59.5703 22.5578 37.0125 18.5504 16.0341
internal_count=1586 141 1445 475 352 247 195 970 105 920 123 806 409 351 397 144 253 114 106
is_linear=0
shrinkage=0.0880239


Tree=51
num_leaves=19
num_cat=0
split_feature=8 8 1 1 9 8 3 16 8 14 3 3 8 9 21 8 7 9
split_gain=0.747671 1.2651 3.04182 1.08525 2.2982 4.17683 3.23615 2.8928 2.55087 1.48996 3.4711 2.71188 7.22986 4.84663 4.49185 3.97174 3.75048 2.3286
threshold=1053.5000000000002 958.50000000000011 29.500000000000004 28.500000000000004 159.50000000000003 712.50000000000011 2194.5000000000005 18.500000000000004 568.00000000000011 1.0000000180025095e-35 2555.5000000000005 2208.5000000000005 476.50000000000006 112.50000000000001 41.428571428571438 273.50000000000006 556.50000000000011 80.500000000000014
decision_type=2 2 2 2 2 2 2 2 2 2 2 2 2 2 2 2 2 2
left_child=1 3 -3 4 5 7 -7 8 -1 10 -5 12 16 14 -13 -15 -11 -14
right_child=-2 2 -4 9 -6 6 -8 -9 -10 11 -12 13 17 15 -16 -17 -18 -19
leaf_value=-0.01780328521486603 -0.025220804243799383 0.058120567776378369 -0.010890044632207545 0.052131182250327292 0.030552752209055255 -0.0089823936321791684 -0.070096408276100419 0.046870133579706236 0.033300162125454648 -0.016698389495740654 -0.0090375968456365158 -0.066675755746769858 -0.013050966827482791 0.08655779544247201 0.010207160812441871 0.012761884873417246 -0.092759251212108637 0.041587341363725869
leaf_weight=38.030076365917921 8.4361846819519979 9.6555008813738841 10.152106732130049 14.817062161862852 10.813401371240614 12.772613074630501 14.152586121112106 8.9708135500550252 9.44836552813649 9.8575403541326541 13.960231594741343 8.0326778478920478 11.395325355231764 9.6039430201053637 22.052448209375143 13.729408040642737 10.242385074496267 12.868682306259869
leaf_count=260 48 49 59 93 64 86 98 53 66 63 90 62 71 53 138 91 66 76
internal_value=0 0.00143965 0.0227499 -0.000472484 -0.00762682 -0.0125787 -0.0411057 0.00102809 -0.00763341 0.00485185 0.0224572 -0.000329342 -0.016415 0.0130296 -0.0103203 0.0431363 -0.0554573 0.0159268
internal_weight=0 240.555 19.8076 220.748 94.1879 83.3745 26.9252 56.4493 47.4784 126.56 28.7773 97.7824 44.3639 53.4185 30.0851 23.3334 20.0999 24.264
internal_count=1586 1538 108 1430 627 563 184 379 326 803 183 620 276 344 200 144 129 147
is_linear=0
shrinkage=0.0880239


Tree=52
num_leaves=16
num_cat=0
split_feature=9 7 3 7 7 3 15 9 10 3 3 0 7 3 7
split_gain=0.696699 1.10771 3.86684 3.60946 2.37533 2.37182 2.65966 2.4668 2.34676 2.33588 2.17378 3.59359 1.97298 1.17129 0.990637
threshold=9.5000000000000018 817.50000000000011 3289.5000000000005 773.50000000000011 724.50000000000011 2914.5000000000005 1.0000000180025095e-35 100.50000000000001 4.5000000000000009 4015.5000000000005 1116.5000000000002 5.5000000000000009 489.50000000000006 730.50000000000011 939.50000000000011
decision_type=2 2 2 2 2 2 2 2 2 2 2 2 2 2 2
left_child=-1 3 10 4 5 6 13 -8 -4 -7 11 -3 -11 -2 -13
right_child=1 2 8 -5 -6 9 7 -9 -10 12 -12 14 -14 -15 -16
leaf_value=0.019330020042691052 -0.024272493034148437 0.044334239774338279 0.0022835857925196188 -0.059162048972061461 0.036225773790175456 -0.049438121515949875 0.039073268569479742 -0.0034561289749941789 0.058852360685978385 0.0026482451793779964 -0.047879207515109969 0.00037317088036691476 -0.030358687903189567 0.0098755375725378559 -0.041434244012341352
leaf_weight=14.285633213818071 21.540397819131613 10.37680794298649 9.2531167715787905 8.8073722943663579 12.094279322773216 12.90907985717058 24.921218253672123 18.345927763730288 14.724835343658922 42.126011021435261 8.3686714395880681 8.5923856422305125 21.03980764746666 12.185222346335648 8.9815422520041448
leaf_count=78 143 63 61 61 70 96 141 115 84 281 57 43 142 91 60
internal_value=0 -0.000692872 0.00958836 -0.00425635 -0.00132844 -0.00429573 0.00659592 0.02104 0.0370226 -0.0153189 -0.00852351 0.0032597 -0.0083459 -0.0119345 -0.0209931
internal_weight=0 234.267 60.2974 173.969 165.162 153.068 76.9928 43.2671 23.978 76.0749 36.3194 27.9507 63.1658 33.7256 17.5739
internal_count=1586 1508 368 1140 1079 1009 490 256 145 519 223 166 423 234 103
is_linear=0
shrinkage=0.0880239


Tree=53
num_leaves=13
